{
  "layers": [
    {
      "out_depth": 1,
      "out_sx": 20,
      "out_sy": 20,
      "layer_type": "input"
    },
    {
      "sx": 5,
      "sy": 5,
      "stride": 1,
      "in_depth": 1,
      "out_depth": 8,
      "out_sx": 20,
      "out_sy": 20,
      "layer_type": "conv",
      "l1_decay_mul": 0,
      "l2_decay_mul": 1,
      "pad": 2,
      "filters": [
        {
          "sx": 5,
          "sy": 5,
          "depth": 1,
          "w": {
            "0": null,
            "1": null,
            "2": null,
            "3": -0.00012946501332674996,
            "4": -0.0003391747210486688,
            "5": null,
            "6": null,
            "7": null,
            "8": 0.00007346296494116816,
            "9": -0.00029043149345445645,
            "10": null,
            "11": null,
            "12": null,
            "13": 0.00009931550871449519,
            "14": -0.00032856281121773444,
            "15": 0.0002993895050092334,
            "16": 0.000105385068797802,
            "17": -0.0006278434548964697,
            "18": 0.00046565038034248604,
            "19": -0.00003302393284762883,
            "20": 0.000022334070862554983,
            "21": 0.00020372544974715052,
            "22": -0.00004629476556543911,
            "23": 0.00008159854130269637,
            "24": -0.00010125145184600977
          }
        },
        {
          "sx": 5,
          "sy": 5,
          "depth": 1,
          "w": {
            "0": null,
            "1": null,
            "2": null,
            "3": -0.00013787559902953879,
            "4": -0.00008690879515313328,
            "5": null,
            "6": null,
            "7": null,
            "8": -0.0002235917260372701,
            "9": -0.00009939050183683983,
            "10": null,
            "11": null,
            "12": null,
            "13": -0.0003845635349234733,
            "14": -0.0001401368346765703,
            "15": 0.00019082484440872128,
            "16": -0.0000978817459272237,
            "17": -0.000306772521652125,
            "18": 0.00011782210050253179,
            "19": -0.0003380302811072757,
            "20": 0.00009493921269422145,
            "21": 0.0000946521076008689,
            "22": 0.00009185900284097428,
            "23": -0.000014759435477617622,
            "24": 0.0003407131687371006
          }
        },
        {
          "sx": 5,
          "sy": 5,
          "depth": 1,
          "w": {
            "0": null,
            "1": null,
            "2": null,
            "3": -0.0004154986057764146,
            "4": -0.00015720544435276842,
            "5": null,
            "6": null,
            "7": null,
            "8": 0.00013604323005700543,
            "9": -0.00023536694360604002,
            "10": null,
            "11": null,
            "12": null,
            "13": 0.00008547248294353122,
            "14": 0.00013342251857841804,
            "15": -0.00031893106829817766,
            "16": -0.00010623986676461486,
            "17": -0.00021422283526032553,
            "18": 0.000236629835092682,
            "19": 0.00046272112533289145,
            "20": -0.0002061542657942196,
            "21": 0.00021867718203528257,
            "22": -0.00003681506070202266,
            "23": -0.000317933196138613,
            "24": -0.0005670906728849749
          }
        },
        {
          "sx": 5,
          "sy": 5,
          "depth": 1,
          "w": {
            "0": null,
            "1": null,
            "2": null,
            "3": -0.00017513885616691983,
            "4": -0.0004606292262609237,
            "5": null,
            "6": null,
            "7": null,
            "8": 0.00009504104453417274,
            "9": 0.00019032316177519372,
            "10": null,
            "11": null,
            "12": null,
            "13": 0.00006298324298582875,
            "14": -0.00002381481037701892,
            "15": -0.0000035408552747491384,
            "16": 0.00026174808768662187,
            "17": -0.00011113680506205314,
            "18": 0.00003886390499435199,
            "19": -0.00002478451778679556,
            "20": 0.0002990647787992758,
            "21": -0.0004868742832013065,
            "22": -0.000027945395625444976,
            "23": -0.00020020771460938568,
            "24": 0.0003079406681385479
          }
        },
        {
          "sx": 5,
          "sy": 5,
          "depth": 1,
          "w": {
            "0": null,
            "1": null,
            "2": null,
            "3": -0.00033681833359377436,
            "4": -0.0003009766724454176,
            "5": null,
            "6": null,
            "7": null,
            "8": 0.00008263889987380425,
            "9": 0.0003194640206274426,
            "10": null,
            "11": null,
            "12": null,
            "13": -0.00015092670104649138,
            "14": -0.00013971788067215914,
            "15": 0.00021943069673126654,
            "16": 0.00024489449665782625,
            "17": 0.00011373053378902296,
            "18": -0.00016311478273826668,
            "19": 0.00035807974744007514,
            "20": 0.00029993828589602606,
            "21": 0.00023849518851345842,
            "22": 0.00004586543799842123,
            "23": -0.00009625686628754072,
            "24": 0.0004800549835454568
          }
        },
        {
          "sx": 5,
          "sy": 5,
          "depth": 1,
          "w": {
            "0": null,
            "1": null,
            "2": null,
            "3": 0.00002929527412201796,
            "4": -0.0003068302970619281,
            "5": null,
            "6": null,
            "7": null,
            "8": 0.0002903053856723275,
            "9": 0.00008810743981088609,
            "10": null,
            "11": null,
            "12": null,
            "13": -0.00003478494747969047,
            "14": -0.000008772554323695368,
            "15": -0.0002164587718771737,
            "16": -0.00010701774431683645,
            "17": 0.00010890286093820133,
            "18": 0.00006307279415453987,
            "19": -0.00035388889569415276,
            "20": 0.0000231866232401328,
            "21": 0.00012163876231991936,
            "22": 0.0001699024015968973,
            "23": 0.00034759084096596505,
            "24": -0.00042881120253792336
          }
        },
        {
          "sx": 5,
          "sy": 5,
          "depth": 1,
          "w": {
            "0": null,
            "1": null,
            "2": null,
            "3": 0.00026709109266254345,
            "4": -0.000054544544884427066,
            "5": null,
            "6": null,
            "7": null,
            "8": -0.00014081082086932504,
            "9": -0.000029699524404232672,
            "10": null,
            "11": null,
            "12": null,
            "13": -0.0003683129281818253,
            "14": 0.00012553584295547425,
            "15": 0.000423532586382764,
            "16": -0.0003380190711099607,
            "17": -0.000025982955238185372,
            "18": -0.000339773752322534,
            "19": 0.00013068749877279172,
            "20": 0.00023636729436300047,
            "21": -0.00017321784631071354,
            "22": 0.00016038825251207638,
            "23": -0.00030896312385541956,
            "24": -0.0001709431906556083
          }
        },
        {
          "sx": 5,
          "sy": 5,
          "depth": 1,
          "w": {
            "0": null,
            "1": null,
            "2": null,
            "3": -0.0007811337560937944,
            "4": -0.00009338623459068919,
            "5": null,
            "6": null,
            "7": null,
            "8": 0.00006114354996615299,
            "9": 0.0003290784245373107,
            "10": null,
            "11": null,
            "12": null,
            "13": -0.0001979898230645954,
            "14": 0.00014845842063321017,
            "15": -0.00021151384498079855,
            "16": 0.00035189108790220175,
            "17": -0.0001985770655747573,
            "18": 0.00017254900104520248,
            "19": 0.0005916672168269249,
            "20": 0.0004009048199747901,
            "21": -0.00023099143338004843,
            "22": -0.0003716490912831333,
            "23": -0.0002180429783089096,
            "24": -0.00023122674280749323
          }
        }
      ],
      "biases": {
        "sx": 1,
        "sy": 1,
        "depth": 8,
        "w": {
          "0": 0.08857469829418653,
          "1": 0.10261943175922889,
          "2": 0.09295263820914205,
          "3": 0.09430217041683152,
          "4": 0.10058551047555243,
          "5": 0.10663265479588432,
          "6": 0.09195273608279224,
          "7": 0.10297111547255933
        }
      }
    },
    {
      "out_depth": 8,
      "out_sx": 20,
      "out_sy": 20,
      "layer_type": "relu"
    },
    {
      "sx": 2,
      "sy": 2,
      "stride": 2,
      "in_depth": 8,
      "out_depth": 8,
      "out_sx": 10,
      "out_sy": 10,
      "layer_type": "pool",
      "pad": 0
    },
    {
      "out_depth": 30,
      "out_sx": 1,
      "out_sy": 1,
      "layer_type": "fc",
      "num_inputs": 800,
      "l1_decay_mul": 0,
      "l2_decay_mul": 1,
      "filters": [
        {
          "sx": 1,
          "sy": 1,
          "depth": 800,
          "w": {
            "0": 0.5070298660077465,
            "1": 0.507000289578045,
            "2": 0.5070365309518107,
            "3": 0.5070423959923862,
            "4": 0.5069595392663727,
            "5": 0.5070243138229366,
            "6": 0.5069990550474232,
            "7": 0.5069969616412087,
            "8": 0.000003997757610664779,
            "9": 0.000029645602722538306,
            "10": -0.00008541071869478971,
            "11": -0.00006822785741376432,
            "12": 0.00004152872855086555,
            "13": -0.00006628068188702976,
            "14": 0.00003537015639279581,
            "15": -0.000019292304553769073,
            "16": -0.0000010541882591300194,
            "17": -0.00000301585707558876,
            "18": -0.000010551738784749898,
            "19": -0.000012831924342994575,
            "20": -0.00003619290989316581,
            "21": 0.00007531984470455369,
            "22": 0.00003955513136001323,
            "23": -0.000040710258359890944,
            "24": -0.00005025899629024778,
            "25": -0.000024904073724188925,
            "26": 0.00003346400732334839,
            "27": 0.00002214403168478486,
            "28": 0.00003567965601480414,
            "29": 0.000016250829249637607,
            "30": -0.0000351974145502132,
            "31": -0.00004347533734652446,
            "32": -0.00005701391443821072,
            "33": 0.000030212701834021443,
            "34": 0.00005387181006811554,
            "35": -0.00002531529672289817,
            "36": -0.00001766364583590779,
            "37": 0.000029117349530352672,
            "38": -0.000009458842179007106,
            "39": 0.00011030698983702102,
            "40": -0.00003816766498423885,
            "41": -0.0000699739706695766,
            "42": -0.000021144784753475194,
            "43": -0.000015925799291352147,
            "44": -0.00003643609812058035,
            "45": 0.00003582537081431885,
            "46": -0.00004121012349609825,
            "47": -0.00002864756751892269,
            "48": -0.0000025106549869680023,
            "49": 0.000007028234385313541,
            "50": -0.00005217035734698366,
            "51": -0.0000235869756618491,
            "52": 0.00001075711608849037,
            "53": 0.000012174594728773093,
            "54": -0.0000015547997886794284,
            "55": -0.000020158349014538725,
            "56": -0.00001718501904280153,
            "57": -0.00008203357442753292,
            "58": -0.000052397799829456606,
            "59": -0.000037138224634221254,
            "60": 0.00006859624902501226,
            "61": -0.000022513178778853964,
            "62": 0.000008327789666614758,
            "63": -0.00009273557906135926,
            "64": 0.00006018817973902105,
            "65": -0.00006304046645750376,
            "66": 0.000026195421038878484,
            "67": -0.0000332388165034057,
            "68": 0.0000037629138970795444,
            "69": -0.000027767297843702383,
            "70": 0.00005206712605733705,
            "71": 0.00003683906798757753,
            "72": -0.0000669780015784198,
            "73": -0.0000012337831835046932,
            "74": -0.000022888802320858624,
            "75": -0.000018279764257727954,
            "76": 0.000006872426630379162,
            "77": -0.000036406244094171596,
            "78": -0.000017392981549823986,
            "79": 0.0000336491024294744,
            "80": -0.000004186087725045343,
            "81": 0.00006924314210188812,
            "82": 0.00004553473045842028,
            "83": -0.00007337317146682018,
            "84": 0.000012146235249580948,
            "85": 0.00007569075547902164,
            "86": -0.0000458827190867755,
            "87": -0.00004900469884167782,
            "88": -0.000038295150118108474,
            "89": 0.00007860424880019179,
            "90": 0.000006531052952953847,
            "91": -0.00006232867227384955,
            "92": -0.0000900148488522051,
            "93": 0.000020651217727183816,
            "94": -0.000021854156470416672,
            "95": 0.000019588882890977666,
            "96": 0.000050051984279263094,
            "97": 0.0000427360747232872,
            "98": 0.000042392444946807775,
            "99": 0.00010358353262455706,
            "100": 0.00004574663738346955,
            "101": 0.00003787301681002605,
            "102": -0.00004672795419492995,
            "103": 0.00001507488660049174,
            "104": 0.00003141911141327065,
            "105": 0.0000744707159377535,
            "106": -0.00009893887574369343,
            "107": -0.0000954590147238343,
            "108": 0.000046440791064958184,
            "109": -0.000042004595107571504,
            "110": 0.00003472082537607509,
            "111": -0.000007116163040332666,
            "112": 0.000049976092188429976,
            "113": 0.000021923617431405282,
            "114": 0.000040043916103847095,
            "115": 0.00004253209759376869,
            "116": -0.000036600004364529316,
            "117": -0.00008295964516369585,
            "118": 0.000007033486772077613,
            "119": 0.000006791569139430289,
            "120": -0.00007852356193161187,
            "121": -0.0000042649801062486595,
            "122": 0.00011121833199273906,
            "123": -0.000010644030718605196,
            "124": -0.00003418982806235116,
            "125": -0.000003283590881658017,
            "126": -0.000002917010554658297,
            "127": -0.000036732833426962216,
            "128": -0.00000972356091960973,
            "129": -0.00009213478063464319,
            "130": -0.00004744193225601558,
            "131": -0.00001787632036598321,
            "132": -0.00000986684898958018,
            "133": -0.00003783782288358042,
            "134": -0.000030989979166227386,
            "135": -0.000004024752161504377,
            "136": -0.000004032785262196906,
            "137": -0.00004014773508432874,
            "138": 0.00001583439851913375,
            "139": 0.00005645736075500894,
            "140": -0.00005405270876192357,
            "141": -0.000021903648305725374,
            "142": -0.000011194098333571446,
            "143": -0.00006094663351365253,
            "144": 0.0000059348639359489825,
            "145": 0.000010364055806962703,
            "146": 0.000050814892340567416,
            "147": -0.00006069009134448643,
            "148": -0.00002636589268643966,
            "149": 0.000009547938744032053,
            "150": -0.000009488116483009815,
            "151": -0.000012891571647910292,
            "152": -0.00006325162056520427,
            "153": 0.0000504523765324255,
            "154": -0.00005236450913203274,
            "155": -0.000023991525434583028,
            "156": -0.000009136928834222552,
            "157": -0.00006667819709957546,
            "158": -0.000041440648574379244,
            "159": -0.00007589495767069772,
            "160": -0.0000016829799977388431,
            "161": -0.00004185141708609793,
            "162": 0.00004611978513150242,
            "163": -7.939967611786098e-7,
            "164": -0.000012150010092879215,
            "165": -0.00008626986764819022,
            "166": -0.00004225608952288737,
            "167": 0.00008407853795940081,
            "168": 0.000047871510769376877,
            "169": 0.00002637898781615211,
            "170": -0.000023898875703710765,
            "171": -0.00002358478714897297,
            "172": -0.0000034699199386020906,
            "173": 0.000004984930671003843,
            "174": 0.000023992990842168252,
            "175": 0.00003948666450879401,
            "176": -0.00010383118974199923,
            "177": -0.00003894112082522978,
            "178": 0.00008169513748517191,
            "179": -0.000023132233403208847,
            "180": -5.076382304882161e-7,
            "181": 0.0000210204187747923,
            "182": 0.0000257476315162034,
            "183": 0.000056821103853520764,
            "184": -0.00002506488480308726,
            "185": 0.000009783855515758055,
            "186": -0.000032645046780133766,
            "187": 1.463752437366214e-7,
            "188": -0.00003704801293636495,
            "189": -0.00010444634954888723,
            "190": -0.00006831299416524711,
            "191": 0.00005053160998265716,
            "192": 0.000007676335131823514,
            "193": 0.00000387923544557916,
            "194": -0.0000019739430255902185,
            "195": 0.00006508309125162395,
            "196": 0.00006396560004251162,
            "197": -0.000019218452078316386,
            "198": -0.000036551184773748944,
            "199": 0.000011604341925359252,
            "200": 0.000019717399953367186,
            "201": 0.0000970164637729181,
            "202": 0.00002895019709677302,
            "203": 0.00002551320408429168,
            "204": 0.00003637741927587903,
            "205": 0.00006453429853904102,
            "206": -0.00003400357175415095,
            "207": -0.000003858050825745001,
            "208": -0.000053584363806288725,
            "209": 0.000019919906906205925,
            "210": -0.000008241954157592998,
            "211": -0.00001655171344361403,
            "212": -0.000015320648422046802,
            "213": 0.0000021901450729794513,
            "214": 0.00004537169208077138,
            "215": 0.00002082537474762726,
            "216": -0.0000486907117545289,
            "217": 0.00002409609904571126,
            "218": -0.0000334652402863998,
            "219": -0.000010640934320315192,
            "220": -0.00006001697859033619,
            "221": 0.0000401044848889609,
            "222": -0.000009487048552612872,
            "223": -0.00003965024434322355,
            "224": 0.000026671406517440084,
            "225": 0.00002602002466639677,
            "226": 0.00003857778368561083,
            "227": 0.000021249767888721436,
            "228": 0.000049709785537323836,
            "229": -0.00003362610417897516,
            "230": 9.461830818588924e-7,
            "231": 0.000028458048325259993,
            "232": -0.000040874582739572026,
            "233": 0.000014436073783260946,
            "234": 0.000007440778972199107,
            "235": -0.000009194914245060403,
            "236": 0.00001855751067564902,
            "237": 0.000009801924807649179,
            "238": 0.00003058885384088365,
            "239": 0.00003106810105511599,
            "240": -0.000022810914057371023,
            "241": 0.000017417091748877968,
            "242": 0.00003085570862955197,
            "243": -0.000012025852446732818,
            "244": -0.00003523521776173981,
            "245": 0.0000580896399685883,
            "246": 0.00001154801627579827,
            "247": 0.00002696011075051106,
            "248": 0.000047599048398464946,
            "249": -0.000045573166894181335,
            "250": -0.00003255765550774698,
            "251": -0.000017586125909282038,
            "252": 0.00003814614704634298,
            "253": -0.000012820688548047621,
            "254": -0.000008971294499506632,
            "255": 0.00014113520012786547,
            "256": 0.00008676266006651241,
            "257": 0.00008507070795668242,
            "258": -0.00010149554490356799,
            "259": -0.000016779690521939256,
            "260": -0.00003897729880472951,
            "261": -0.00001466019930933007,
            "262": -0.0000065299347034777945,
            "263": -0.00011236667715044368,
            "264": 0.000016966940485584647,
            "265": 0.00001111834392904767,
            "266": -0.000044001637336786904,
            "267": 0.000016582023197706927,
            "268": -0.000010057280836466453,
            "269": 0.000015031320331589258,
            "270": -0.00003222722385780561,
            "271": 0.00004168355086012123,
            "272": -0.000017837950645099887,
            "273": 0.000051997930832998236,
            "274": -0.000052817007824168945,
            "275": 0.000007821961835646655,
            "276": 0.000027469085145903126,
            "277": -0.00008458624442254715,
            "278": -0.000016483211145336798,
            "279": -0.00006168835759743307,
            "280": 0.000006592830208686508,
            "281": -0.000022175889397545677,
            "282": 0.0000015876107232497207,
            "283": 0.0000448386658178355,
            "284": 0.000012574366240564036,
            "285": -0.000006087573344998278,
            "286": 0.000015687108170788527,
            "287": -0.000011769103691786552,
            "288": -0.000026032422957991985,
            "289": -0.0000037624339887636385,
            "290": 0.00008358553366793202,
            "291": 0.000004549147419253744,
            "292": 9.447852655216244e-7,
            "293": -0.000032388711269096716,
            "294": -0.00009981620095933012,
            "295": -0.0000073493157907870986,
            "296": 0.000050943730267105105,
            "297": -0.000013407756869313695,
            "298": 0.000014604089210176321,
            "299": 0.000043153031346591066,
            "300": -9.663683775936525e-7,
            "301": 0.00001960564675814921,
            "302": 0.0000110419282814159,
            "303": 0.000002951875831466314,
            "304": -0.00008415883647740113,
            "305": -0.0000283439847434237,
            "306": -0.0000061344477067718335,
            "307": -0.0000639497263409751,
            "308": 0.00006205815769477048,
            "309": 0.00005960239193596542,
            "310": 0.000014319060915120548,
            "311": 0.00007135586601846931,
            "312": -0.00003307178885145221,
            "313": -0.000010997686045101026,
            "314": 0.000028711290463067772,
            "315": 0.00004263551928969346,
            "316": 0.000016949179540935755,
            "317": -0.000056304924024044225,
            "318": -0.00004264641438917962,
            "319": -0.00010822592642399949,
            "320": -0.000007176636102349786,
            "321": 0.000009460169704016308,
            "322": 0.00003775824528385428,
            "323": 0.00003853168429599587,
            "324": -0.00004508193487648575,
            "325": -0.000011438683585598215,
            "326": -0.000015497387920110897,
            "327": -0.000037587930941956916,
            "328": 0.00009457983160944605,
            "329": -0.00004964461606765426,
            "330": -0.000045533265579952045,
            "331": -0.00005479944647175476,
            "332": -0.00006847025405979874,
            "333": 0.00006900027164108418,
            "334": -0.00011289937291752343,
            "335": -0.00005724064508513788,
            "336": 0.000007926343555218467,
            "337": -0.00010815393094928223,
            "338": 0.00007853561943513232,
            "339": -0.00003943245701580034,
            "340": -0.00009012715823482519,
            "341": 0.000021488592256264503,
            "342": 0.000016967352229050684,
            "343": 0.000004308971992570046,
            "344": 0.000021870030224790738,
            "345": -0.000023134731152805112,
            "346": 0.000054370449274419265,
            "347": 0.00001970722750650418,
            "348": -0.00001678185554181589,
            "349": 7.851793340170251e-8,
            "350": 0.00005431340014825126,
            "351": -0.0000025259247282669096,
            "352": 0.000016834198008514294,
            "353": -0.00003273621850842594,
            "354": -0.00003365368981674978,
            "355": -0.000050934459639795494,
            "356": -0.000007384219390126666,
            "357": 0.00004516045271265234,
            "358": -0.00006169307035229858,
            "359": -0.0000120498786407928,
            "360": -0.00003528693370123769,
            "361": 0.000010461900486794159,
            "362": 0.000008757296519951362,
            "363": -0.000024366742853168454,
            "364": -0.000047638461031257225,
            "365": -0.00007760883750949004,
            "366": -0.000011365404600250688,
            "367": -0.00003810269554579408,
            "368": 0.000002764978370691265,
            "369": 0.00002929517423031603,
            "370": -0.000020124259330540914,
            "371": -0.00005151558089930889,
            "372": -0.000020749700660082742,
            "373": -0.00001212840176626706,
            "374": 0.000052447715510522224,
            "375": -0.0000022396024237157667,
            "376": -0.00005674414456342112,
            "377": -0.00012986562718822386,
            "378": 0.000059879494061880566,
            "379": -0.0000465159685240376,
            "380": -0.000019766503987973957,
            "381": 0.000012264648773860824,
            "382": 0.00006746148601633412,
            "383": 0.00005592798870495042,
            "384": -0.000033795880179516034,
            "385": -0.00005528086869126039,
            "386": 0.000056612981228959704,
            "387": 0.000042252896827301056,
            "388": 0.000049075264861943216,
            "389": -0.000020914091543569867,
            "390": -0.000012935432506799737,
            "391": 0.000009705530827258144,
            "392": 0.0000022093836027725694,
            "393": -0.00001149977261006571,
            "394": 0.000017815575087213217,
            "395": 0.000005349816035995063,
            "396": 0.000008233938646240272,
            "397": 0.0000700802177376953,
            "398": 0.00009240964259592099,
            "399": 0.00005058529572756131,
            "400": -0.00003991567207672478,
            "401": 0.000021367597068142358,
            "402": -0.000041045835741653214,
            "403": -0.0000218542538864858,
            "404": -0.000165512653027992,
            "405": -0.000008328210061513984,
            "406": 0.00004284327445859669,
            "407": 0.00008533455062112989,
            "408": 0.00008666425897666484,
            "409": 0.000044490500499809535,
            "410": -0.00005532487072828014,
            "411": 0.000016258903756507446,
            "412": 0.00003205325087241523,
            "413": -0.00005483871951855275,
            "414": 0.000011232328175368384,
            "415": -0.00003322033948239108,
            "416": 0.00006339732909799151,
            "417": 0.00001193507862258481,
            "418": 4.2711190900149756e-7,
            "419": -0.000074107179824411,
            "420": -0.00004328197987543497,
            "421": 0.000010838878190594651,
            "422": -0.000022587024642521472,
            "423": -0.00002124967411410265,
            "424": -0.00008014256214281229,
            "425": 0.00009853878159888636,
            "426": 0.000025541536999496938,
            "427": 0.00008915872513864163,
            "428": -0.00005579371152346045,
            "429": 0.0000050174399570217565,
            "430": 0.000026431940481076502,
            "431": 0.000011166593235479715,
            "432": -0.00007702286210077496,
            "433": -0.00003301139617788781,
            "434": 0.00006743298019183924,
            "435": -0.00002140937121747249,
            "436": -0.00008182244327869483,
            "437": 0.000030222331620681778,
            "438": 0.00004153263957994131,
            "439": 0.000012989309026376473,
            "440": 0.000033276168455474516,
            "441": 0.00004902055457454573,
            "442": 0.000029591943883363408,
            "443": 0.000007863449430982016,
            "444": -0.00002060965570406216,
            "445": 0.000019274887738839693,
            "446": 0.00005539315067644674,
            "447": 0.00003242427507870796,
            "448": 0.000045551192075481474,
            "449": -0.000004951317337723386,
            "450": -0.00004831369690385681,
            "451": -0.000006146163003263492,
            "452": 0.000030465200789065608,
            "453": -0.0000848763604922443,
            "454": 0.00004092796497982504,
            "455": -0.00001532107446622651,
            "456": -0.000048106912195033725,
            "457": 0.00007259294984745827,
            "458": 0.000023400222355115683,
            "459": 0.000020271424904224086,
            "460": 0.000040638763681413856,
            "461": -0.00005171496131875069,
            "462": -0.000023762300217398363,
            "463": 0.00006649515847187276,
            "464": -0.000045075714253507655,
            "465": -0.00002548174724166252,
            "466": 0.000018202832292346028,
            "467": 0.000049244308499872415,
            "468": 0.000002650453927000338,
            "469": 0.000049677344744816636,
            "470": 0.00002290357327545228,
            "471": -0.000003220099079180743,
            "472": 0.00002434248882342242,
            "473": -0.00006504579565413702,
            "474": -0.000018124227221945284,
            "475": 0.00002594521369645902,
            "476": 0.00003467128436716247,
            "477": -0.000038485476158773314,
            "478": -0.00004565177865825291,
            "479": 0.000002117654694125581,
            "480": -0.00002493109752409014,
            "481": 0.00001853342553670741,
            "482": -0.00003019546979705077,
            "483": 0.000025909886954519327,
            "484": 7.323945130123786e-7,
            "485": 0.000010637776422567412,
            "486": -0.000015013542889980734,
            "487": 0.000008910471569986623,
            "488": -0.000038680613723743466,
            "489": 0.000011075367786678657,
            "490": 0.00000420589384048159,
            "491": 0.000020924184911224677,
            "492": 0.000033183972431218276,
            "493": -0.0000848971898871372,
            "494": 0.00007759811826026937,
            "495": -0.00004938346480710327,
            "496": -0.000014139249037317035,
            "497": -0.000022835876156551798,
            "498": -0.00006123050087370966,
            "499": 0.000027486790189285462,
            "500": -0.00007928610530157219,
            "501": 0.00001713860880754468,
            "502": -0.00002365280634817563,
            "503": 0.0000028991777918774454,
            "504": -0.0000387131386838981,
            "505": -0.00003956234509726962,
            "506": 0.0000023711769989094627,
            "507": 0.0000929952941967003,
            "508": 0.00006107852510063111,
            "509": 0.00001655306653259521,
            "510": 0.00002168989674503806,
            "511": -0.000004048600543266534,
            "512": -0.000019725474034052298,
            "513": 0.00007560962921996435,
            "514": -0.000019515192892438816,
            "515": 0.00007096630550256374,
            "516": 0.000028914300223021866,
            "517": -0.00003143457862224761,
            "518": -0.000049908178256401506,
            "519": -0.00006580087914248758,
            "520": -0.00005726153173038007,
            "521": -0.00002558995120397929,
            "522": 0.00001056827241943011,
            "523": 0.00003099869124715485,
            "524": 0.000005979265559533076,
            "525": 0.000008236520685758509,
            "526": 0.000044747187395288676,
            "527": 0.000019062827180167896,
            "528": 0.000002658194071728889,
            "529": 0.000028696307407578076,
            "530": 0.000077103151060669,
            "531": -0.00002780766191397332,
            "532": 0.0000786530239124564,
            "533": -0.000012191750414194165,
            "534": -0.0000018757403176487037,
            "535": 0.00000966856218154649,
            "536": -0.00007188580532854851,
            "537": 0.000002512324426135031,
            "538": 0.000043361061007237985,
            "539": 0.000006340768571966299,
            "540": -0.00004499654228891514,
            "541": 0.000046709276700009066,
            "542": 0.0000022877820794075603,
            "543": 0.0000215851171755464,
            "544": -0.000035408394727810026,
            "545": 0.00004810372891750638,
            "546": -0.00001310390715663037,
            "547": -0.000022088708958116324,
            "548": 0.00002035211245981878,
            "549": -0.00006106119746260165,
            "550": 0.000007859422191184083,
            "551": -0.00003694235722551294,
            "552": 0.00005168329491288328,
            "553": -0.00002212739884010265,
            "554": 0.000020226110223975454,
            "555": -0.00004074733497530591,
            "556": -0.00003494398767697131,
            "557": -0.00002040980950485026,
            "558": -0.00001698325784987224,
            "559": 0.000012642883753561258,
            "560": -0.000006780994350904785,
            "561": 0.000020949118334404845,
            "562": 0.00005573443761098438,
            "563": 0.00008034657469367945,
            "564": 0.00004326036380072293,
            "565": -0.00006972082548583479,
            "566": -0.000025331052316613866,
            "567": 0.00001526060277086895,
            "568": -0.00005121670721446199,
            "569": -0.00005993206307180439,
            "570": 0.00006714576935546658,
            "571": -0.000031318499045338264,
            "572": 0.00003298048000561809,
            "573": -0.00012477032659254837,
            "574": -0.000006551508787010604,
            "575": -0.000011740141769322306,
            "576": -7.61396712898289e-7,
            "577": -0.000020003061932045465,
            "578": -0.00002665227444390732,
            "579": -0.000022585612687559414,
            "580": 0.00012032989232006969,
            "581": 0.000027778457368259037,
            "582": 0.000056838601695126835,
            "583": -0.000023307587207370953,
            "584": 0.00002716846802610896,
            "585": 0.0000328682794358916,
            "586": -0.000010052194354711939,
            "587": 0.00005905628026864866,
            "588": -0.000029762270705782227,
            "589": -0.000019416875468807507,
            "590": 0.00000360448284191567,
            "591": 0.00001500931188062134,
            "592": -0.0000967570953951496,
            "593": -0.00004303454283937905,
            "594": 0.00005019183190723654,
            "595": 0.000006570535945059122,
            "596": -0.00002620833826257326,
            "597": 0.000021386985042463794,
            "598": -0.000043421302142821575,
            "599": 0.00008901438779630909,
            "600": -0.000057075497542970784,
            "601": -0.000002277895854772892,
            "602": -0.00002111849929815701,
            "603": 0.00006473995580704952,
            "604": -0.0000020110561736764548,
            "605": -0.000008245414924588755,
            "606": 0.000013963354667370086,
            "607": -0.000010041911703904394,
            "608": 0.00011253772612624111,
            "609": -0.000007681762777695895,
            "610": 0.00004960471274348613,
            "611": -0.00004090690102855091,
            "612": 0.0000274279578236269,
            "613": 0.00006855558069211104,
            "614": 0.000019418544228007847,
            "615": -0.000019147765299824202,
            "616": 0.00004168315090303433,
            "617": -0.00005252761117596953,
            "618": -0.0000436385669297428,
            "619": -0.00003286581932014727,
            "620": 0.000012176777138045473,
            "621": -0.00005749353398306738,
            "622": -0.0000810597735441537,
            "623": -0.00006774983295754378,
            "624": -0.00008268582003085084,
            "625": 0.00003939636329884885,
            "626": -0.000007456063032505061,
            "627": 2.806196170839052e-7,
            "628": -0.00011553788803254538,
            "629": -0.000008302526456643338,
            "630": -0.0000953290069541756,
            "631": 0.00008948895654210427,
            "632": -0.000006734504648972426,
            "633": -0.00003726014801200371,
            "634": 0.00006770848139809207,
            "635": -0.00006823136217907665,
            "636": -0.00009394801082100054,
            "637": 0.0000069622521240033515,
            "638": -0.00004236549536426758,
            "639": 0.0000217643075799859,
            "640": 0.00003862157257303221,
            "641": 0.000043396076704022687,
            "642": 0.000001318383745457964,
            "643": -0.000051243491508988746,
            "644": 0.0000032808614684904755,
            "645": 0.00006195870155276122,
            "646": 0.000002543135373067902,
            "647": -0.00004105527030915072,
            "648": 0.000010785590748407724,
            "649": 0.000008899873612594264,
            "650": -0.00004388734329965256,
            "651": -0.00007309781885293853,
            "652": 0.0000778063389671449,
            "653": -0.00005153881830440687,
            "654": 0.00006995610707812605,
            "655": -0.0000036392412620290793,
            "656": -0.00004201620929348853,
            "657": -0.00004092734585857194,
            "658": 0.0000713754825759554,
            "659": -0.000025489062610310307,
            "660": 0.000028589079072691886,
            "661": -0.00000518095137999388,
            "662": -0.00004084842590340406,
            "663": -0.000026653145237095246,
            "664": 0.000024777445478198584,
            "665": 0.000001116497447455641,
            "666": 0.000025503857764680583,
            "667": 0.0000030853174406249113,
            "668": 0.000007040160337873803,
            "669": 0.00006513984204040812,
            "670": 0.00002274952586485139,
            "671": -0.000028514393781435853,
            "672": -0.00002064675643419042,
            "673": -0.000003375545677077853,
            "674": -0.00003538857229933718,
            "675": -0.00007345068494635207,
            "676": -0.00004467451564631356,
            "677": -0.00009654555492703242,
            "678": -0.00006251630112783741,
            "679": 0.000005559919787375143,
            "680": -0.00002750743382988149,
            "681": 0.0000049747174346992896,
            "682": 0.00002563899893933344,
            "683": 0.000020446500364234306,
            "684": 0.00004057482807122245,
            "685": 0.00004115051171577836,
            "686": 0.00004947872413003465,
            "687": 0.000025645860651850168,
            "688": 0.0000401755141564845,
            "689": 0.00005157860026995542,
            "690": 0.00003926332258130383,
            "691": 0.0000336855991595512,
            "692": 0.000027739651482687787,
            "693": 0.000014052549522374275,
            "694": -0.000026523905329097144,
            "695": 0.000020361457411025083,
            "696": 0.000015511344087834266,
            "697": -8.001481980589377e-7,
            "698": -0.00004267095132659518,
            "699": 0.000013378351096775855,
            "700": -0.000005047088014289898,
            "701": 0.000032372152394247626,
            "702": 0.00006250294753117421,
            "703": 0.000013321482410883096,
            "704": 0.00003803578343681784,
            "705": 0.00002791536107490584,
            "706": -0.000041954038210400696,
            "707": 0.00001561999742427482,
            "708": 0.00002973827083164549,
            "709": -0.00003530252673456706,
            "710": -0.00010650399703015773,
            "711": 0.000048142680529149425,
            "712": -0.00005304428119881992,
            "713": -0.00006429862546163427,
            "714": 0.00004756632975357728,
            "715": 0.00000884438534201447,
            "716": -0.000049748864082463,
            "717": 0.00002791493111209212,
            "718": -0.00006964245142160707,
            "719": 0.000039609400473882924,
            "720": -0.000017636233942728574,
            "721": -0.0000965556760156828,
            "722": -0.000004210956906655248,
            "723": 0.000015822634085714198,
            "724": -0.00001215246980194477,
            "725": 0.00008417675261645198,
            "726": 0.0000065105692655066745,
            "727": 0.000042620281966139594,
            "728": -0.00004930150663926885,
            "729": 0.000016431547333545636,
            "730": 0.000019191222876197244,
            "731": -0.000004068972788253829,
            "732": -0.000026639326337450986,
            "733": -0.00008170522807377844,
            "734": -0.000003737146423494636,
            "735": 0.00007723572933354769,
            "736": 0.00001086527943625197,
            "737": 0.00002548997519209362,
            "738": -0.000015461150419639313,
            "739": 0.0000978974780308893,
            "740": 0.000001422161286495079,
            "741": -0.00003588232694440834,
            "742": 0.00008891672248705854,
            "743": -0.000011820086334724182,
            "744": 0.00008743133707230289,
            "745": 0.00006132283611761127,
            "746": 0.000003957927110081536,
            "747": 0.00009126057102756729,
            "748": 0.000009470629796792792,
            "749": 0.0000034129520081389136,
            "750": -0.0000320326699306831,
            "751": -0.00003480630355092737,
            "752": -0.00011069864393082913,
            "753": -0.00004392362382884492,
            "754": -0.0000635326935064026,
            "755": 0.00006932358543514203,
            "756": 0.00001185972579555365,
            "757": 0.000013497642243589121,
            "758": 0.000066967026451743,
            "759": 0.000026815756762058776,
            "760": -0.00007813685654884823,
            "761": 0.000032079562882559074,
            "762": 0.00003572447658491108,
            "763": 0.00005090664393324762,
            "764": 0.0000029459510091322094,
            "765": -0.00003391858928039567,
            "766": 0.00000817037823776899,
            "767": 0.00004714474389864553,
            "768": -0.0000047141831334887094,
            "769": -0.00004336522379507147,
            "770": 0.000027864123150812843,
            "771": 1.3007051174837304e-7,
            "772": 0.000035217422899671044,
            "773": 0.000035259456407779045,
            "774": 0.00003956952777792513,
            "775": 0.000029587024716505857,
            "776": -0.000006510921087124802,
            "777": -0.000011669073220810382,
            "778": -0.00007493521893596856,
            "779": 0.000021577308157044746,
            "780": -0.000028863262655211723,
            "781": 0.00004493174374449576,
            "782": 0.00000898919198188301,
            "783": 0.0000012561379702395886,
            "784": -0.000025880551569861636,
            "785": -0.000018026238249796624,
            "786": 0.000016935475949592156,
            "787": 0.00003381473019874483,
            "788": -0.000026607716090509533,
            "789": -0.000013185301238209951,
            "790": 0.00001797768426325362,
            "791": 0.00001075907917417569,
            "792": -0.00006596747690280045,
            "793": 0.00007603896016587967,
            "794": 0.00011001854224523049,
            "795": -0.000028459155860909485,
            "796": -0.00006890838945804888,
            "797": -0.000019526040362291633,
            "798": -0.000049422999220832706,
            "799": -0.000023533026782327674
          }
        },
        {
          "sx": 1,
          "sy": 1,
          "depth": 800,
          "w": {
            "0": -0.00001157254360060736,
            "1": -0.000028088016230690758,
            "2": 0.0000598529629724485,
            "3": 0.00005745943789531324,
            "4": -0.00002601581630142144,
            "5": 0.000036910853236534266,
            "6": -0.000026875083014638762,
            "7": 0.000013531481697788324,
            "8": 0.00015780718061460367,
            "9": 0.000027270435358454543,
            "10": 0.000008645029362744277,
            "11": -0.00006533542475450117,
            "12": 0.00001666553506077116,
            "13": -0.0000180528074990906,
            "14": -0.000005586583047144189,
            "15": -0.000026139022567426116,
            "16": 0.000023980755978008462,
            "17": -0.000025666877644413813,
            "18": 0.00006297573696200778,
            "19": 0.00003178651194533166,
            "20": -0.00003356185608324898,
            "21": 0.000032147911708502594,
            "22": -0.00007588577609688498,
            "23": -0.00001010755132667227,
            "24": -0.0000582397027077223,
            "25": 0.000013173481939513493,
            "26": 0.00008349841597570442,
            "27": 0.00004924505412300824,
            "28": 0.000030041579064219907,
            "29": 0.00012909937443774053,
            "30": 0.00001293037729059117,
            "31": 0.000054806961255375865,
            "32": 0.00004815380935092523,
            "33": -0.000022714399773657137,
            "34": 0.00003210750326056611,
            "35": -0.000021930304616406554,
            "36": 0.0000023248296479709164,
            "37": -0.00004002069258801629,
            "38": -0.00005649081135549996,
            "39": -0.00004235949663592149,
            "40": -0.000027715866690426676,
            "41": -0.000043870588720297615,
            "42": -0.00003200032427948484,
            "43": -0.000008871823426364722,
            "44": -0.000011866855930212116,
            "45": 0.00003279753951238609,
            "46": -0.00007628751492280554,
            "47": -1.1616128710019336e-7,
            "48": -0.000007534301242207404,
            "49": 0.00003313211823303045,
            "50": 0.000009581966028808567,
            "51": 0.000022205871849582744,
            "52": -0.00003896603423571373,
            "53": -0.000025963346639435755,
            "54": 0.00005517938086831292,
            "55": 0.00005395006116008297,
            "56": -0.00007893449192712183,
            "57": 0.00003277838066784316,
            "58": 0.00002267652178574632,
            "59": -0.000029218794363654364,
            "60": 0.00005626506379714206,
            "61": -0.000038731427628373174,
            "62": 0.000040949810392905184,
            "63": -0.000037955307669502246,
            "64": -0.00003548849374106536,
            "65": 0.000045796059615503547,
            "66": -0.00004219314778710771,
            "67": 0.000005825543598428663,
            "68": -0.00001678380056229924,
            "69": -0.0000023602542226636417,
            "70": -1.4676082743337054e-7,
            "71": -0.00004042621297509701,
            "72": -0.000026764354142686246,
            "73": -0.00009040712463577378,
            "74": -0.000018626831847037132,
            "75": 0.000006631238055374395,
            "76": 0.00004693345647717916,
            "77": -0.00003703686134787257,
            "78": -0.00004136348455242249,
            "79": 0.000009894114765749376,
            "80": -0.0000123092136696887,
            "81": 0.00007611565266848353,
            "82": 0.00001940050646944379,
            "83": -0.00001922983450564035,
            "84": -0.000006093137044307835,
            "85": -0.000009811675449420072,
            "86": -0.0000802850828308518,
            "87": -0.00010183570728395896,
            "88": 0.000009767714614295606,
            "89": -0.0000031040655881075433,
            "90": 0.000005906696717036981,
            "91": 0.00005507051058734159,
            "92": 0.000014435053587785767,
            "93": -0.00002903315173295131,
            "94": 0.000028811095366991464,
            "95": -0.00002699428199192218,
            "96": -0.00008909926798473089,
            "97": 0.000012195754803710785,
            "98": -0.000022620945196318753,
            "99": -0.00004270542394427382,
            "100": -0.00005775977364094641,
            "101": 0.0000066770034003773085,
            "102": -0.000036902303601667454,
            "103": 0.000025932454716986722,
            "104": -0.000045064016190683194,
            "105": 0.000015248244255800589,
            "106": -0.00004549017087073417,
            "107": -0.00007156038350394784,
            "108": 0.00006857919988525163,
            "109": -0.00005283919312913383,
            "110": 0.00005689396720851705,
            "111": 0.00006272255456543505,
            "112": -0.000026545204448271102,
            "113": 0.000024672699888968023,
            "114": 0.00005520624693450168,
            "115": -0.000023790814725859135,
            "116": 0.00004450408879786815,
            "117": 0.00006479136425555937,
            "118": 0.000049430389475937896,
            "119": 0.00002748215714599765,
            "120": -0.000032906247276144,
            "121": -0.00006157149314149434,
            "122": -0.000022397737420287657,
            "123": -0.000008582908888272099,
            "124": -0.00008714526878193893,
            "125": -0.00002087799844010822,
            "126": -0.00003258031699478783,
            "127": 0.00002599107097509734,
            "128": -0.000024138404243980712,
            "129": 0.00004452874042284368,
            "130": 0.00004870457681744366,
            "131": 0.000020317696245926353,
            "132": -0.00007053414507548594,
            "133": 5.298167400546168e-7,
            "134": -0.0000700684759077301,
            "135": -0.000055524227110131285,
            "136": -0.0000661058221810785,
            "137": -0.0000017754834831614772,
            "138": -0.0000036106394418223407,
            "139": -0.00005053275802822445,
            "140": 0.000025138266196059047,
            "141": 0.00005591169975646523,
            "142": 0.0000207954889279259,
            "143": 0.000032894597560571826,
            "144": -0.000049342167968525105,
            "145": -0.00002731979349404311,
            "146": -0.0000582704818327309,
            "147": 0.0000021395373950996613,
            "148": -0.000020291542455973304,
            "149": 0.000029372444916854582,
            "150": 0.000043709936418368504,
            "151": -0.000025563605337941833,
            "152": -0.0000374086609792476,
            "153": 0.00003516322101828753,
            "154": 0.000026625504435550683,
            "155": 0.000009650946242376144,
            "156": -0.000012087423027625898,
            "157": -0.00003568943173384899,
            "158": -0.00001816430155896245,
            "159": -0.000060347186102332204,
            "160": 0.000019289048446463368,
            "161": -0.00008318918491052135,
            "162": -0.000022579429831130905,
            "163": -0.000001361217241764052,
            "164": 0.000009588781676906393,
            "165": -0.000031189686266355554,
            "166": 0.0000849798348502726,
            "167": -0.000036540788623755945,
            "168": -0.000030334650811270785,
            "169": -0.000003637951268900125,
            "170": -0.00007879392962056391,
            "171": -0.000039148480087270074,
            "172": 0.000019044612453818495,
            "173": -0.00001068629065844172,
            "174": 0.00005142971267127188,
            "175": 0.000015342285784979886,
            "176": -0.00006147363711772232,
            "177": -0.000009919128745813856,
            "178": 0.000026578406883336304,
            "179": -0.00008598157631177168,
            "180": -0.00001803891021773218,
            "181": -0.000060492821538675145,
            "182": -0.00003222198755334299,
            "183": -0.00007770738885155104,
            "184": 0.000004665110663596716,
            "185": -0.000014961510926556466,
            "186": -0.000044631804650412395,
            "187": -0.00003994807270303568,
            "188": 0.00004499729959571146,
            "189": 0.000024959649338290188,
            "190": -0.000014588595748054641,
            "191": 0.00000344645014898977,
            "192": -0.00007238794426075804,
            "193": -0.00008234480154133786,
            "194": 0.00008277496212180682,
            "195": 0.000019004568979018217,
            "196": 0.0000407821801575452,
            "197": 0.000031460558324192,
            "198": -0.000045279270088791594,
            "199": 0.000019882992284221605,
            "200": -0.000060878626039403195,
            "201": -0.000001409289880523857,
            "202": 0.00006202954864998643,
            "203": 0.00002139688895854809,
            "204": -0.00001973768617831214,
            "205": 0.00003884369976924412,
            "206": -0.000014738649241221321,
            "207": 0.000025693522826186834,
            "208": 0.000097054277121947,
            "209": -0.000012516360387694037,
            "210": -0.000013488857818880463,
            "211": -0.000047651756015935186,
            "212": -0.00003764641884664511,
            "213": 0.00005513675040658037,
            "214": -0.000030886832854660626,
            "215": 0.00003370333267114271,
            "216": -0.00010270558853879155,
            "217": -4.804591190498446e-7,
            "218": 0.000018139297641701698,
            "219": 0.00003728912696268676,
            "220": -0.00001552436537292565,
            "221": -0.000040256097102939244,
            "222": 0.000006308803108093227,
            "223": -0.000015391179955400237,
            "224": -0.00001729133026237462,
            "225": -0.00004615398033192591,
            "226": -0.00003325979254283008,
            "227": -0.000008356098453747915,
            "228": 0.000007361396972012583,
            "229": -0.000015702339696766684,
            "230": 0.00004374946600217735,
            "231": 0.00010328016668415697,
            "232": -0.00001574605822524269,
            "233": 0.000049337974728431905,
            "234": -0.000027847316617947487,
            "235": 0.00003930725489701779,
            "236": -0.00004963706144455814,
            "237": -0.00005642218818449313,
            "238": 0.00008530190682828522,
            "239": -0.000028267201845920063,
            "240": -0.000057645811086855524,
            "241": 0.00002545893099195823,
            "242": -0.00002927710842240963,
            "243": -0.00001581571542100813,
            "244": -0.00003638111211557363,
            "245": -0.000045561721539911125,
            "246": 0.0000024639986304473833,
            "247": 0.000011111331684904415,
            "248": 0.00003937739577303694,
            "249": 0.00001617701938031597,
            "250": -0.00004981606570442688,
            "251": -0.00006693542466669814,
            "252": 0.000012643295111234628,
            "253": 0.0000037753081398258085,
            "254": -0.00005222673971288955,
            "255": 0.000004938392086289639,
            "256": 0.00003743216002198534,
            "257": -0.00004543968969261738,
            "258": 0.00007789087170628822,
            "259": 0.000033310012026616036,
            "260": 0.00001501921572403222,
            "261": -0.00005748233290708289,
            "262": -0.000055858198245987165,
            "263": 0.00003310879659861728,
            "264": -0.00007553483657983561,
            "265": 0.00008375430210239393,
            "266": -0.000019170488354513896,
            "267": 0.000016518201115236552,
            "268": -0.00002869011520281317,
            "269": -0.000008875528790141186,
            "270": -0.000022890529897626516,
            "271": 0.000009875714487179781,
            "272": -0.00006401363957398801,
            "273": 0.00007209415014845956,
            "274": 0.00001800681493102609,
            "275": -0.000029701273663520717,
            "276": -0.000014935515500557372,
            "277": 0.000016410965397624774,
            "278": -0.00000817953156198813,
            "279": 0.00006339770552283197,
            "280": 0.00002099509879401984,
            "281": 8.898744409540845e-7,
            "282": -0.000019322238957537198,
            "283": 0.00002173919887993398,
            "284": 0.000008519292354648172,
            "285": -0.00003265443391011896,
            "286": -0.00003186957139611496,
            "287": 0.000017282543990140008,
            "288": 0.00007495252877578951,
            "289": 0.00004219125483653996,
            "290": 0.000004337528819590911,
            "291": 0.0000033520663117723517,
            "292": 0.000048291477243751776,
            "293": 0.00005754146339618843,
            "294": -0.00003232349513662656,
            "295": 8.217269241854638e-7,
            "296": -0.00004014349846182824,
            "297": -9.274764517035906e-7,
            "298": -0.000009640296714920987,
            "299": 0.00004900984306625131,
            "300": -0.000011647348047005372,
            "301": 0.0000016590583978437535,
            "302": 0.0000054718465450987205,
            "303": -0.00010764445397581,
            "304": 0.000009666646947251218,
            "305": -0.00001959509274053417,
            "306": -0.000014076667735706031,
            "307": -0.0000269670583243839,
            "308": 0.000018986737495011398,
            "309": -0.00005326219841538181,
            "310": 0.000012009019849132346,
            "311": 0.00008129765861278033,
            "312": -0.00001658462989026249,
            "313": -0.00007835887244617937,
            "314": -0.000019617125287929617,
            "315": 0.00003642329289627832,
            "316": 0.00008675380198385461,
            "317": 0.00002216856606991067,
            "318": 0.000015844182437046284,
            "319": -0.00003497088589598995,
            "320": 0.000021432377826950408,
            "321": 0.000021080221423773785,
            "322": 0.0000922190750377675,
            "323": 0.00007398140906512549,
            "324": -0.0000070877675094480515,
            "325": -0.00003362921499541723,
            "326": 0.000017853470285701312,
            "327": -0.00006082764400766152,
            "328": -0.000047057483238236664,
            "329": 0.00008445045926125677,
            "330": -0.000058049057060307786,
            "331": 0.00007738364111205914,
            "332": 0.000031160879695395704,
            "333": -0.000027580961393864746,
            "334": 0.00004872911278217695,
            "335": 0.00008049222984385977,
            "336": -0.00002133437680728222,
            "337": 0.00001067508228875349,
            "338": 0.000021798325352839326,
            "339": 0.00003988102972017119,
            "340": 0.0000065050473425270014,
            "341": 0.00009090674902654237,
            "342": -0.00007381968441553975,
            "343": 0.000018293939126983437,
            "344": -0.000012173629229899928,
            "345": 0.00007220800895843222,
            "346": 0.00006913871544266186,
            "347": -0.00003983093029314243,
            "348": -0.000040650217892461885,
            "349": 0.00002334815234756645,
            "350": -0.00003523064301664591,
            "351": -0.000004530561248309785,
            "352": -0.00004260856810520846,
            "353": -0.000007704108131784916,
            "354": -0.000022037262875035873,
            "355": 0.00005497341645728694,
            "356": -0.0000475689683672335,
            "357": 0.000035671311544531415,
            "358": 0.000008348138639598698,
            "359": 0.00004253713660403594,
            "360": 0.00006965528866117482,
            "361": 0.000045993317944801595,
            "362": -0.0000783791895622892,
            "363": 0.00004042343491828273,
            "364": -0.00004933250597174592,
            "365": -0.0000063405521007828696,
            "366": -0.000039055926372633406,
            "367": 0.000005927491362773543,
            "368": 0.00007448243424617345,
            "369": -0.000056675098238312635,
            "370": 0.000021748329707030686,
            "371": 0.000047330168828475664,
            "372": 0.00002785104195510003,
            "373": 0.00002137804166191334,
            "374": -0.000012936170773090001,
            "375": -0.00006766468076332215,
            "376": -0.00000904171992273812,
            "377": -0.00007903184767056092,
            "378": 0.00008125339088992842,
            "379": -0.00007402899586691626,
            "380": 0.00008906601171086531,
            "381": 0.000044175844325652854,
            "382": 0.000030388540019973672,
            "383": 0.000034404864374199066,
            "384": -0.000029543217408114825,
            "385": -0.00006400134396795674,
            "386": -0.000055096923113385206,
            "387": 0.000044380432116372854,
            "388": -0.000056153124383100325,
            "389": 0.00005910232709520828,
            "390": 0.00003848952411552842,
            "391": 0.00011035751071690605,
            "392": -0.00003888954062139209,
            "393": 0.00001841026174379194,
            "394": 0.00004664469843202074,
            "395": -0.000027483344348753777,
            "396": -0.00002030693597159969,
            "397": -0.000008194814720118855,
            "398": -0.0000856259648169024,
            "399": 0.00002234851757726049,
            "400": 0.00001463211623006418,
            "401": 0.00009132436615559767,
            "402": 0.00005547246125845926,
            "403": 1.0677864295501071e-7,
            "404": 0.000028604189437421895,
            "405": -0.000021686526949196086,
            "406": 0.00005798864641121787,
            "407": 0.00008162630943715482,
            "408": -0.000013572784200410109,
            "409": 0.00005512293952358168,
            "410": -0.000014020392460777431,
            "411": -0.0000821399694082285,
            "412": -0.00006369442451657988,
            "413": 0.00001576992335661337,
            "414": -0.00005381194485419758,
            "415": -0.00004802332791342255,
            "416": 0.0000022702194450017123,
            "417": 0.00007880467097463954,
            "418": -0.00006814067826860092,
            "419": -0.00004725778303497734,
            "420": 0.00001535817397948527,
            "421": -0.000012562392101079642,
            "422": 0.000016417855525024805,
            "423": 0.000024482275827236784,
            "424": 0.000050515723582994486,
            "425": 0.000037968197789343836,
            "426": -0.000023073160088401158,
            "427": -0.000017852364230389462,
            "428": 0.000008128183858441383,
            "429": -0.00012012489283647704,
            "430": -1.789861523354119e-7,
            "431": 0.000004105665074658136,
            "432": 0.00007970477413269502,
            "433": 0.000041797879393662605,
            "434": 0.00007286795507926697,
            "435": -0.00006780821421754142,
            "436": -0.00005249062380695008,
            "437": -0.00000601441343101777,
            "438": -0.000009000245715348215,
            "439": 0.000026350909877985513,
            "440": 0.00003878672062600253,
            "441": 0.0000065002679001346675,
            "442": -0.000018315372893156752,
            "443": -0.0000129927057234508,
            "444": -0.000020336144944253814,
            "445": 0.000031599361029773494,
            "446": 0.00002343418163743229,
            "447": 0.000044684126503563885,
            "448": 0.000051776352816454824,
            "449": -0.00004309657279790453,
            "450": 0.0000623459284811047,
            "451": 0.00003728977076916063,
            "452": 0.000022449434913110836,
            "453": 0.0000573737215323598,
            "454": -0.000057929133269945325,
            "455": 0.00005558252762319372,
            "456": 0.000006997399838306784,
            "457": -0.0000491186969481079,
            "458": -0.00002309819087745768,
            "459": -0.000054913776880674396,
            "460": 0.000006678179859101304,
            "461": -0.0000286105556716777,
            "462": -0.00001674297061906268,
            "463": -0.00004334390180943957,
            "464": -0.000056401550557710266,
            "465": 0.00010801883424695596,
            "466": 0.00008088186120422543,
            "467": -0.000020277064475988495,
            "468": 0.000005007544147395667,
            "469": -0.00009542147633128929,
            "470": -0.00002281857516725604,
            "471": -0.000053050873276116197,
            "472": 0.000028849408407565058,
            "473": -0.000031356271955256345,
            "474": -0.000044434480470246185,
            "475": 0.000030098534043456056,
            "476": 0.00002354667196933268,
            "477": 0.00004795267106457507,
            "478": -0.00008747864529264918,
            "479": -0.00007850555664757056,
            "480": 0.00003674908780129773,
            "481": 0.00006173058463689054,
            "482": 0.000021773347602397437,
            "483": 0.000008592272070955002,
            "484": -0.0000023169763022985857,
            "485": 0.000011010903226801872,
            "486": -0.00005474038563918817,
            "487": 0.000005136701538578493,
            "488": 0.00006227583826562104,
            "489": -0.000051672598579358886,
            "490": -0.0000049929074875054905,
            "491": -0.000032271063906423,
            "492": -0.00009406164931291717,
            "493": -0.00003145401321756287,
            "494": 0.000011566258587065396,
            "495": 0.00001425448627075617,
            "496": -0.00006627447500882962,
            "497": 0.000033015908452842454,
            "498": 0.00001847725167725117,
            "499": -0.00006201466306049367,
            "500": -0.00005869088672586528,
            "501": 0.00004757122542634675,
            "502": 0.00003399931959913861,
            "503": -0.00001396175968783058,
            "504": -0.00007034517913409461,
            "505": 0.00001591302324465807,
            "506": 0.00010191653597864102,
            "507": -0.000004223696058006392,
            "508": 0.000046296820328575276,
            "509": -0.00004912012565184242,
            "510": -0.000022711037317020032,
            "511": 0.000055289662011073495,
            "512": -0.000057059562482858526,
            "513": 0.00004815971934112094,
            "514": 0.00007685822702415155,
            "515": -0.000040518044813368735,
            "516": -0.000015636157393121618,
            "517": -0.00007693988757984904,
            "518": -0.00006846418019383994,
            "519": 0.000033632647846532346,
            "520": 0.00002985202321446908,
            "521": -0.00005881281533267267,
            "522": 0.00005656137112039226,
            "523": -0.00005795088868227334,
            "524": -0.00005136643120208264,
            "525": -0.00010756405785653883,
            "526": 0.00008255321907146758,
            "527": 0.000035505986516120163,
            "528": -0.000037652622429045376,
            "529": -0.000006881597440062053,
            "530": -0.0000016776181787054488,
            "531": 0.00005188320038860915,
            "532": -0.000031932118760453964,
            "533": -0.00001686864310148076,
            "534": 0.00005255530510102301,
            "535": -0.0000013581571601907755,
            "536": -0.000009418499584741511,
            "537": 0.00006097699067742719,
            "538": 0.00004208019971362033,
            "539": -0.000016414603057088945,
            "540": -0.000004707111101201552,
            "541": -0.00003637307880231976,
            "542": 0.00003926440687996552,
            "543": 0.000010673540663459084,
            "544": -0.000008531440508025414,
            "545": 0.00005405376391093814,
            "546": -0.0000755421134751308,
            "547": -0.000032456083171390316,
            "548": 0.000018860083496314418,
            "549": 0.00004923546194881999,
            "550": 0.00003414109227597259,
            "551": -0.000007311411152663711,
            "552": -0.00003822897290793963,
            "553": 0.00007839784841863914,
            "554": 0.000017431972944459966,
            "555": 0.000034083408684009044,
            "556": -0.00003438960220435822,
            "557": -0.000025171193328622476,
            "558": -0.00002619177639767065,
            "559": -0.00005372476441916768,
            "560": -0.00000783582784991684,
            "561": 0.000032047880907326786,
            "562": 0.000055639778074981974,
            "563": -0.00002309528464709281,
            "564": -0.000047795340099061834,
            "565": -0.00006271456617982486,
            "566": 0.00004669042685198271,
            "567": 0.00005284609907848267,
            "568": -0.00007570115275513805,
            "569": 0.0000756986157216156,
            "570": 0.00005170840115597096,
            "571": 0.0000522652061665778,
            "572": -0.000022563779331433084,
            "573": -0.000018106031251552628,
            "574": -0.00004189373311986628,
            "575": -0.000027592392919779208,
            "576": -0.00006519232879512311,
            "577": 0.00002920189964422169,
            "578": 0.00003909674073389736,
            "579": 0.000025106008641644017,
            "580": -0.000009865704876824292,
            "581": -0.000027904751094826392,
            "582": 0.000013278538870532639,
            "583": 0.000031177346805392506,
            "584": -0.000024928719179220865,
            "585": 0.000015695171550287516,
            "586": -0.00005817639022022567,
            "587": 0.00004647605699691645,
            "588": 0.000027792989040534114,
            "589": -0.00004238398394111316,
            "590": -0.00005917817978768188,
            "591": 0.00003521564806932484,
            "592": 0.0000034888046348270396,
            "593": -0.000041313610735033044,
            "594": 0.000015885081087975664,
            "595": -0.000007664068114419991,
            "596": 0.00007121873335781903,
            "597": 0.000020644851720416083,
            "598": -0.00004263686878131794,
            "599": 0.000005367392624326603,
            "600": -0.00005599486755319118,
            "601": 0.000022706720989699183,
            "602": -0.000036955342789704765,
            "603": -0.0000388467530649934,
            "604": -0.00012579184233006701,
            "605": -0.00003520706050602049,
            "606": -0.00006477750269314111,
            "607": 0.00006279834397200896,
            "608": -0.00005136653090170623,
            "609": -0.00002505783286389304,
            "610": 0.00007269958842373606,
            "611": -0.00009147852286243937,
            "612": -0.00005803808268877301,
            "613": 0.00004770179754688409,
            "614": -0.000003815247630768255,
            "615": -0.00001065274513583345,
            "616": 0.000021438338482635716,
            "617": -0.000011123669263014769,
            "618": 0.0001267530221814015,
            "619": -0.0000434639498105361,
            "620": -0.000010070907797222327,
            "621": -0.00010497163968726593,
            "622": 0.00005095535813797758,
            "623": -0.00003921952585186142,
            "624": -0.00006003651397024599,
            "625": -0.00000258735655765272,
            "626": 1.196674175193671e-7,
            "627": 0.000008202597804891393,
            "628": 0.000014465069000927305,
            "629": 0.00009623838186187838,
            "630": -0.000009265948145622506,
            "631": 0.00005638536392331351,
            "632": 0.000021800055021892127,
            "633": 0.00005176237558705499,
            "634": 0.00004820176571497386,
            "635": 5.182489223687494e-7,
            "636": 0.00004322418015446316,
            "637": 0.000012562433180125809,
            "638": 0.00003959524111509009,
            "639": 0.00005428519020640463,
            "640": 0.000004148238796356458,
            "641": 0.00003515034854514653,
            "642": 0.00001190167838877145,
            "643": 0.00003552012872876628,
            "644": 0.00008090332208523356,
            "645": 0.0000068367320220325545,
            "646": 0.0000301611688861868,
            "647": -0.000048927938256648944,
            "648": 0.00010275091466489594,
            "649": 0.000005782115412921664,
            "650": 0.000015077074644669662,
            "651": -0.000056984355343221335,
            "652": 0.00007179912583427911,
            "653": 0.000004992166791871992,
            "654": -0.00003131023133774188,
            "655": 0.000031148723973598736,
            "656": 0.000021601876597296797,
            "657": 0.00002566481973278567,
            "658": -0.000039271376039741735,
            "659": -0.00008296416591878742,
            "660": 0.0000347051313104679,
            "661": 0.000011924860044986903,
            "662": -0.00002848857524553944,
            "663": -0.00003581406530645506,
            "664": -0.00007492905513976365,
            "665": -0.00001695325775918156,
            "666": -0.00007579166033025245,
            "667": 0.000016042594108089124,
            "668": -0.000037593371136857145,
            "669": -0.00003018304555737162,
            "670": -0.000001204594849527197,
            "671": -0.000004109165705726616,
            "672": 0.00004891689231223374,
            "673": -0.00004296864090956117,
            "674": 0.0000531835943239976,
            "675": -0.0000413963359479584,
            "676": 0.00012140893615143114,
            "677": -0.00006865158997913967,
            "678": -0.000028620755367250615,
            "679": -0.000008393174071454747,
            "680": 0.000030748830900097455,
            "681": 0.000012544425767060275,
            "682": 0.00004171907387885993,
            "683": 0.00004761359442251889,
            "684": -0.000027982698664006617,
            "685": -0.00006174546513384305,
            "686": -0.000036137464642468445,
            "687": -0.000030067627528794297,
            "688": 0.00003673743600111182,
            "689": -0.000025477959715950757,
            "690": 0.000019737464980375798,
            "691": -0.00005285016563413991,
            "692": 0.00004483320426823472,
            "693": -0.000015170659444119901,
            "694": -0.000003376395586965508,
            "695": 0.00005556675235147936,
            "696": -0.000011187324528578191,
            "697": -0.000026596157494887213,
            "698": -0.0000019715129520806673,
            "699": -0.000026650774599338275,
            "700": -0.00007113754290002129,
            "701": -0.000011646136794373068,
            "702": -0.00002595258054841614,
            "703": -0.0000014657896362865725,
            "704": 0.000017246518083697498,
            "705": 0.00008297004317492697,
            "706": -0.00007050532239486382,
            "707": -0.00003229495507009463,
            "708": -0.00007139629272439193,
            "709": -0.000008613752904758279,
            "710": 0.000008047518580726395,
            "711": 0.00005159488415371777,
            "712": -0.00005590220010918588,
            "713": 0.000016477913329973376,
            "714": -0.000009224065163484933,
            "715": -0.000008116839152387471,
            "716": 0.000022122222379472854,
            "717": -0.000012372753057492178,
            "718": 0.00006610701280827112,
            "719": -0.000037413425679614946,
            "720": 0.000010565471401852074,
            "721": 0.000009087110600266112,
            "722": 0.00010689227594896524,
            "723": 0.000018125318988904573,
            "724": 0.00005683718967466419,
            "725": 0.0000040066375986358025,
            "726": -0.000002015493080655415,
            "727": 0.00006947703802200632,
            "728": 0.00003375995897917231,
            "729": 0.000019269561798988387,
            "730": -0.00005622081798679888,
            "731": 0.000007400013589234933,
            "732": -0.00007530507143327492,
            "733": 0.000033547724660149516,
            "734": 0.0000790038652213201,
            "735": -0.000004950952174489162,
            "736": 0.000019291380654062184,
            "737": -0.000014092478156668063,
            "738": 0.000055020458613720125,
            "739": 0.0000011823275773314439,
            "740": -0.00002552024031688961,
            "741": 0.000004524121192652117,
            "742": -0.0000329268374868593,
            "743": -0.000050245485950306854,
            "744": 0.000049242277357324276,
            "745": 0.000028213826529375706,
            "746": 0.00006507592999491163,
            "747": -0.00003242743294960075,
            "748": 0.0000835842979162836,
            "749": 0.00003075975042717573,
            "750": 0.00002888309913649284,
            "751": 9.96924262402856e-7,
            "752": -0.00003215483349075282,
            "753": -0.00007369622718978757,
            "754": 0.000028891336372461482,
            "755": 0.00002292963510339588,
            "756": -0.0000557546264026312,
            "757": 0.000016102934486836965,
            "758": -0.00007613183777647716,
            "759": 0.000003946208250622145,
            "760": -0.0000067993469277829404,
            "761": 0.00003135746702340986,
            "762": -0.00001544474235281131,
            "763": -0.00004230226182228452,
            "764": 0.00001997371908650285,
            "765": -0.000009631115659867002,
            "766": 0.00005423864508272219,
            "767": -0.000005958545012994058,
            "768": 0.000042483931657944605,
            "769": 0.000039500415480461374,
            "770": 0.000024385694889662126,
            "771": 0.000042060703149341047,
            "772": -0.000021342577047046112,
            "773": -0.00010270881919433183,
            "774": -0.00006436529995158624,
            "775": -0.00004604010595099214,
            "776": 0.0000060159997336342365,
            "777": 0.0000357520483928232,
            "778": -0.00003056627586621938,
            "779": -0.000028580548044426515,
            "780": 0.0000036317696582854327,
            "781": 0.000002861097054593502,
            "782": -0.00003424629861851353,
            "783": 0.000004885421547738938,
            "784": -0.00004870225519022668,
            "785": -0.00001178256212497451,
            "786": -0.000040919721063850256,
            "787": -0.000031940973138247145,
            "788": -0.000005182787558458814,
            "789": 0.00001480355346154409,
            "790": -0.000028548813709428527,
            "791": -0.000004217023006246502,
            "792": 0.00004795211890260054,
            "793": -0.00004092084085890083,
            "794": -0.00006404063300677816,
            "795": 0.000019474922457102268,
            "796": -0.00005200741528246962,
            "797": 0.00001620778655633909,
            "798": -0.00005964213198969206,
            "799": 0.000050356230491959303
          }
        },
        {
          "sx": 1,
          "sy": 1,
          "depth": 800,
          "w": {
            "0": 0.3797920166616876,
            "1": 0.3798472031138902,
            "2": 0.3798013889429886,
            "3": 0.379738954853036,
            "4": 0.379807073250707,
            "5": 0.3797893268905542,
            "6": 0.37974173782712917,
            "7": 0.3797280411125351,
            "8": -0.00003833719444639446,
            "9": 0.000028768704990831276,
            "10": 0.00004999033814223901,
            "11": 0.0000534424759418597,
            "12": 0.0000423927949134362,
            "13": 0.000047262831967122516,
            "14": 0.000054506907416475,
            "15": -0.00004115042168929511,
            "16": -0.000016437866091046227,
            "17": 4.018627584640368e-7,
            "18": -0.000026706770709364653,
            "19": -0.0000014504107248529815,
            "20": -0.00007984063759037894,
            "21": 0.00002286494195940833,
            "22": 0.000039958291182353714,
            "23": 0.00006976273842261236,
            "24": 0.00007981317338872806,
            "25": -0.00014704216680843686,
            "26": 0.0000350176080030101,
            "27": -0.00009639943441059713,
            "28": 0.000020219084989558835,
            "29": 0.000018806956477424243,
            "30": -0.000009381648957459206,
            "31": 0.00000927569276621039,
            "32": -0.000029737247089536067,
            "33": -0.00004496622851792857,
            "34": 0.000029820165992244898,
            "35": -0.0000332687563615594,
            "36": -0.000014635901068966474,
            "37": -0.00004036849732262562,
            "38": 0.000020401451328951696,
            "39": -0.00001519123438906685,
            "40": 0.00010629150064879724,
            "41": -0.00006849746508755116,
            "42": 0.000014854148773602115,
            "43": 0.00007193369823561217,
            "44": -0.00007657905335332467,
            "45": -0.00004848024995981424,
            "46": -0.000013489747634968351,
            "47": -0.000009546333201017033,
            "48": 0.00004865873197247064,
            "49": -0.0000017728609344106663,
            "50": -0.00005316274671017356,
            "51": -0.000028874141507507662,
            "52": 0.00003643789078168766,
            "53": 0.00003953687481589887,
            "54": -0.00002661010328819773,
            "55": -0.000007124123451359971,
            "56": -0.00004433971031103282,
            "57": -0.000017646469792603996,
            "58": -0.00001347918258989792,
            "59": -0.000003989605606667644,
            "60": -0.000011856137933893314,
            "61": -0.00001921260520282897,
            "62": 0.000022100494524110835,
            "63": 0.000011432849062122983,
            "64": 0.000017047089792394733,
            "65": 0.00006036867710664353,
            "66": -0.00006940390711559397,
            "67": 0.000038300001694826526,
            "68": -0.000016073233482509544,
            "69": 0.00002550397182942389,
            "70": 0.00006137848188198585,
            "71": -0.00004791292925727571,
            "72": 0.000029090424279957692,
            "73": -0.0000029251540158533286,
            "74": 0.00007799289290446061,
            "75": 0.00004516848347947607,
            "76": -0.00007747076942512274,
            "77": 0.000033805800440964676,
            "78": -0.00004134284654747896,
            "79": 0.000024585629906497005,
            "80": 0.00003401010153038922,
            "81": -0.000001225863329547425,
            "82": -0.000037329144838787165,
            "83": 0.00003553121242974268,
            "84": -0.0000480174361868845,
            "85": 0.000031036542456674664,
            "86": -0.000015550244341599503,
            "87": 0.0000015936849190159788,
            "88": 0.000020021197186839052,
            "89": 0.00003583155893875978,
            "90": -0.00001603497027654077,
            "91": -0.00006864505974127825,
            "92": -0.0000713693781297642,
            "93": -0.000014847360796381153,
            "94": -0.000020791336699157976,
            "95": 0.000004749773818809407,
            "96": 0.000009903005452582975,
            "97": -0.000011337498055636101,
            "98": 0.000016045786298092226,
            "99": -0.00003471244493447295,
            "100": 0.000025900989412481618,
            "101": 0.000029482880580848484,
            "102": -0.0001226149552692459,
            "103": 0.00010095745127133129,
            "104": -0.000029901694773111337,
            "105": 0.000011587302755799015,
            "106": -0.000027740671213072738,
            "107": -0.000010747367941859208,
            "108": 0.000022484427138301102,
            "109": 0.000012656299658651702,
            "110": 0.00010543185815437876,
            "111": -0.000037987293508796464,
            "112": 0.00008864183827628783,
            "113": 0.00004908483519115328,
            "114": 0.000016093187518409695,
            "115": -0.0000021640904378166424,
            "116": -0.00006219134465887246,
            "117": 1.7314078700905356e-7,
            "118": -0.000013716424171764526,
            "119": -0.000025184276691890026,
            "120": -0.000050509133285974075,
            "121": 0.000033185346609537406,
            "122": 0.00003921998617664247,
            "123": -0.00006360877635113227,
            "124": -0.000060811747229191585,
            "125": 0.000053627001645746365,
            "126": 0.000046265978952107513,
            "127": 0.00001524689946940347,
            "128": 0.0000036020939815393845,
            "129": -0.0000469544684567018,
            "130": 0.000008865867117963125,
            "131": -0.000029482841670762088,
            "132": -0.000015126206100098099,
            "133": 0.00007031632556495317,
            "134": -0.00008327676752782936,
            "135": -0.000007784774534815449,
            "136": 0.000014712567450710617,
            "137": 0.00004737151579947862,
            "138": -0.000030476428836076615,
            "139": 0.000047008109930467244,
            "140": 0.00002691144945793676,
            "141": 0.0000273231660740905,
            "142": -0.000001920463689667401,
            "143": -0.000029735510951294982,
            "144": 0.00006633951133662161,
            "145": -0.000017713815046264134,
            "146": -0.00009002722224168947,
            "147": 0.000013848275109871016,
            "148": 0.0000017338898543954673,
            "149": -0.0000018142988977676482,
            "150": 0.000037206984646223324,
            "151": -0.00003586721846484713,
            "152": 0.00004163221438008091,
            "153": 0.00009594234453057773,
            "154": 0.0000035012446374788037,
            "155": 0.000037892330780933124,
            "156": -0.0000723187488547524,
            "157": 0.00004412771865672048,
            "158": -0.000018727744134012587,
            "159": -0.000036154943197532155,
            "160": -0.00006535940082209083,
            "161": -0.000008780260247842444,
            "162": -0.00005733115178143022,
            "163": 0.00008231571483697305,
            "164": 0.00006188007066314577,
            "165": 0.00005433953078553578,
            "166": -0.000048611608978807776,
            "167": -0.000013220054911446493,
            "168": -0.00007873704109683966,
            "169": 0.000052505865003709604,
            "170": 0.000040206703582973005,
            "171": 0.00005857720720242846,
            "172": 0.00006416644358199994,
            "173": -0.00002615853470625928,
            "174": 0.00008000515705042276,
            "175": 0.0000035713048081665865,
            "176": -0.000010546164597894683,
            "177": -0.00005412046750956293,
            "178": -0.00001856232906896032,
            "179": 0.00006306364111111468,
            "180": 0.00003200092767494088,
            "181": 0.0000059010112672133805,
            "182": 0.00010287778874950795,
            "183": -0.00007228063500015563,
            "184": 0.00003257649626031862,
            "185": 0.00005759455273449099,
            "186": -0.00004177972221740845,
            "187": 0.00002178466300578504,
            "188": 0.000056689550991710054,
            "189": -0.00003850736851637139,
            "190": -0.000019659834328365682,
            "191": 0.000003912285492059446,
            "192": -0.00006451063946347981,
            "193": -0.00006895747275064012,
            "194": -0.00000918377765682669,
            "195": 0.000054615640134129905,
            "196": 0.00004815620773386319,
            "197": -0.000035177670125067625,
            "198": -0.0000624779687199069,
            "199": 0.000009565122825804077,
            "200": 0.000042852174713745115,
            "201": 0.000005968788591394387,
            "202": -0.000035667647096547925,
            "203": 0.00007544621571181988,
            "204": -0.000012649999035679426,
            "205": -0.0000365082984108254,
            "206": 0.0000063574259454958276,
            "207": -0.00004399329714155017,
            "208": -0.000014156831785319814,
            "209": 0.00003568084163255428,
            "210": 0.000030323248185143736,
            "211": -0.000024319714710293148,
            "212": -0.000026225897767624314,
            "213": -0.00011508013514325408,
            "214": 0.00000921553239074979,
            "215": 0.00005174245899389074,
            "216": 0.000010873313221380574,
            "217": 0.00004030137247871262,
            "218": -0.00009020324943550214,
            "219": -0.000017068899524498833,
            "220": 0.000003909085910701383,
            "221": -0.000011614524738262244,
            "222": -0.0000028092392061252053,
            "223": -0.0000034202443655882764,
            "224": -0.000039913720165388426,
            "225": -0.0000814209898926885,
            "226": -0.000048395030601474845,
            "227": 0.00007059682187690299,
            "228": 0.00011123595412942349,
            "229": 0.00007373027771011224,
            "230": -0.000017012600408423628,
            "231": -0.000004535962533066046,
            "232": -0.00005301648688164231,
            "233": -0.000022200538218839245,
            "234": 0.00001322451826338898,
            "235": 0.000011265319378458355,
            "236": 0.00006426890145054223,
            "237": -0.000026020816255885964,
            "238": -0.00008379838378206877,
            "239": 0.000021195010793365553,
            "240": -0.00003150180624127825,
            "241": -0.00002495061573183232,
            "242": 0.000012220898198138296,
            "243": -0.00002625076120345245,
            "244": 0.000013408432154155805,
            "245": -0.00004095918800314761,
            "246": 0.000056263937942626134,
            "247": 0.000016754119476774237,
            "248": 0.00007265198044942639,
            "249": 0.000009399055665239275,
            "250": -0.00001748172365245095,
            "251": -0.000047649344899785256,
            "252": -0.00004317628598320879,
            "253": 0.00004429802839969534,
            "254": -0.00009352341186176635,
            "255": -0.00004279266250759456,
            "256": 0.00005282010510203587,
            "257": -0.00003052256381269677,
            "258": 0.000049260090361999336,
            "259": 0.000034171297193079535,
            "260": 0.00003511831342396941,
            "261": 0.00006754089899037848,
            "262": -0.000009832005312439992,
            "263": 0.00005892862803760089,
            "264": 0.000014774592752911578,
            "265": -0.000051638204971884574,
            "266": -0.00005910067505697546,
            "267": -0.00010775414136200614,
            "268": 0.000025508004920282244,
            "269": -0.000022625973121115597,
            "270": 0.00006646957190784097,
            "271": 0.00006312027381610902,
            "272": 0.00001672553499720761,
            "273": -0.000006703816681323121,
            "274": 0.00003556406683177742,
            "275": -0.000060367008421381424,
            "276": 0.00006911565621403827,
            "277": 0.0001050007414934982,
            "278": 0.000031768940909959265,
            "279": -0.00006842800296955937,
            "280": 0.00003372775054284348,
            "281": -0.000016694861938536573,
            "282": 0.000010492907782123984,
            "283": 0.000016394905255441564,
            "284": 0.000010881697641343413,
            "285": -0.00008703305328558774,
            "286": 0.00008282530118324121,
            "287": -0.000028345458991390323,
            "288": -0.00003372770881661107,
            "289": -0.00010490123809170334,
            "290": 0.00004817889802779407,
            "291": 0.000007200063731682733,
            "292": 0.00007004208262869052,
            "293": 0.0000631166592071187,
            "294": -0.000001797865933489022,
            "295": -0.0000367240820988764,
            "296": 0.00004071059070078851,
            "297": 0.00005427022224123763,
            "298": -0.000002491050726036776,
            "299": 0.00003711476600707466,
            "300": 0.00003442886356046918,
            "301": -0.000012814008345103804,
            "302": 0.0000336957335078498,
            "303": 0.000014590945155500817,
            "304": 0.0000844806076281036,
            "305": 0.000014249787913115095,
            "306": 0.00005332801523778966,
            "307": -0.000010335473937452917,
            "308": -0.00000605216048620197,
            "309": 0.00006479631992605953,
            "310": 0.000008357193741054908,
            "311": 0.000035495211473760234,
            "312": -0.000046849648080963405,
            "313": 0.00010620137638686194,
            "314": -0.00003536592979421187,
            "315": 0.0000023689131121820693,
            "316": -0.00005547374836626419,
            "317": 0.000008618631497348564,
            "318": -0.000006144343341925007,
            "319": 0.00002605516227547819,
            "320": 0.00005122426587951821,
            "321": -0.000019747304979879417,
            "322": -0.000009860094915494005,
            "323": -0.0000473908930084799,
            "324": -0.000004779028665613658,
            "325": 0.00005642251651269261,
            "326": 0.00008137782772946006,
            "327": -1.2928684804612183e-7,
            "328": 0.000014596133524781417,
            "329": 0.000029810873006691847,
            "330": 0.000060623448941065196,
            "331": 0.000031213248130172714,
            "332": -0.000014026379111614083,
            "333": -0.00001712515325528098,
            "334": 0.00006527659863563808,
            "335": -0.0000010501866641500542,
            "336": 0.00005978678282455921,
            "337": 0.000013099246382963325,
            "338": -0.000019839401070780805,
            "339": -0.000012550354080306928,
            "340": -0.000015533197591578413,
            "341": -0.0000098479969063083,
            "342": -0.000019002710607713943,
            "343": 0.0000059437341465505514,
            "344": -0.000040981708545105806,
            "345": 0.000032969682811904425,
            "346": 0.00007461540888011427,
            "347": -0.000002575974232986823,
            "348": 0.000003485914246191543,
            "349": 0.0000522085300035735,
            "350": 0.000001037308866614592,
            "351": 0.0000595701107246854,
            "352": -0.00004445256018584497,
            "353": -0.00003648265854732375,
            "354": 0.000018987148594853778,
            "355": -0.000011616341125898987,
            "356": 0.00004218797333632805,
            "357": 0.000002229875261460952,
            "358": -0.000050888566780203294,
            "359": -0.0000062749931040125755,
            "360": 0.00002271448857881879,
            "361": 0.00003876733946021058,
            "362": -0.000036950898367005193,
            "363": -0.000019985167103724053,
            "364": -0.00004524952815608777,
            "365": 0.0000845077442230885,
            "366": 0.000036769133893890895,
            "367": 0.000010819910615441424,
            "368": 0.00005392509056611693,
            "369": -0.00005149441922913354,
            "370": 0.00003580839442931561,
            "371": 0.000020052460284046643,
            "372": 0.000026800322598820705,
            "373": -0.000002300082618995632,
            "374": 0.00004410018966826296,
            "375": -0.00001179842677354426,
            "376": -0.00003004777154392837,
            "377": 0.000057361023655436126,
            "378": -0.00004754585901076984,
            "379": 0.000014265237201737344,
            "380": -0.000019188348303154774,
            "381": 0.000005290319977570167,
            "382": 0.000016334555775646625,
            "383": 0.00003323784998369984,
            "384": -0.00003311874002641556,
            "385": -0.00004227575176053253,
            "386": -0.000009089857726630365,
            "387": 0.000007315118055872991,
            "388": -0.000005951737057550845,
            "389": 0.000018773486241264807,
            "390": 0.0001345948766961156,
            "391": -0.00005811547177564572,
            "392": -0.000006815834837246833,
            "393": -0.00005809327602161291,
            "394": -0.00003885361506947777,
            "395": -0.000013033413137378802,
            "396": 0.000022245418953386883,
            "397": -0.000052556307500381884,
            "398": -0.000006605277562073715,
            "399": -0.000005578654741891956,
            "400": -0.00000118316037266811,
            "401": -0.00005990568840489722,
            "402": 0.0000841753133043912,
            "403": 0.00001975980418828663,
            "404": -0.000027121397998316392,
            "405": 0.000009217373143366288,
            "406": 0.00002459205439181833,
            "407": 0.00004027387933481862,
            "408": -0.0001187269427261642,
            "409": 0.000010468312754058227,
            "410": -0.000027051198295231346,
            "411": -0.00007691140520666715,
            "412": 0.00000975169121453055,
            "413": -0.000041318093626322915,
            "414": -0.00007463584730133286,
            "415": 0.000028740443875345123,
            "416": 0.00004945952567219296,
            "417": 0.00006070523190134874,
            "418": 0.00004504788490015074,
            "419": -0.000016653055436263047,
            "420": -0.00005365664046723537,
            "421": 0.000026433003149155513,
            "422": -0.000059872041278733895,
            "423": 0.00010451794708116122,
            "424": -0.000037631728690342495,
            "425": 0.000023008642990567715,
            "426": -0.0000557868542981714,
            "427": -0.00007402161223383642,
            "428": -0.00006576164248096255,
            "429": 0.00008486301527061697,
            "430": -0.0000354413719274064,
            "431": -0.000019636994453418484,
            "432": -0.00002825721799385803,
            "433": 0.00008269496352567227,
            "434": 0.000018579474508326304,
            "435": -0.0000461720108102758,
            "436": 0.00007145648472834134,
            "437": -0.00008250981534053584,
            "438": -0.000029958240460029445,
            "439": 0.000013342894129858595,
            "440": -0.000016720211350527068,
            "441": -0.000012307461577640492,
            "442": -0.0000060547859599948855,
            "443": -0.000027845318034412155,
            "444": 0.000013973775242409742,
            "445": 0.00006258746145954033,
            "446": -0.00000899728518019942,
            "447": 0.000018477829557862327,
            "448": 3.39197301965527e-7,
            "449": -0.0000772476155540013,
            "450": -0.000029382992266218377,
            "451": 0.00004323078155492449,
            "452": -0.000005932764698553757,
            "453": 0.0000163056388722459,
            "454": 0.000011330695582106155,
            "455": -0.00006620185088104726,
            "456": -0.000011739730428526876,
            "457": 0.00005290746493086055,
            "458": 0.000047991448083952147,
            "459": -0.00006311696561292147,
            "460": -0.00006946946577654252,
            "461": -0.00004979882667738703,
            "462": 0.00009680579274816549,
            "463": -0.000055875033157886474,
            "464": 0.00004966900058496778,
            "465": -0.00003969705321960656,
            "466": 0.000051743444256081,
            "467": -0.00003726249135596745,
            "468": -0.000003972012064897937,
            "469": -0.00006119657279873297,
