{
  "layers": [
    {
      "out_depth": 1,
      "out_sx": 20,
      "out_sy": 20,
      "layer_type": "input"
    },
    {
      "sx": 5,
      "sy": 5,
      "stride": 1,
      "in_depth": 1,
      "out_depth": 8,
      "out_sx": 20,
      "out_sy": 20,
      "layer_type": "conv",
      "l1_decay_mul": 0,
      "l2_decay_mul": 1,
      "pad": 2,
      "filters": [
        {
          "sx": 5,
          "sy": 5,
          "depth": 1,
          "w": {
            "0": null,
            "1": null,
            "2": null,
            "3": -0.4046668024139131,
            "4": -0.25324248832129886,
            "5": null,
            "6": null,
            "7": null,
            "8": 0.13206463337736454,
            "9": 0.1864687568988698,
            "10": null,
            "11": null,
            "12": null,
            "13": 0.09500646862178093,
            "14": 0.2214195857928566,
            "15": 0.11902430458049158,
            "16": -0.09528663784742458,
            "17": -0.20361249006880835,
            "18": 0.12956213938955474,
            "19": -0.17730104349739903,
            "20": -0.24674284018930398,
            "21": 0.25525910090981047,
            "22": 0.21301683679969102,
            "23": 0.08893291504505363,
            "24": 0.12332399102696338
          }
        },
        {
          "sx": 5,
          "sy": 5,
          "depth": 1,
          "w": {
            "0": null,
            "1": null,
            "2": null,
            "3": -0.03243107072713428,
            "4": -0.21100132570395058,
            "5": null,
            "6": null,
            "7": null,
            "8": -0.07539855524715015,
            "9": 0.05163957761849211,
            "10": null,
            "11": null,
            "12": null,
            "13": 0.030445197103087327,
            "14": -0.32058278487441805,
            "15": -0.11847220009917754,
            "16": -0.15924134802467166,
            "17": 0.11758056264048442,
            "18": -0.6426897509004607,
            "19": -0.22867751059825586,
            "20": -0.1298626711635511,
            "21": -0.21199282558075597,
            "22": 0.16655575323834482,
            "23": -0.08176430572673271,
            "24": -0.2519618546767753
          }
        },
        {
          "sx": 5,
          "sy": 5,
          "depth": 1,
          "w": {
            "0": null,
            "1": null,
            "2": null,
            "3": -0.13755572692008342,
            "4": -0.19777844992046617,
            "5": null,
            "6": null,
            "7": null,
            "8": 0.05490247970970329,
            "9": 0.16694566301975367,
            "10": null,
            "11": null,
            "12": null,
            "13": -0.04885698424837415,
            "14": -0.18097629339322902,
            "15": -0.13218089265140792,
            "16": -0.03323560892996185,
            "17": 0.12825024878858998,
            "18": -0.08580100672239535,
            "19": -0.17174100565527015,
            "20": 0.08028469946487277,
            "21": 0.08569589656527941,
            "22": -0.04142039709755018,
            "23": -0.03586644558551415,
            "24": 0.01715887736815621
          }
        },
        {
          "sx": 5,
          "sy": 5,
          "depth": 1,
          "w": {
            "0": null,
            "1": null,
            "2": null,
            "3": -0.10076167093464153,
            "4": -0.32543124932417394,
            "5": null,
            "6": null,
            "7": null,
            "8": -0.053733588406742416,
            "9": -0.0012597620993598697,
            "10": null,
            "11": null,
            "12": null,
            "13": 0.051338670819834106,
            "14": 0.08273900935600985,
            "15": 0.06533822716478004,
            "16": -0.3664880422636466,
            "17": -0.04304905839126717,
            "18": -0.014894616652549314,
            "19": -0.21900247033529227,
            "20": 0.05835160184314288,
            "21": 0.047212473866065,
            "22": 0.06774814478260732,
            "23": -0.1073540822959542,
            "24": -0.08753878325261527
          }
        },
        {
          "sx": 5,
          "sy": 5,
          "depth": 1,
          "w": {
            "0": null,
            "1": null,
            "2": null,
            "3": -0.07393846991687447,
            "4": -0.004982501387393898,
            "5": null,
            "6": null,
            "7": null,
            "8": 0.2744487746749432,
            "9": -0.0168210390441076,
            "10": null,
            "11": null,
            "12": null,
            "13": 0.26087522730318174,
            "14": -0.10819987227536065,
            "15": -0.17147386749440235,
            "16": -0.20911103088022648,
            "17": -0.39399293296837,
            "18": -0.009167716061985087,
            "19": -0.2603176190409467,
            "20": 0.202314071726959,
            "21": 0.10287421345295453,
            "22": -0.2430379082829383,
            "23": -0.14939928898381358,
            "24": 0.11930520677498488
          }
        },
        {
          "sx": 5,
          "sy": 5,
          "depth": 1,
          "w": {
            "0": null,
            "1": null,
            "2": null,
            "3": 0.2789659317527973,
            "4": 0.09853166337052845,
            "5": null,
            "6": null,
            "7": null,
            "8": -0.0013781993590261897,
            "9": -0.2547712412819498,
            "10": null,
            "11": null,
            "12": null,
            "13": 0.24466941249588556,
            "14": 0.20737466945038557,
            "15": -0.12185222638763063,
            "16": -0.18697229524006376,
            "17": -0.13823613191489414,
            "18": 0.1646918996523857,
            "19": -0.19344413825604775,
            "20": 0.0033079980246394102,
            "21": -0.13881514659822156,
            "22": 0.23604849863463992,
            "23": -0.32705649373748324,
            "24": -0.06044177795857717
          }
        },
        {
          "sx": 5,
          "sy": 5,
          "depth": 1,
          "w": {
            "0": null,
            "1": null,
            "2": null,
            "3": -0.13803975292790704,
            "4": 0.028449092033373972,
            "5": null,
            "6": null,
            "7": null,
            "8": -0.11120171981441276,
            "9": 0.30736712436241664,
            "10": null,
            "11": null,
            "12": null,
            "13": -0.22902891902340244,
            "14": 0.029857762878015063,
            "15": 0.19057209347566606,
            "16": 0.0038019594683388032,
            "17": -0.26788708360604957,
            "18": 0.2810183722044651,
            "19": -0.16058903105499242,
            "20": -0.24090101607209782,
            "21": 0.5735668180463116,
            "22": 0.14318448989935711,
            "23": -0.28030387999955353,
            "24": 0.15743654344815222
          }
        },
        {
          "sx": 5,
          "sy": 5,
          "depth": 1,
          "w": {
            "0": null,
            "1": null,
            "2": null,
            "3": 0.12991555429545745,
            "4": -0.4365041149272964,
            "5": null,
            "6": null,
            "7": null,
            "8": -0.22321404900969827,
            "9": 0.07759068480742012,
            "10": null,
            "11": null,
            "12": null,
            "13": -0.14033337601587534,
            "14": -0.03950470556614785,
            "15": -0.08511206033139695,
            "16": 0.005082262458870957,
            "17": -0.1849761241522795,
            "18": 0.07174765703499489,
            "19": -0.18346353230197984,
            "20": 0.25204056872778235,
            "21": -0.07470651845972133,
            "22": -0.2469870500344612,
            "23": -0.14794445942823903,
            "24": -0.10823544476368535
          }
        }
      ],
      "biases": {
        "sx": 1,
        "sy": 1,
        "depth": 8,
        "w": {
          "0": 0.10016583871546804,
          "1": 0.10012982936832898,
          "2": 0.09992272102435454,
          "3": 0.1000479971749289,
          "4": 0.10003139612678519,
          "5": 0.10007470516622452,
          "6": 0.0999508393384546,
          "7": 0.09990847425905428
        }
      }
    },
    {
      "out_depth": 8,
      "out_sx": 20,
      "out_sy": 20,
      "layer_type": "relu"
    },
    {
      "sx": 2,
      "sy": 2,
      "stride": 2,
      "in_depth": 8,
      "out_depth": 8,
      "out_sx": 10,
      "out_sy": 10,
      "layer_type": "pool",
      "pad": 0
    },
    {
      "out_depth": 30,
      "out_sx": 1,
      "out_sy": 1,
      "layer_type": "fc",
      "num_inputs": 800,
      "l1_decay_mul": 0,
      "l2_decay_mul": 1,
      "filters": [
        {
          "sx": 1,
          "sy": 1,
          "depth": 800,
          "w": {
            "0": 5.2986414316386945,
            "1": 5.284868891712751,
            "2": 5.2799370076520695,
            "3": 5.328195410747116,
            "4": 5.329659976691601,
            "5": 5.253050389107145,
            "6": 5.317764710427969,
            "7": 5.3250773176880895,
            "8": -0.008629133897997061,
            "9": 0.021153185706548106,
            "10": 0.00540225289714165,
            "11": -0.014298532768726337,
            "12": 0.021639630175368303,
            "13": 0.06495933313581093,
            "14": 0.016298656539065443,
            "15": 0.017431693383704115,
            "16": -0.03501197370373217,
            "17": 0.0236117737633296,
            "18": -0.0728498522074958,
            "19": -0.06588148602436557,
            "20": 0.04202278701521149,
            "21": 0.01313093946447569,
            "22": 0.07365088877059568,
            "23": -0.0127764718731654,
            "24": -0.002914668486791011,
            "25": 0.027853708305414008,
            "26": 0.012177235489068057,
            "27": -0.0003252478983288003,
            "28": 0.0495465938810246,
            "29": 0.0042939717568874075,
            "30": -0.026295810309835625,
            "31": -0.036014240971031425,
            "32": 0.005033244721071687,
            "33": 0.0573790269922688,
            "34": 0.03180589853451545,
            "35": 0.006184263082317194,
            "36": 0.02026677237378377,
            "37": -0.06888334411629017,
            "38": -0.027665111924866582,
            "39": -0.07225031497061436,
            "40": -0.009227041911245472,
            "41": 0.048562290173773816,
            "42": -0.06132451467996853,
            "43": 0.02392583557277779,
            "44": 0.012671286909423525,
            "45": -0.006912082594601959,
            "46": 0.0027789766583312127,
            "47": 0.053385686569414705,
            "48": 0.0014251277421236806,
            "49": 0.0023283060689844024,
            "50": 0.05793722399893761,
            "51": -0.029379178893271123,
            "52": 0.02462870141582416,
            "53": -0.047298074827365026,
            "54": -0.032404068659173134,
            "55": 0.08282316769308166,
            "56": 0.012624976957421733,
            "57": -0.007503438113313758,
            "58": 0.022982722693615423,
            "59": 0.004227893296701333,
            "60": 0.04241286041905843,
            "61": -0.00959370290278949,
            "62": 0.040706850633191474,
            "63": 0.018425406868893546,
            "64": 0.05755106812258141,
            "65": -0.005164606566057608,
            "66": 0.007237738092396287,
            "67": -0.01383870463206865,
            "68": -0.025998578195192083,
            "69": 0.03997846362715749,
            "70": -0.04661515387913352,
            "71": 0.0008352364064677288,
            "72": 0.08340778938660173,
            "73": -0.013449853615286847,
            "74": -0.013520226146999647,
            "75": -0.00019864101196952457,
            "76": -0.0004731566276875823,
            "77": -0.03387959312733499,
            "78": -0.0572337765014875,
            "79": 0.04168311394353988,
            "80": -0.056727383104430415,
            "81": 0.018212482136965694,
            "82": -0.024449359916697964,
            "83": 0.03387651958714605,
            "84": 0.043420780949269745,
            "85": 0.008203796634838863,
            "86": -0.07310121349423834,
            "87": 0.00816877088470663,
            "88": -0.07215081869244869,
            "89": 0.05325172864021132,
            "90": -0.01395996181409659,
            "91": 0.023637691015296666,
            "92": 0.0587347331379798,
            "93": 0.014079014065079552,
            "94": -0.02836075672455903,
            "95": 0.07989178783778514,
            "96": 0.03615057211584131,
            "97": 0.03715400426857735,
            "98": -0.005700067608305191,
            "99": -0.000322032150473375,
            "100": -0.008288597561633039,
            "101": -0.13657333028302163,
            "102": 0.08238159641931285,
            "103": -0.01778013120448937,
            "104": 0.02603997839730958,
            "105": -0.03127002313650273,
            "106": -0.0017209144336694216,
            "107": -0.004331747136308646,
            "108": -0.008424863109244519,
            "109": -0.011729617418153359,
            "110": 0.01632428638227019,
            "111": 0.06725764965273423,
            "112": -0.0010661464274591343,
            "113": -0.014687744547412231,
            "114": 0.015047390248317574,
            "115": -0.010842457594325861,
            "116": 0.0319777605934724,
            "117": -0.03143831658095087,
            "118": 0.03985428408470217,
            "119": -0.009283740850676993,
            "120": -0.04366924382574853,
            "121": -0.0430159815703672,
            "122": -0.016968159616723263,
            "123": 0.04309398174348609,
            "124": 0.00697529886863742,
            "125": -0.002160088974645225,
            "126": 0.044259684130879474,
            "127": 0.07934524159112216,
            "128": 0.0077729831374042675,
            "129": -0.014106895846403976,
            "130": 0.00663137977593307,
            "131": -0.012802623435102212,
            "132": 0.05658644076135643,
            "133": -0.0183266173912315,
            "134": 0.04901899952717497,
            "135": 0.006839256726314609,
            "136": 0.05465967923220496,
            "137": 0.017684844947760195,
            "138": 0.0055207345281171665,
            "139": 0.032243569016661144,
            "140": 0.012653764009360748,
            "141": 0.008825258945293384,
            "142": 0.06575224328563355,
            "143": 0.012252369636089618,
            "144": -0.02302368268269587,
            "145": 0.02862138544829214,
            "146": 0.043206739521991784,
            "147": 0.0035483914976089546,
            "148": 0.0010477436405021089,
            "149": -0.039937100588029545,
            "150": 0.024133704545763034,
            "151": -0.03672013228168246,
            "152": 0.03761730690508597,
            "153": 0.009587510182953727,
            "154": -0.01222557928182352,
            "155": 0.0226425686119196,
            "156": -0.01204478527778296,
            "157": -0.040910052583724876,
            "158": 0.03964482351925669,
            "159": -0.026595450251143477,
            "160": 0.05674259861153215,
            "161": 0.02677602520722102,
            "162": -0.04007488246153126,
            "163": -0.0941437109954973,
            "164": -0.004099576978095978,
            "165": 0.022656756334162777,
            "166": -0.020252895966087217,
            "167": 0.008725705505592212,
            "168": -0.0016929505371110647,
            "169": 0.005649329362783577,
            "170": 0.02233271727182744,
            "171": 0.04684880328055358,
            "172": 0.009758183455394611,
            "173": -0.015388958235844371,
            "174": -0.028413931451849592,
            "175": 0.03524705656740396,
            "176": 0.03478879260743265,
            "177": -0.027895182161210504,
            "178": -0.007434658431055381,
            "179": 0.053401397172968615,
            "180": 0.06695412021718712,
            "181": 0.0001713224097565674,
            "182": 0.013271727107630296,
            "183": -0.014179735494304837,
            "184": -0.04616357668420259,
            "185": -0.05420123766128626,
            "186": 0.0010431442309786257,
            "187": -0.024570187333250167,
            "188": -0.001206493164568459,
            "189": 0.06478852608290367,
            "190": -0.040214426832557604,
            "191": -0.0013078615853578974,
            "192": 0.010974504628672443,
            "193": 0.024804035769192757,
            "194": 0.0037190731010610153,
            "195": 0.0587241995706995,
            "196": -0.006528564044813374,
            "197": -0.05992937023654874,
            "198": 0.04125937187591857,
            "199": -0.006442086147385015,
            "200": -0.04630205674879782,
            "201": 0.009635492834757498,
            "202": 0.05218858295836464,
            "203": 0.05275670374817021,
            "204": -0.015910080001991532,
            "205": -0.0464248407732545,
            "206": -0.020070900671765948,
            "207": 0.026218344878480647,
            "208": 0.005539504867665506,
            "209": -0.00369027629076671,
            "210": -0.023162278937682704,
            "211": 0.011682423861808063,
            "212": 0.015434576110718778,
            "213": -0.012739791312012519,
            "214": -0.018798291151696185,
            "215": 0.02005850265778512,
            "216": 0.052865293954307654,
            "217": 0.013249091697572879,
            "218": -0.04736358881631841,
            "219": 0.01569646410448761,
            "220": -0.03256177613125422,
            "221": -0.0038173871819236443,
            "222": 0.0007665646853703003,
            "223": 0.004739525479693244,
            "224": -0.04473808648374466,
            "225": -0.035043594745961394,
            "226": 0.019862239641094244,
            "227": 0.012692710448913751,
            "228": 0.0005549945711194921,
            "229": 0.008776497739496122,
            "230": -0.01903333467981526,
            "231": 0.03420472670209615,
            "232": 0.03242026760390094,
            "233": -0.0064420933951056525,
            "234": -0.04661591742305632,
            "235": -0.002365136067810319,
            "236": -0.02873033842401345,
            "237": 0.006064997447652106,
            "238": 0.06525335793908003,
            "239": -0.004291578307570136,
            "240": -0.007044313306431356,
            "241": 0.05490301991995689,
            "242": 0.05198084017993243,
            "243": -0.009866088212475654,
            "244": 0.04485861789165745,
            "245": 0.029275520531716726,
            "246": 0.006431717605688769,
            "247": 0.040443529120797954,
            "248": 0.024082308031112706,
            "249": -0.008729694221389963,
            "250": 0.03632531046297686,
            "251": -0.005827489820170082,
            "252": -0.09442893670858062,
            "253": 0.024325019370613182,
            "254": 0.016768524674202763,
            "255": 0.03376329380529811,
            "256": -0.04851475121734194,
            "257": -0.021888525390802077,
            "258": 0.035712019002325894,
            "259": -0.008554874505133078,
            "260": -0.02429885518096572,
            "261": 0.005616212758224144,
            "262": -0.04156313957546143,
            "263": -0.013156009545391938,
            "264": 0.053850427964425254,
            "265": -0.027441919928547474,
            "266": 0.017492910546379054,
            "267": -0.011594497999601518,
            "268": 0.011777136900857662,
            "269": -0.029062611981748213,
            "270": -0.008681540373313265,
            "271": 0.0013708739073539436,
            "272": -0.07944201017599949,
            "273": -0.017141132700201983,
            "274": 0.055714587071913464,
            "275": 0.005460439078971796,
            "276": 0.01731394370670305,
            "277": 0.0321372668288325,
            "278": 0.029423230531251503,
            "279": 0.10708908305869247,
            "280": 0.03912858895608246,
            "281": 0.029508809780823323,
            "282": 0.01290239507593143,
            "283": 0.0034584284154922113,
            "284": -0.0261201518051608,
            "285": -0.008651532492918666,
            "286": 0.028428610345603435,
            "287": -0.0007308918222907196,
            "288": 0.007476344862877664,
            "289": -0.0034566318732190127,
            "290": 0.047661181729892636,
            "291": 0.0460455084666624,
            "292": -0.03298489466668021,
            "293": 0.02823447060093406,
            "294": 0.029919010525030754,
            "295": 0.02282613682809009,
            "296": -0.011402304392907443,
            "297": -0.022529045732787065,
            "298": 0.0015863162424403754,
            "299": 0.00584410901811868,
            "300": -0.05339465624441826,
            "301": -0.04196375945435715,
            "302": -0.018986010333440353,
            "303": 0.0021216599243330365,
            "304": -0.001819906058928451,
            "305": 0.026213131800243778,
            "306": -0.03678776452054889,
            "307": 0.00933600555329254,
            "308": 0.03909076558483487,
            "309": -0.02678727305952573,
            "310": -0.03650101660235992,
            "311": -0.08006567781144079,
            "312": 0.06828118033231102,
            "313": 0.017330969770210983,
            "314": 0.002517045304609016,
            "315": 0.030796823431942573,
            "316": 0.05848410727433545,
            "317": -0.04342376149626132,
            "318": 0.031790363803581384,
            "319": 0.04132185705486428,
            "320": 0.02197699334666311,
            "321": 0.005261581546211005,
            "322": 0.04465323972012982,
            "323": -0.032599187881029446,
            "324": 0.024751576190069735,
            "325": -0.009664628706213409,
            "326": -0.07124377911069746,
            "327": -0.024337942089228504,
            "328": 0.1048518457227736,
            "329": 0.008729912800177713,
            "330": 0.008959311097225565,
            "331": 0.02660540224022318,
            "332": -0.019753147075737245,
            "333": -0.015707266467747293,
            "334": -0.021453422480568005,
            "335": -0.015110419314831671,
            "336": -0.01532973433639165,
            "337": -0.049879299968812886,
            "338": -0.016840963809229902,
            "339": -0.03381932965563542,
            "340": -0.018572252896616966,
            "341": -0.0022581577541262773,
            "342": 0.038038124389477616,
            "343": -0.015967556846433632,
            "344": -0.008829971753774495,
            "345": 0.010679835349311063,
            "346": 0.0026421391742107417,
            "347": -0.04831999863708583,
            "348": -0.08160995316449032,
            "349": -0.054447260575757286,
            "350": -0.06483956811510906,
            "351": 0.0014718144530663454,
            "352": -0.014385685565131173,
            "353": 0.018402384353383604,
            "354": 0.004251670269670288,
            "355": 0.0025736348692290177,
            "356": 0.0012947894363326989,
            "357": -0.024545280405255283,
            "358": 0.06054529415088889,
            "359": -0.007585570698043087,
            "360": 0.03787957838469457,
            "361": 0.00034259171805480317,
            "362": 0.03972065847300746,
            "363": 0.005473302623829381,
            "364": -0.03494396977522786,
            "365": 0.06942710060131257,
            "366": 0.0035032071198014274,
            "367": 0.06737471029729937,
            "368": -0.04046452543540555,
            "369": -0.024872463620480057,
            "370": -0.03758295042957026,
            "371": -0.029626300242364224,
            "372": -0.03427815238387633,
            "373": -0.028384480662049832,
            "374": -0.01615825847102417,
            "375": -0.032545322906031765,
            "376": 0.04206507549936844,
            "377": 0.03644521843652827,
            "378": -0.014146258784153369,
            "379": 0.009475651488464997,
            "380": 0.01786227389775785,
            "381": -0.008187981896027579,
            "382": 0.01346794776190256,
            "383": -0.03383828850959349,
            "384": -0.060594567195478136,
            "385": -0.01963830384942839,
            "386": -0.013203233482792702,
            "387": -0.026766570437074682,
            "388": -0.01694603456902469,
            "389": -0.03376859837057038,
            "390": -0.03705271487981022,
            "391": -0.004716640387905259,
            "392": -0.0005252597893517409,
            "393": -0.003668597885578022,
            "394": 0.035210053912346,
            "395": 0.020500352456751032,
            "396": -0.012304676268999473,
            "397": -0.03810590710802074,
            "398": 0.06292000119893201,
            "399": -0.03747984821211323,
            "400": 0.0195600029576895,
            "401": 0.05238654431078526,
            "402": -0.016908597018206118,
            "403": 0.004700605487576349,
            "404": -0.015943345109496403,
            "405": -0.035957868043277365,
            "406": -0.03935399951904511,
            "407": 0.029105617717960816,
            "408": 0.003171908242848635,
            "409": 0.01627916014370007,
            "410": -0.009010797164095743,
            "411": -0.025198269864423625,
            "412": -0.02814910334364056,
            "413": 0.011941826988960026,
            "414": 0.006775148688312721,
            "415": -0.05057210282515254,
            "416": -0.016761525556222373,
            "417": 0.05535700627385852,
            "418": -0.02347660667538067,
            "419": 0.02103034818673071,
            "420": -0.015263152066446437,
            "421": 0.0013229723177469478,
            "422": -0.051902469559433964,
            "423": -0.02765713526545621,
            "424": 0.04331541302485546,
            "425": -0.0382993228296418,
            "426": -0.010942935332216843,
            "427": -0.06671095899956983,
            "428": 0.0487277185897205,
            "429": -0.03533881925118932,
            "430": -0.012523405814475254,
            "431": -0.027948319191620455,
            "432": -0.013143498760850435,
            "433": 0.026167510450251116,
            "434": 0.016205493289754618,
            "435": -0.0077006759102771615,
            "436": -0.01953043193391413,
            "437": -0.049388828298467795,
            "438": -0.008938107294058471,
            "439": 0.030747322218287926,
            "440": 0.004060464719375677,
            "441": 0.016664711067214306,
            "442": -0.025894053767872717,
            "443": -0.017003999230942757,
            "444": -0.005587066932624113,
            "445": -0.0004389383667346841,
            "446": 0.020942691319291704,
            "447": 0.019707524129922094,
            "448": -0.020418281372317233,
            "449": 0.02252492982264914,
            "450": 0.004916890403679926,
            "451": -0.023406783596677562,
            "452": 0.05012245478180281,
            "453": 0.06564367378207996,
            "454": 0.04376865829922209,
            "455": 0.03465461814137698,
            "456": -0.07281091827510097,
            "457": 0.08621808640228103,
            "458": -0.013627912912620341,
            "459": 0.03728176500980095,
            "460": -0.03173299974815781,
            "461": 0.026934705826958477,
            "462": -0.014099869170878496,
            "463": 0.0376591814686026,
            "464": 0.01255015314424877,
            "465": -0.013768006841500077,
            "466": 0.012222028982070556,
            "467": 0.0011149350400782932,
            "468": 0.01915710851239521,
            "469": 0.08038206642438102,
            "470": -0.009651297430936455,
            "471": 0.010832994577911067,
            "472": -0.05781438196073432,
            "473": -0.07268405284833068,
            "474": -0.015570497609935511,
            "475": -0.022075702208084656,
            "476": -0.01950499844775409,
            "477": -0.0010714317730947161,
            "478": -0.07249845986974036,
            "479": -0.045979495635179765,
            "480": -0.047233979133789225,
            "481": 0.02353574235187381,
            "482": -0.0171652642778675,
            "483": 0.007178977890876698,
            "484": -0.031456454761036014,
            "485": -0.03455757722144119,
            "486": -0.0013918532386123443,
            "487": -0.042795031269658834,
            "488": 0.01192610576295143,
            "489": -0.03225880667948381,
            "490": -0.03351518036260754,
            "491": -0.008081812094867724,
            "492": 0.012783792196759012,
            "493": 0.04705672565161104,
            "494": 0.019977775690653794,
            "495": 0.013879461148432425,
            "496": -0.011341180376597376,
            "497": 0.040265863831043254,
            "498": -0.07907391609587305,
            "499": 0.016661955515828955,
            "500": -0.004379158336007104,
            "501": 0.026661585759615695,
            "502": -0.08877394355044538,
            "503": 0.04502949085389589,
            "504": -0.02735870385091391,
            "505": -0.040496670932432394,
            "506": 0.017816131619618508,
            "507": 0.015297036894539054,
            "508": 0.02588982346367481,
            "509": -0.013174359732462115,
            "510": 0.019904093352183197,
            "511": -0.023693977961602983,
            "512": -0.008696447416991692,
            "513": 0.04931142868093234,
            "514": 0.0009845801989057526,
            "515": -0.014071364716607396,
            "516": 0.0503466961421302,
            "517": -0.024565380761536987,
            "518": 0.08417812188169012,
            "519": -0.009132338435007457,
            "520": -0.013024500862962972,
            "521": 0.001534315841160126,
            "522": 0.04133349989501102,
            "523": -0.0009394731687016333,
            "524": 0.0014880110815177871,
            "525": 0.02480910007279026,
            "526": 0.02309474182405527,
            "527": -0.049298419929670274,
            "528": -0.009569511942942182,
            "529": 0.03032789266250269,
            "530": -0.011643792741909475,
            "531": 0.0048396676983498334,
            "532": -0.017570243471554614,
            "533": -0.02950723637412473,
            "534": 0.051081646939373206,
            "535": -0.0347451772520564,
            "536": -0.0247532444434731,
            "537": -0.08161104565363918,
            "538": -0.02662721085525624,
            "539": 0.012576980394222061,
            "540": 0.019964309987931854,
            "541": 0.04727461093108791,
            "542": -0.0061554630347626805,
            "543": 0.027132567700546204,
            "544": 0.05506732441848991,
            "545": -0.008332185396086211,
            "546": -0.03613007258235525,
            "547": 0.01535301954305308,
            "548": 0.024111808782230775,
            "549": 0.007501081649521163,
            "550": 0.013505520868377589,
            "551": -0.005215205185627606,
            "552": -0.044766768502079744,
            "553": 0.0288125765605698,
            "554": -0.07833945974917121,
            "555": 0.09542186025923169,
            "556": 0.03813788380685548,
            "557": 0.03949094267610617,
            "558": -0.032248418972784576,
            "559": -0.021387083068274755,
            "560": -0.01925125134468966,
            "561": 0.004441511396358855,
            "562": 0.036890574968826924,
            "563": -0.011361243356313083,
            "564": 0.03059050989134304,
            "565": 0.08111266881369952,
            "566": 0.007753192905361305,
            "567": 0.011543146075649971,
            "568": 0.0398182686195657,
            "569": -0.01005410941373957,
            "570": -0.011134611940201627,
            "571": -0.05994553844582348,
            "572": 0.013532418701553929,
            "573": -0.008563505984301565,
            "574": -0.07387807055412159,
            "575": -0.060876025301981905,
            "576": 0.030785708740814748,
            "577": -0.03503559726152504,
            "578": -0.002047100427760095,
            "579": -0.05312297226708181,
            "580": 0.02199000680935765,
            "581": -0.019741217661794548,
            "582": 0.048938235316509905,
            "583": 0.0022633054208981247,
            "584": -0.033423924612743086,
            "585": 0.0394166164448894,
            "586": 0.008966792886135836,
            "587": -0.028943306673519884,
            "588": -0.0374735069627656,
            "589": -0.018440913101268056,
            "590": 0.007517219242316706,
            "591": 0.05292151469844067,
            "592": -0.007464724705784463,
            "593": -0.044478137876609126,
            "594": 0.04210042212551323,
            "595": 0.024702755073764217,
            "596": 0.03713308447960338,
            "597": -0.029511606002026843,
            "598": -0.060404582717617915,
            "599": 0.045869024524637425,
            "600": 0.07073305219317405,
            "601": 0.055425962965173825,
            "602": -0.06617536382407924,
            "603": -0.0025525790852003777,
            "604": -0.05711444413046168,
            "605": -0.009565296731006501,
            "606": 0.04048222649403581,
            "607": -0.019025179878940868,
            "608": -0.008467187127823418,
            "609": -0.024805534065020833,
            "610": 0.004183885886613481,
            "611": -0.026072856785222604,
            "612": -0.005202038710682429,
            "613": -0.09733564536439981,
            "614": -0.03600453307814981,
            "615": 0.05198734933302464,
            "616": 0.009627367559945296,
            "617": -0.0012515475230538387,
            "618": -0.004105005795520447,
            "619": 0.09779336786764997,
            "620": -0.012140217285289018,
            "621": 0.031639881030608434,
            "622": 0.024181957448470206,
            "623": 0.01230031370665048,
            "624": -0.018187724234198704,
            "625": -0.05279022700643404,
            "626": -0.029840065266277322,
            "627": -0.002080666719981158,
            "628": 0.04747064196769162,
            "629": -0.011900644299130328,
            "630": 0.02043996786503924,
            "631": 0.015565493674770685,
            "632": -0.026508948093154974,
            "633": 0.04627801996496816,
            "634": 0.04533038786233967,
            "635": 0.008343669600927776,
            "636": 0.004753864726771678,
            "637": -0.02661809191991775,
            "638": 0.03856124103417477,
            "639": 0.03535421457519009,
            "640": 0.01790901281664396,
            "641": 0.0035677529782420225,
            "642": -0.09874711688573058,
            "643": -0.07955511282895592,
            "644": -0.0014518819405505024,
            "645": -0.0285319652033831,
            "646": 0.0072645267279025285,
            "647": 0.021272029469812166,
            "648": -0.024535242744510702,
            "649": -0.0170134707004527,
            "650": -0.03480627272186668,
            "651": -0.03301383513337892,
            "652": -0.04435020282195905,
            "653": 0.03661607077660052,
            "654": -0.03351183109009413,
            "655": -0.024263958334536866,
            "656": -0.04162451232445568,
            "657": 0.01203924671438604,
            "658": -0.048527911158811846,
            "659": 0.019474326181211282,
            "660": 0.058678546102064466,
            "661": -0.031534859785183215,
            "662": 0.016683972482814034,
            "663": -0.030046750277475963,
            "664": -0.0026323153781653147,
            "665": 0.057642597246739175,
            "666": 0.059998630734930294,
            "667": 0.007132734890931707,
            "668": 0.03213212871825138,
            "669": 0.03746026332815956,
            "670": 0.06568041482202862,
            "671": -0.007097523765387093,
            "672": 0.036371730260448806,
            "673": -0.05675135271466073,
            "674": -0.045110763285501114,
            "675": 0.048307694007712884,
            "676": 0.04214483444784526,
            "677": 0.014598304010770297,
            "678": -0.03407400225753962,
            "679": -0.01779630982759788,
            "680": -0.025485904231039,
            "681": -0.02462980850168805,
            "682": -0.058085658827687,
            "683": 0.04730092938905482,
            "684": -0.007138947158557546,
            "685": 0.01950424550518841,
            "686": -0.00013649424413701255,
            "687": 0.010813036231881755,
            "688": 0.009677190602850336,
            "689": 0.0034299156853039316,
            "690": 0.027394283866272642,
            "691": -0.01222418075521556,
            "692": 0.0348825961839163,
            "693": 0.006504206614385164,
            "694": -0.01295857703584007,
            "695": 0.01569186036536821,
            "696": 0.03033968795812517,
            "697": -0.029835276256139385,
            "698": 0.022690176486194254,
            "699": -0.07496839312950093,
            "700": 0.020445427918180163,
            "701": 0.02125321260291258,
            "702": 0.04935093939467014,
            "703": -0.005867898020217733,
            "704": 0.04164238199832834,
            "705": 0.0004253768694114279,
            "706": -0.03867672265361092,
            "707": 0.0016868919240019976,
            "708": -0.008369264633958888,
            "709": -0.011151083304787058,
            "710": -0.029626817417316334,
            "711": -0.003743105098196735,
            "712": 0.07032695978108212,
            "713": 0.012128948879532732,
            "714": 0.021293476007333865,
            "715": -0.03160615382761247,
            "716": -0.03961355388350308,
            "717": -0.029061546302716932,
            "718": 0.009932431241175956,
            "719": -0.02425456147299595,
            "720": -0.02313661882325522,
            "721": 0.0037624572953605198,
            "722": 0.05657872742701815,
            "723": -0.04078906375253344,
            "724": -0.0073669566481220725,
            "725": -0.0098415339849428,
            "726": 0.07309443276208676,
            "727": 0.014447680505655727,
            "728": 0.0059315796898568715,
            "729": 0.0346546875869767,
            "730": 0.017921163304162914,
            "731": 0.002093502816138175,
            "732": -0.0026063176406105697,
            "733": 0.011745958907948063,
            "734": 0.010784285875010673,
            "735": 0.06147455935828635,
            "736": 0.05173553313373683,
            "737": 0.02442188222320367,
            "738": -0.007130254936560144,
            "739": -0.034629839928934474,
            "740": 0.023741765126384543,
            "741": 0.06983224776330532,
            "742": -0.015238953526700844,
            "743": -0.02300940772408518,
            "744": 0.02101692132678651,
            "745": -0.03360750867179796,
            "746": -0.0019242347433205778,
            "747": -0.0036093768563527154,
            "748": 0.007330367417301024,
            "749": -0.0069177181294220345,
            "750": 0.04408535104917078,
            "751": 0.013456857131554718,
            "752": 0.005259896404338134,
            "753": -0.015024299856125045,
            "754": -0.03096903524141875,
            "755": 0.034662606622536556,
            "756": 0.00686330136006014,
            "757": 0.017682627233073112,
            "758": -0.0554259703187442,
            "759": -0.02599574981489405,
            "760": 0.005976273918039626,
            "761": 0.02489255502604894,
            "762": 0.0074610896488335725,
            "763": -0.04010174179507874,
            "764": 0.056305791328295836,
            "765": -0.04636693085842267,
            "766": -0.018233799503389294,
            "767": -0.011024726509479894,
            "768": -0.05147704081792545,
            "769": -0.0033989670047554215,
            "770": 0.02230163536210876,
            "771": -0.005648839075413513,
            "772": 0.05148481960136693,
            "773": 0.03951075263705669,
            "774": -0.002012332608512843,
            "775": -0.021627508161293676,
            "776": -0.009672766344500767,
            "777": -0.02585904201921123,
            "778": 0.013269711027876979,
            "779": -0.005684806693393732,
            "780": 0.022976532285738746,
            "781": -0.01921682495529572,
            "782": 0.016138872385824447,
            "783": 0.08089745822575836,
            "784": 0.06379868929510332,
            "785": 0.023270579227882428,
            "786": 0.05218527280593492,
            "787": -0.011213425717765799,
            "788": -0.028853099210436616,
            "789": 0.08122389120187447,
            "790": 0.015880261078319285,
            "791": -0.019636091577021637,
            "792": -0.016405071912609367,
            "793": -0.06017815067302294,
            "794": -0.00715437607098263,
            "795": -0.002919260539377615,
            "796": -0.038827606633481095,
            "797": -0.020118522835878016,
            "798": 0.010994598021167569,
            "799": -0.0006517183904706692
          }
        },
        {
          "sx": 1,
          "sy": 1,
          "depth": 800,
          "w": {
            "0": 0.043524680091116624,
            "1": 0.07570077200412743,
            "2": 0.04513876690742705,
            "3": -0.08099541701280669,
            "4": 0.02429540089992293,
            "5": -0.005361862715366032,
            "6": -0.024099049797177127,
            "7": 0.010884427057196125,
            "8": -0.026903555975213697,
            "9": -0.011473586504944597,
            "10": 0.015574805689340842,
            "11": 0.0584192204392709,
            "12": -0.05831512827581193,
            "13": 0.004095941876551446,
            "14": -0.00641528856066405,
            "15": -0.014188051476992784,
            "16": -0.09514351585511625,
            "17": -0.038284057501616016,
            "18": -0.02800814715351901,
            "19": -0.030543998305910522,
            "20": 0.006123693931363857,
            "21": -0.003867489960381692,
            "22": -0.061666157995018504,
            "23": 0.009909026417672847,
            "24": -0.014016274261299817,
            "25": -0.02121051872107426,
            "26": -0.022928462860713,
            "27": 0.046312004577980355,
            "28": -0.01177173476361473,
            "29": 0.01961295232060756,
            "30": 0.025176371631687396,
            "31": -0.01896464176657296,
            "32": 0.03919335614657068,
            "33": -0.06439515859364063,
            "34": 0.012352589560891126,
            "35": -0.06604586834527627,
            "36": 0.02342848594370832,
            "37": 0.0576999434155617,
            "38": 0.021152786221439356,
            "39": 0.05409753852453944,
            "40": 0.006942744888068075,
            "41": 0.012864301840613972,
            "42": -0.01087798798885042,
            "43": -0.0663557624222178,
            "44": -0.022255576121167762,
            "45": 0.0011256081425223689,
            "46": -0.05668393336051835,
            "47": -0.007767827330305059,
            "48": -0.009387882187432446,
            "49": 0.03338126793210917,
            "50": 0.04511896869678933,
            "51": 0.0003813746171148453,
            "52": -0.022502456082399206,
            "53": 0.008694943392828263,
            "54": 0.055040686999392525,
            "55": -0.023201513997705404,
            "56": 0.0026205884273409544,
            "57": 0.05345692725079187,
            "58": 0.036887228842990935,
            "59": 0.03085583829983076,
            "60": -0.016850114775059998,
            "61": -0.0192324698176867,
            "62": -0.011520324753573228,
            "63": 0.09754927567752641,
            "64": 0.023885304216028178,
            "65": 0.00029599843959129095,
            "66": 0.0429508957629696,
            "67": 0.07821108259288569,
            "68": 0.023528081048669238,
            "69": 0.04167213835036214,
            "70": -0.0009466979744825134,
            "71": -0.0043566338024141225,
            "72": -0.023983783426634,
            "73": 0.0464940722943933,
            "74": 0.026667109429666463,
            "75": 0.0251971884000094,
            "76": 0.0050348802924567075,
            "77": -0.04179650213349731,
            "78": -0.024483138505504144,
            "79": 0.05261941342111057,
            "80": -0.02633600028031863,
            "81": 0.018902643245062658,
            "82": 0.05756481118725269,
            "83": 0.11074404584139197,
            "84": -0.02166450748851315,
            "85": 0.010204325267121213,
            "86": 0.025720595760006678,
            "87": -0.009845013203332928,
            "88": 0.056176521854530204,
            "89": -0.03882265438694006,
            "90": -0.03098350785279282,
            "91": -0.048534972687824716,
            "92": 0.08847363319159726,
            "93": 0.055971408671485534,
            "94": 0.02286398684776172,
            "95": -0.005913816545810274,
            "96": -0.01075364954207601,
            "97": 0.01700440099955845,
            "98": 0.02024350164396006,
            "99": 0.009878627496214371,
            "100": -0.025841762640051343,
            "101": -0.028104028037305537,
            "102": 0.026746012193588534,
            "103": 0.04059255404533883,
            "104": -0.018162598371142737,
            "105": -0.012354595738682465,
            "106": -0.030392964357190026,
            "107": 0.00209674776936129,
            "108": 0.005932421771338508,
            "109": -0.025632096833550312,
            "110": 0.020002736072489216,
            "111": 0.006844521032404105,
            "112": 0.00027870397642784325,
            "113": -0.06536323476803509,
            "114": 0.004850436207045607,
            "115": -0.07720434079418309,
            "116": -0.061499498580583775,
            "117": -0.07122613607571132,
            "118": -0.10391755942522311,
            "119": -0.00659653059169492,
            "120": 0.009544858705936477,
            "121": -0.027126624929270784,
            "122": -0.062178509723754945,
            "123": 0.050493310973781756,
            "124": -0.032540206670968394,
            "125": 0.013766948376006572,
            "126": -0.06190347427327749,
            "127": -0.04205391755540702,
            "128": -0.0947515492834079,
            "129": -0.020953806751033397,
            "130": 0.05330092411230117,
            "131": -0.05182711510224925,
            "132": 0.03528411794849144,
            "133": 0.013719639265311445,
            "134": -0.024979256917550697,
            "135": 0.0056297562896270815,
            "136": 0.014636602715325894,
            "137": -0.04990107078401702,
            "138": 0.02924597439336436,
            "139": 0.02426907358599852,
            "140": -0.046678629119606435,
            "141": -0.032035152212108155,
            "142": 0.005186745367652205,
            "143": 0.0030351167751325107,
            "144": -0.0017006447079777063,
            "145": 0.03355116719423667,
            "146": 0.001767682517650253,
            "147": 0.014666281418165866,
            "148": 0.025028589384041487,
            "149": 0.025340448651169547,
            "150": 0.01965118799814646,
            "151": 0.03513524443357498,
            "152": 0.0013760028085807589,
            "153": -0.005015952257769591,
            "154": 0.04104678598758865,
            "155": -0.01744430815945177,
            "156": -0.04683309324965108,
            "157": -0.002202241516468055,
            "158": -0.10850192628451776,
            "159": 0.056652808661786735,
            "160": 0.00432260012474034,
            "161": 0.0830646137864645,
            "162": -0.027794784682635843,
            "163": -0.0029542829464177605,
            "164": -0.02899261514273078,
            "165": -0.062337044010395234,
            "166": -0.0030067064286256303,
            "167": -0.07593452158387066,
            "168": 0.039792562949406154,
            "169": 0.03361479376486885,
            "170": -0.015306480717149072,
            "171": 0.05457576182546682,
            "172": -0.01761773031338584,
            "173": 0.00017890226428565452,
            "174": -0.04651115198576616,
            "175": -0.008602372039971877,
            "176": -0.011975743005895828,
            "177": 0.04036524191984943,
            "178": -0.025843473424413562,
            "179": 0.003631402713116726,
            "180": 0.048495822892728316,
            "181": 0.03618316250011746,
            "182": -0.02577631017178836,
            "183": 0.01966959291548801,
            "184": -0.010078412152229073,
            "185": -0.03889110426921992,
            "186": 0.00001540279352648263,
            "187": 0.008770050581074173,
            "188": 0.08237014018928472,
            "189": -0.007438973597050067,
            "190": 0.01744564615169058,
            "191": -0.019472741939812483,
            "192": -0.06454801447863263,
            "193": 0.0049516000491872545,
            "194": -0.009542034366893626,
            "195": -0.014783049739403909,
            "196": 0.0826455362499763,
            "197": -0.02515651458376112,
            "198": 0.06976287105431847,
            "199": 0.00390848334621148,
            "200": 0.027118103918512628,
            "201": -0.035852862491186015,
            "202": -0.035405686438208676,
            "203": 0.060633267707778014,
            "204": -0.011460239090792622,
            "205": -0.023248280532577627,
            "206": -0.0018219926113365627,
            "207": -0.038793080281615204,
            "208": -0.022751741748249264,
            "209": -0.07068217819830605,
            "210": 0.029174071105292434,
            "211": -0.058132908079438675,
            "212": 0.058929959561781674,
            "213": -0.012436436243882104,
            "214": -0.020040571543190364,
            "215": -0.019176416873624706,
            "216": 0.03234661943885936,
            "217": 0.00422739856649493,
            "218": -0.05890622676131193,
            "219": 0.10327937529870759,
            "220": -0.006832593405779893,
            "221": -0.08283708776459679,
            "222": -0.0519131050010813,
            "223": 0.0104171731428796,
            "224": -0.022150418931940228,
            "225": -0.006989043194813178,
            "226": -0.025529774680945277,
            "227": 0.00220186458259729,
            "228": 0.04864137287409,
            "229": 0.004368882792633614,
            "230": 0.03667630521359603,
            "231": 0.0416462303195597,
            "232": -0.07015907538701432,
            "233": -0.02148201517697551,
            "234": 0.014130406264585227,
            "235": -0.013761562407083929,
            "236": -0.027734912807568665,
            "237": -0.005495519866205973,
            "238": 0.05657219654334821,
            "239": 0.029399910857125313,
            "240": -0.015907990221274912,
            "241": -0.06329555438893723,
            "242": -0.03915761493305656,
            "243": 0.025428006797938565,
            "244": 0.03578268050793415,
            "245": -0.01666698814010008,
            "246": 0.004433807781028735,
            "247": -0.01697172204815477,
            "248": -0.024072405365095348,
            "249": -0.001387100153340156,
            "250": 0.013619577181820235,
            "251": 0.06015409167835803,
            "252": 0.040362666299721746,
            "253": 0.0280607686862501,
            "254": 0.02139898167826317,
            "255": -0.025393377713655782,
            "256": -0.006065331317543481,
            "257": -0.05823256549796589,
            "258": -0.07550131973571642,
            "259": 0.05532288592122363,
            "260": -0.0028593760232055107,
            "261": 0.0051549570510006255,
            "262": 0.03061982818567387,
            "263": -0.015980362130943598,
            "264": 0.012852367509068726,
            "265": -0.001613287159448334,
            "266": -0.09599266854630623,
            "267": 0.010119056102865518,
            "268": -0.05909619384258723,
            "269": -0.01846413003171975,
            "270": 0.06032197049454165,
            "271": 0.030729315571646244,
            "272": -0.09900291032524652,
            "273": 0.042381827157123346,
            "274": -0.001619305545051289,
            "275": 0.04943604122384889,
            "276": -0.040954805678684925,
            "277": 0.03581909597902536,
            "278": -0.07045319305093042,
            "279": -0.0816984458323851,
            "280": 0.05424117133699628,
            "281": 0.030071886866815403,
            "282": -0.02570446596178537,
            "283": 0.006992399124792333,
            "284": 0.021279194492344916,
            "285": -0.023723653881891068,
            "286": 0.019790851686064558,
            "287": 0.038314460691655935,
            "288": 0.04627906663459504,
            "289": -0.0224996727956597,
            "290": 0.0306977663990059,
            "291": -0.04664191578861714,
            "292": -0.008729115103961998,
            "293": 0.004476407075330551,
            "294": -0.07797307646168364,
            "295": 0.003918950481131635,
            "296": -0.02818262855858074,
            "297": -0.009861116163553986,
            "298": -0.009630896435432626,
            "299": -0.045784741535322825,
            "300": -0.026566075680137,
            "301": -0.00802825038139243,
            "302": -0.0025574008612465294,
            "303": 0.001652565377507657,
            "304": 0.03694480821529873,
            "305": -0.01991457390545174,
            "306": 0.007336091616364401,
            "307": 0.03350154527554208,
            "308": -0.020006906660087795,
            "309": -0.049278784104222886,
            "310": -0.009823127028129142,
            "311": -0.008346736427986449,
            "312": -0.024626897657871967,
            "313": 0.011173749785308587,
            "314": 0.022205198590250906,
            "315": 0.06034790435675576,
            "316": 0.018695375009039512,
            "317": -0.09807721368233524,
            "318": -0.018807190284824155,
            "319": 0.010142701949661697,
            "320": -0.000748702948153699,
            "321": 0.013673901122139728,
            "322": -0.04362125721852192,
            "323": 0.046420641928587976,
            "324": 0.005690231141011538,
            "325": 0.013964577606562861,
            "326": 0.03293018249572934,
            "327": -0.041970509037883554,
            "328": -0.03297427772765747,
            "329": 0.0034989967538507885,
            "330": 0.0359647187902152,
            "331": 0.0010623521385431942,
            "332": 0.016422279640791695,
            "333": 0.004200547067264551,
            "334": 0.0208718684288408,
            "335": 0.07840492660386242,
            "336": 0.03864755588011521,
            "337": 0.02187458500162406,
            "338": 0.023912244995778383,
            "339": -0.006331507955364077,
            "340": 0.004880076976643392,
            "341": -0.011133423847694357,
            "342": -0.045277639951873554,
            "343": -0.04455760563232372,
            "344": -0.012435926922909011,
            "345": 0.005799212199430262,
            "346": 0.004383882349760059,
            "347": -0.011118553387800004,
            "348": -0.021464433112984054,
            "349": 0.043269605444755645,
            "350": -0.011226340149759833,
            "351": -0.02586405757963111,
            "352": 0.025985921987097642,
            "353": 0.043529574190311546,
            "354": 0.00873323839691858,
            "355": -0.007408495943936571,
            "356": 0.06835336194985164,
            "357": -0.006560028209190119,
            "358": -0.05023283303242868,
            "359": -0.004754308139034146,
            "360": 0.06321063013166267,
            "361": 0.07954172922294826,
            "362": -0.022239294654695093,
            "363": 0.004445905113037422,
            "364": 0.054383717246675484,
            "365": 0.05151825299185467,
            "366": 0.032683418507377514,
            "367": -0.025388080105664946,
            "368": -0.05018852813061265,
            "369": -0.044209580574025284,
            "370": -0.03532356533466948,
            "371": 0.025563113300350104,
            "372": -0.07272769189901498,
            "373": -0.052523685641438334,
            "374": 0.04258229447612387,
            "375": -0.0044988881125389,
            "376": 0.03361884684969276,
            "377": 0.002879294406629056,
            "378": 0.004698650169473436,
            "379": -0.023747847444338815,
            "380": -0.0017052653707367023,
            "381": -0.08702247382742494,
            "382": 0.022315111290376947,
            "383": -0.022482034501797133,
            "384": -0.03863969628616668,
            "385": -0.05417804193854544,
            "386": 0.006358673940130934,
            "387": 0.025033306845577686,
            "388": -0.0910246291257804,
            "389": 0.05778189881798176,
            "390": -0.0160832559932287,
            "391": -0.023341815378787094,
            "392": -0.008079785992222333,
            "393": -0.031165963445337407,
            "394": 0.00021206364076476389,
            "395": 0.01688919095659962,
            "396": -0.03864219493633067,
            "397": 0.02210857861525755,
            "398": -0.02718392756942874,
            "399": 0.024825377205491956,
            "400": -0.049121241566601075,
            "401": -0.03446101008678044,
            "402": 0.010031203764385377,
            "403": 0.09757086381803501,
            "404": 0.05896687392869688,
            "405": -0.011368024903649814,
            "406": 0.0752327041341694,
            "407": -0.05908943463219845,
            "408": 0.016134733365644492,
            "409": 0.04594192424437992,
            "410": 0.06125043194849706,
            "411": -0.016115380638736732,
            "412": 0.009837866205963495,
            "413": -0.030665852576813906,
            "414": -0.03294228034532281,
            "415": -0.03734084685365416,
            "416": 0.03295898487050709,
            "417": -0.012426858079419567,
            "418": -0.002403716414315809,
            "419": 0.04596692813359044,
            "420": -0.02698652045339126,
            "421": -0.030216321307280306,
            "422": 0.0338850347761436,
            "423": 0.05972121641563082,
            "424": 0.030841915509163684,
            "425": 0.009210364990926624,
            "426": -0.0011668157960224553,
            "427": -0.0638783797451654,
            "428": 0.003920161589619837,
            "429": 0.04153236196749829,
            "430": -0.035949726839677267,
            "431": 0.025362758502444314,
            "432": 0.02679437396460614,
            "433": -0.010877953815545805,
            "434": -0.015016281193605837,
            "435": 0.006995921568809047,
            "436": -0.002016189970998444,
            "437": -0.04179587264199206,
            "438": 0.02058261045098004,
            "439": -0.06857850455701126,
            "440": -0.028648921580727765,
            "441": 0.0452271775122206,
            "442": -0.006043685369924574,
            "443": 0.07322366627295127,
            "444": -0.0776080460134482,
            "445": 0.06480107486544044,
            "446": -0.015205585414589802,
            "447": 0.013775862028326634,
            "448": -0.015894687749284223,
            "449": -0.0019051678053467493,
            "450": 0.014406012103913284,
            "451": -0.009018099090931788,
            "452": 0.0004126774904897551,
            "453": -0.026674042641558045,
            "454": 0.0951056058252419,
            "455": 0.02314668126973245,
            "456": -0.012042865246882634,
            "457": -0.005789704914061917,
            "458": 0.024647721765581276,
            "459": 0.016282318967697534,
            "460": -0.003269355530064304,
            "461": 0.008298360938663927,
            "462": -0.002096152787356074,
            "463": -0.020196865195244305,
            "464": 0.03989987270079801,
            "465": 0.008010001381775708,
            "466": 0.014747555185502654,
            "467": 0.005078519570573484,
            "468": -0.041661045046061905,
            "469": -0.0026574201397717837,
            "470": 0.06831442554134921,
            "471": -0.04572430429534701,
            "472": 0.043384138431983334,
            "473": 0.01245083666494795,
            "474": 0.0020556419176919138,
            "475": 0.03215087739107501,
            "476": -0.06606003525826622,
            "477": 0.012528018713347949,
            "478": -0.03285122843663026,
            "479": 0.01641822793479438,
            "480": -0.04947849856015347,
            "481": -0.028506435169518195,
            "482": -0.05029096816015518,
            "483": 0.004386147105451028,
            "484": 0.048107538420773636,
            "485": -0.004703963381105968,
            "486": -0.010302360080000326,
            "487": 0.019809668199978345,
            "488": 0.015187968207045075,
            "489": 0.062489791360149566,
            "490": -0.05187787797858684,
            "491": 0.051250300325163506,
            "492": 0.04437689600759746,
            "493": -0.04465303314723063,
            "494": 0.00965366524987194,
            "495": 0.0269617080695957,
            "496": -0.05624325601121103,
            "497": 0.06272091364394537,
            "498": 0.025790997038377818,
            "499": 0.016303687490461093,
            "500": 0.028398388473329636,
            "501": -0.018634505491418915,
            "502": -0.030174636450988845,
            "503": -0.03008404310086012,
            "504": 0.0073651441068642975,
            "505": -0.05005805931474732,
            "506": -0.01286440398633422,
            "507": 0.013309750711177178,
            "508": 0.00508454521023996,
            "509": -0.04511420340035881,
            "510": -0.07198232883037431,
            "511": -0.037997510129054245,
            "512": -0.0316886211736558,
            "513": -0.0196577606104752,
            "514": 0.025084114218494307,
            "515": -0.05616436096881756,
            "516": -0.004161898713288645,
            "517": -0.009878542076911042,
            "518": 0.06868872228500471,
            "519": -0.00278945567075934,
            "520": 0.004988030859308631,
            "521": -0.006521129714438827,
            "522": 0.04149359288176718,
            "523": -0.0018047428474765688,
            "524": 0.017710144220220797,
            "525": 0.006913786170107019,
            "526": 0.03460678600329493,
            "527": -0.006043644567793771,
            "528": -0.027783665168745406,
            "529": 0.02706307514518355,
            "530": -0.030840678743735153,
            "531": 0.009005387403865408,
            "532": -0.025395851671442395,
            "533": 0.03701049588696493,
            "534": -0.03362990044821639,
            "535": 0.04807465345536522,
            "536": -0.011464694868773703,
            "537": -0.016800145000243464,
            "538": -0.042736046142209515,
            "539": 0.009758319514228075,
            "540": 0.005067320789803459,
            "541": 0.0015132852581767955,
            "542": -0.010050253730038386,
            "543": -0.06293978207866209,
            "544": -0.026481152108607846,
            "545": -0.004629308850310382,
            "546": -0.03024231967223557,
            "547": 0.03743204624648972,
            "548": -0.0016648749551568683,
            "549": -0.028754919989032554,
            "550": 0.01441826909562405,
            "551": -0.027292340214920968,
            "552": 0.023255765274936918,
            "553": 0.028540799558537545,
            "554": -0.04510800237806441,
            "555": 0.01705358662430798,
            "556": -0.055310045059910884,
            "557": -0.006982660221555452,
            "558": -0.01687391723699717,
            "559": -0.05650753936477125,
            "560": -0.04408625956149309,
            "561": 0.04237422387867882,
            "562": -0.019271960373489983,
            "563": 0.048899071393949924,
            "564": -0.03985413589666996,
            "565": 0.01431916863067825,
            "566": -0.024357099933986836,
            "567": 0.046393560269953414,
            "568": -0.024785240625560326,
            "569": -0.04217209192345428,
            "570": 0.02230893502485321,
            "571": 0.05384210688810842,
            "572": 0.05002341508246156,
            "573": -0.0001999277738571249,
            "574": -0.018487707410126158,
            "575": -0.03243611642980751,
            "576": 0.007907952995489562,
            "577": 0.03472036170864868,
            "578": 0.04186458134641736,
            "579": -0.030696270094979775,
            "580": -0.04089926335016486,
            "581": -0.011605639001785465,
            "582": -0.04033480719500129,
            "583": 0.01917487366719228,
            "584": 0.07505495815527272,
            "585": -0.04414293740013567,
            "586": -0.017572872819695107,
            "587": 0.08543149011431637,
            "588": 0.04011542997470789,
            "589": -0.052852350337193904,
            "590": -0.018641858586544723,
            "591": 0.054215691916632634,
            "592": 0.002503813527370157,
            "593": 0.03993664049704095,
            "594": -0.04245983165875708,
            "595": -0.021607552206407532,
            "596": -0.002810585814016811,
            "597": -0.006959804906650569,
            "598": 0.07532400603249911,
            "599": 0.037879682777677344,
            "600": 0.04550644582258818,
            "601": 0.024585364651250333,
            "602": 0.0393984696742681,
            "603": 0.0054605190086096,
            "604": -0.009880661996787183,
            "605": 0.058461312925090846,
            "606": 0.004993952686330392,
            "607": 0.03007085373994161,
            "608": -0.07764421850315702,
            "609": -0.0149516156946622,
            "610": -0.033023481707013955,
            "611": -0.04025329094449029,
            "612": -0.02456160305028798,
            "613": -0.06371708360641647,
            "614": 0.007346955067366161,
            "615": -0.0003646177188020764,
            "616": -0.0036824770447249204,
            "617": 0.010914341244865526,
            "618": 0.009797218415345829,
            "619": 0.0333618829290436,
            "620": 0.01266757533527782,
            "621": -0.01665381658889968,
            "622": 0.0004844155818348879,
            "623": 0.009767133767322116,
            "624": -0.03190719808245375,
            "625": -0.03961063430192788,
            "626": 0.0005529119841146792,
            "627": -0.03138031111982611,
            "628": 0.00672743841874836,
            "629": 0.031343660325161324,
            "630": -0.04351866579266497,
            "631": 0.029291612526233243,
            "632": 0.008024438138393286,
            "633": 0.01166579218079444,
            "634": -0.04637593168850805,
            "635": 0.05519614656162533,
            "636": 0.046939820997545754,
            "637": 0.039684165680244826,
            "638": -0.03617021811864966,
            "639": 0.04828400598741007,
            "640": -0.0035085055073224495,
            "641": -0.01370170359288954,
            "642": -0.04068420861477611,
            "643": 0.01500396597833717,
            "644": 0.039800691534484914,
            "645": -0.038284296086299255,
            "646": 0.05928662082362746,
            "647": 0.0033668151159205375,
            "648": 0.044238979982992005,
            "649": 0.005950614158492784,
            "650": 0.0428775921640381,
            "651": 0.020349647043765996,
            "652": -0.030568958955851593,
            "653": -0.0001490196977191299,
            "654": 0.018295202628603662,
            "655": -0.03815636684631438,
            "656": 0.013539062975393893,
            "657": 0.011067832362425678,
            "658": 0.05074904905587683,
            "659": -0.01554652497867139,
            "660": -0.01514441087476879,
            "661": -0.07212568873341867,
            "662": -0.016476347211075628,
            "663": -0.04652359367500356,
            "664": -0.025726584829942743,
            "665": -0.0224895857950166,
            "666": 0.016924168758539675,
            "667": 0.05619814880000273,
            "668": 0.07183074723397419,
            "669": -0.022895587069422282,
            "670": 0.04990623103336561,
            "671": 0.025795452416663946,
            "672": 0.03768170136971039,
            "673": 0.03840080111370586,
            "674": 0.03755848712043535,
            "675": -0.018616505198987922,
            "676": -0.015889020161621897,
            "677": 0.06403555987720953,
            "678": -0.0063174020717124925,
            "679": 0.013711057765270028,
            "680": 0.02602750246563877,
            "681": 0.022759697933153866,
            "682": -0.052364942621976614,
            "683": 0.02512871217223932,
            "684": 0.0051635980644353695,
            "685": 0.0776101673411859,
            "686": -0.05267670898962487,
            "687": -0.05196085932093025,
            "688": 0.03664425813131556,
            "689": -0.043984180856288746,
            "690": -0.09090736050598083,
            "691": -0.019955791804450645,
            "692": -0.016045728011789235,
            "693": -0.05967654458500336,
            "694": -0.031173298607790598,
            "695": 0.04064633972470341,
            "696": 0.016708879987565147,
            "697": 0.0034023706250563986,
            "698": -0.03356529890575613,
            "699": 0.021614417321620595,
            "700": -0.07075065640548528,
            "701": -0.03196002039884814,
            "702": -0.025963287810276098,
            "703": -0.04465952006258338,
            "704": 0.041907810147301945,
            "705": -0.00709582990621665,
            "706": -0.11219571065541777,
            "707": -0.03472610979562882,
            "708": -0.018954243352202436,
            "709": 0.049807491128712154,
            "710": -0.043960215729683415,
            "711": 0.06556393735720094,
            "712": -0.0057410841297354485,
            "713": 0.030638275238126005,
            "714": 0.05726796379332482,
            "715": 0.037242879633091835,
            "716": -0.022576431458756555,
            "717": 0.05021823154286168,
            "718": -0.0621805920427438,
            "719": -0.01370239494045688,
            "720": 0.03596224293573076,
            "721": 0.023597757682747255,
            "722": -0.022788036085289662,
            "723": 0.01789512810373345,
            "724": -0.08754376246698106,
            "725": 0.029652453488229806,
            "726": 0.004705770519128626,
            "727": 0.04584074995713143,
            "728": 0.0061884022012792,
            "729": -0.029284026988136192,
            "730": -0.011625658455982133,
            "731": -0.01843818926408671,
            "732": 0.07412145253481413,
            "733": 0.04725211305782332,
            "734": 0.012448045454309747,
            "735": -0.017914894906618205,
            "736": 0.016296714437831976,
            "737": -0.018530758184836908,
            "738": -0.0774710113478052,
            "739": 0.04324546092324342,
            "740": -0.009029624585450244,
            "741": -0.12931859374784288,
            "742": -0.04627507457480929,
            "743": 0.058981873396970474,
            "744": 0.029034853133540685,
            "745": 0.022669594691983885,
            "746": -0.05947483863488901,
            "747": -0.03630852071388695,
            "748": -0.0036423058238250865,
            "749": 0.01608140838574843,
            "750": 0.0393802800737669,
            "751": 0.04505012965685777,
            "752": -0.07235591535289744,
            "753": -0.05264808040369401,
            "754": -0.005552210404485621,
            "755": 0.008250595378637161,
            "756": 0.047235696716114044,
            "757": -0.013123360401943321,
            "758": -0.025524065683344286,
            "759": 0.008913570693185706,
            "760": -0.019167870805785817,
            "761": -0.05677062735039751,
            "762": 0.00325410507443985,
            "763": 0.03928330094050438,
            "764": 0.07240941051531653,
            "765": -0.008124074195252427,
            "766": -0.07760718346068428,
            "767": -0.025326599452780242,
            "768": -0.012676868067703207,
            "769": -0.02023688569065115,
            "770": -0.007999198175690309,
            "771": -0.015485593758958922,
            "772": 0.03549151834684617,
            "773": 0.06955007040727285,
            "774": -0.06281091822093651,
            "775": 0.038528715249594246,
            "776": -0.018340339267503884,
            "777": -0.022008774814998182,
            "778": -0.001741887946993418,
            "779": 0.0830834108344253,
            "780": -0.02248571501006398,
            "781": -0.069595597160273,
            "782": 0.005966712990470037,
            "783": -0.023352564009967415,
            "784": -0.012998904995317405,
            "785": 0.05340789339189212,
            "786": -0.0029220136892432777,
            "787": 0.028719092940428403,
            "788": 0.011791827939458231,
            "789": -0.050992808750415265,
            "790": 0.008270498784879026,
            "791": 0.01945136993680034,
            "792": 0.013257412263328182,
            "793": -0.03815967531221633,
            "794": -0.023719091513798807,
            "795": 0.008953725529466609,
            "796": -0.008856483188749296,
            "797": 0.02115376323555573,
            "798": 0.06924070317440383,
            "799": -0.04198017504304237
          }
        },
        {
          "sx": 1,
          "sy": 1,
          "depth": 800,
          "w": {
            "0": 0.03363116844381877,
            "1": 0.05806570457185851,
            "2": -0.003533919242637483,
            "3": 0.07909986119965565,
            "4": 0.0076280240868502065,
            "5": -0.030793364724017374,
            "6": 0.03150187140062984,
            "7": -0.02202803382596295,
            "8": 0.04679977163906731,
            "9": -0.060397049779908646,
            "10": -0.06656855918973707,
            "11": -0.017619375146066426,
            "12": -0.02713137424616126,
            "13": -0.012603660280613955,
            "14": -0.09632733228127864,
            "15": 0.01607426850073205,
            "16": -0.002732321866387124,
            "17": -0.0346094759520766,
            "18": -0.0459700996504096,
            "19": -0.012415105607750852,
            "20": -0.01768464144016517,
            "21": -0.013381336974292609,
            "22": -0.008788549844333254,
            "23": -0.00047082868150105455,
            "24": 0.021280521531713146,
            "25": -0.04877635312819672,
            "26": -0.008992186949218205,
            "27": -0.007147452376341052,
            "28": -0.02409565586480616,
            "29": 0.03930178510656847,
            "30": -0.023735383920500605,
            "31": 0.021629949683123827,
            "32": -0.008732713004547652,
            "33": -0.0002313839888795094,
            "34": -0.025087897973314476,
            "35": -0.003467642901717465,
            "36": -0.005139564422572037,
            "37": -0.011601212930478414,
            "38": 0.015977234813015807,
            "39": -0.002716608768696954,
            "40": 0.06695243280991627,
            "41": -0.028767298881880593,
            "42": -0.03124926175134532,
            "43": -0.041692458462147676,
            "44": 0.04012439916411905,
            "45": -0.03490399770115275,
            "46": -0.0055039055187601155,
            "47": -0.006063547964072076,
            "48": 0.02886806836758734,
            "49": 0.06787441082954196,
            "50": 0.03311127279631924,
            "51": 0.021746222711802394,
            "52": 0.0177960192839313,
            "53": -0.006518807269203403,
            "54": -0.00285683425342457,
            "55": -0.009067971054926254,
            "56": 0.0023321445657330324,
            "57": 0.0009312282570988606,
            "58": 0.036660559248955275,
            "59": 0.03101061309952198,
            "60": -0.026083599062304064,
            "61": -0.001211570119036934,
            "62": 0.016300152719147382,
            "63": 0.015499169909371275,
            "64": -0.004685957050292323,
            "65": -0.005516038287060318,
            "66": -0.028041735770086024,
            "67": 0.021750689129996812,
            "68": -0.02519252790225009,
            "69": -0.0003085451019853304,
            "70": 0.01704130729831023,
            "71": 0.0031006715340125297,
            "72": 0.001759776635526301,
            "73": 0.05038613363679867,
            "74": -0.05564494151391563,
            "75": 0.05737422212438857,
            "76": 0.012002776064058125,
            "77": -0.053710816074247256,
            "78": -0.011911827263567265,
            "79": -0.0017005004508815213,
            "80": 0.03488601717457391,
            "81": -0.04178392242345357,
            "82": -0.02611764046495884,
            "83": -0.005896086207790378,
            "84": 0.00963320284355546,
            "85": -0.03709514864133872,
            "86": -0.011282437428838025,
            "87": -0.04407508101419087,
            "88": -0.014801627645057455,
            "89": -0.005226059293135654,
            "90": -0.033400857604504536,
            "91": 0.034471549291371945,
            "92": 0.05161901804909566,
            "93": -0.026107707657791607,
            "94": -0.013116215855730192,
            "95": -0.01458027172532373,
            "96": -0.018101894631956383,
            "97": -0.010741871795243343,
            "98": -0.027741886571239938,
            "99": 0.034862798468873864,
            "100": -0.0066294305050216135,
            "101": -0.025463638396339854,
            "102": -0.027584918527238402,
            "103": 0.04307849606982368,
            "104": -0.012811851726029517,
            "105": -0.018194374292633805,
            "106": 0.021239496680699122,
            "107": -0.021016378849375055,
            "108": -0.026911525926277293,
            "109": -0.03542015530912314,
            "110": 0.020865462942236363,
            "111": -0.04189295993638517,
            "112": 0.0009530813691168435,
            "113": -0.018804521437728153,
            "114": -0.03282747588883185,
            "115": -0.008803813067812598,
            "116": -0.0029255423327238256,
            "117": -0.10085898803269096,
            "118": 0.046112792279662404,
            "119": 0.04774373416229144,
            "120": -0.005179599887000819,
            "121": -0.015764934854201378,
            "122": -0.06585220270748175,
            "123": 0.010065618778179087,
            "124": -0.005207688490725837,
            "125": 0.011906284890689024,
            "126": 0.007987331413107736,
            "127": -0.043554781138258926,
            "128": -0.04132364554878584,
            "129": 0.04862708130429533,
            "130": -0.03577231423383894,
            "131": 0.016189469592420163,
            "132": -0.04429526075530804,
            "133": -0.04137295795224127,
            "134": -0.0209157212424925,
            "135": 0.020433763050896447,
            "136": -0.013926387078115427,
            "137": -0.005040207083698253,
            "138": 0.01692726753809743,
            "139": 0.021230912426319738,
            "140": 0.016549749636763325,
            "141": -0.016581227329889453,
            "142": 0.045352163180716304,
            "143": 0.04831922915235281,
            "144": 0.027734602766074277,
            "145": -0.016321518074753176,
            "146": 0.0032557111592473663,
            "147": -0.021061424066380945,
            "148": -0.012576997395509548,
            "149": 0.016171231588573327,
            "150": -0.02787205107051025,
            "151": -0.024833202064557056,
            "152": -0.02584299155400398,
            "153": -0.005796695266756517,
            "154": 0.09188335184225406,
            "155": 0.022125313749872193,
            "156": -0.012440109014489963,
            "157": -0.003889462820254371,
            "158": 0.020681132966640852,
            "159": 0.07915226290764164,
            "160": 0.016205740769699616,
            "161": 0.025479899212431645,
            "162": 0.043073160729705816,
            "163": 0.04605514147315947,
            "164": -0.02785281768355204,
            "165": 0.06261392238745533,
            "166": -0.0288939156981131,
            "167": 0.04228449020064185,
            "168": -0.02421494904801179,
            "169": 0.010898472393956918,
            "170": 0.05997089878149893,
            "171": 0.04289083652922679,
            "172": -0.002127505512022097,
            "173": 0.06509310822232317,
            "174": -0.01073516131557122,
            "175": -0.004914798966705126,
            "176": -0.041711933469036455,
            "177": -0.0019015809452696262,
            "178": -0.030777425861593356,
            "179": 0.022443457111175694,
            "180": -0.027406283573234852,
            "181": 0.014681186042167367,
            "182": -0.024097845732026987,
            "183": 0.00939877872256592,
            "184": 0.005960247588449108,
            "185": -0.007773797140809511,
            "186": -0.004939004926129568,
            "187": -0.007240143004361668,
            "188": 0.030406381714764823,
            "189": -0.012256514355978649,
            "190": 0.02208477174392166,
            "191": -0.009291109273184394,
            "192": -0.011711334486465587,
            "193": 0.02879736719731422,
            "194": 0.03449420619440745,
            "195": 0.007783407440222814,
            "196": 0.027871266227672675,
            "197": 0.0018703972699755755,
            "198": 0.020894416955209164,
            "199": -0.013286534191909338,
            "200": -0.0841165797329945,
            "201": -0.04220574911887734,
            "202": -0.024115148167337886,
            "203": -0.03300435578663681,
            "204": 0.07111501392555455,
            "205": -0.039772225717371525,
            "206": 0.0075681995129738885,
            "207": 0.03753594115254349,
            "208": 0.020279208160856602,
            "209": 0.09077858903336011,
            "210": -0.018768342423479124,
            "211": 0.021229224669525246,
            "212": -0.030855948894482975,
            "213": 0.02438232785336051,
            "214": 0.0020135259760512714,
            "215": -0.030524508267232565,
            "216": 0.02202649098283362,
            "217": -0.02833509441333724,
            "218": 0.032782146451758,
            "219": 0.01704198803284154,
            "220": 0.04367818443843873,
            "221": 0.03560183535736558,
            "222": -0.006742201893829803,
            "223": -0.010900061844404575,
            "224": 0.010753749260453492,
            "225": -0.0006167058854682554,
            "226": -0.004976730055552218,
            "227": -0.015187552268461062,
            "228": 0.020861786893285373,
            "229": -0.021031033262206723,
            "230": -0.023072748502138175,
            "231": -0.06259515071623166,
            "232": 0.011514504512370672,
            "233": 0.01164207674073447,
            "234": -0.007771070058106697,
            "235": -0.021640128765103444,
            "236": 0.024262504003740363,
            "237": 0.05996671138463809,
            "238": 0.002260360017587807,
            "239": 0.016234530971118113,
            "240": 0.03435711347105717,
            "241": -0.025342815524248538,
            "242": -0.04742931376315747,
            "243": -0.08691938069770488,
            "244": -0.02573516142183885,
            "245": -0.05578487985267791,
            "246": 0.059392560699728106,
            "247": -0.03491295396582716,
            "248": -0.004030266683257412,
            "249": -0.04339918775899043,
            "250": 0.013710785653603123,
            "251": -0.07470590644709812,
            "252": 0.0033466078804294335,
            "253": -0.006348888320311887,
            "254": 0.057274328365475406,
            "255": 0.030757670023739855,
            "256": 0.02753199778114704,
            "257": 0.03579892265597704,
            "258": 0.007763945300556856,
            "259": -0.032033240679708384,
            "260": -0.06746826745565018,
            "261": -0.00024959337906750367,
            "262": -0.005339234335897152,
            "263": -0.04496334204198835,
            "264": -0.01237783701131209,
            "265": 0.006328825209131175,
            "266": 0.006909327198338402,
            "267": -0.011928393589828744,
            "268": 0.03361494861495923,
            "269": 0.03639168906861264,
            "270": -0.09523246292199689,
            "271": 0.010045252648515501,
            "272": 0.004238041413269126,
            "273": 0.003503969292049889,
            "274": 0.0022784099139215616,
            "275": 0.01109837978642108,
            "276": 0.025532572167159266,
            "277": -0.0029475937747985926,
            "278": -0.014675784248337811,
            "279": 0.01747919534983693,
            "280": -0.026693367413873396,
            "281": 0.03699284736138172,
            "282": -0.046654208913778465,
            "283": 0.0002032502017683231,
            "284": -0.022353845595345218,
            "285": 0.0074312693142001875,
            "286": 0.0038042029664503525,
            "287": -0.0011562336381508507,
            "288": 0.055940140275326324,
            "289": -0.06498960102925146,
            "290": -0.01478724263190393,
            "291": -0.005100353229292362,
            "292": 0.01456116676752647,
            "293": 0.025794128322513543,
            "294": 0.008510770046137229,
            "295": 0.02335042818682997,
            "296": -0.02704355839277935,
            "297": -0.018444479082144756,
            "298": -0.00030533323252044937,
            "299": 0.07233869234310347,
            "300": 0.034759443367911626,
            "301": -0.0496507954397684,
            "302": 0.01598178955742552,
            "303": -0.0011575268949454566,
            "304": 0.013612603957532119,
            "305": 0.02369974832250237,
            "306": 0.0044497423556668575,
            "307": 0.0026243488614873653,
            "308": -0.02279612378206225,
            "309": -0.13819507165701334,
            "310": -0.03245110766297812,
            "311": 0.08002997806159265,
            "312": -0.02678772949050703,
            "313": -0.005110678490079076,
            "314": 0.050753221133154836,
            "315": 0.024107210358385568,
            "316": 0.05778897743006142,
            "317": 0.09113597783660188,
            "318": 0.021850731008070723,
            "319": -0.020667009113516422,
            "320": 0.0948320057333559,
            "321": -0.011470745537029776,
            "322": -0.027544820845304272,
            "323": 0.016741398809027117,
            "324": 0.0249721645876829,
            "325": 0.017617121531490063,
            "326": -0.022372577387805414,
            "327": -0.037998108953857565,
            "328": -0.03175710058813442,
            "329": -0.037218831928011065,
            "330": 0.055099296930134,
            "331": 0.10061522795108481,
            "332": 0.017494183687530064,
            "333": 0.00248405730897017,
            "334": -0.06992441424923304,
            "335": -0.018586206802562705,
            "336": -0.03760188371337231,
            "337": -0.03224843429023997,
            "338": 0.039697392435352995,
            "339": -0.02043536916678697,
            "340": -0.008383823995118106,
            "341": 0.015163719499471899,
            "342": -0.03955655821923099,
            "343": 0.04618137881486663,
            "344": -0.003714267934820902,
            "345": 0.04631149745232715,
            "346": -0.03167639885101601,
            "347": -0.002673635154981636,
            "348": -0.0461216207524255,
            "349": 0.03245806813944914,
            "350": -0.007641048760985192,
            "351": -0.03919339391556428,
            "352": 0.03431815383717944,
            "353": 0.043466818942481826,
            "354": 0.023165367486801345,
            "355": -0.011709049142784055,
            "356": -0.02977136977115337,
            "357": -0.05429262475350876,
            "358": -0.04155450859620614,
            "359": 0.03670556161309677,
            "360": 0.009522245575513693,
            "361": -0.00600440555984324,
            "362": -0.06230487535728883,
            "363": -0.007654355147103378,
            "364": 0.017797141523194254,
            "365": -0.05392418987465369,
            "366": -0.008410158001005549,
            "367": -0.03208603875834281,
            "368": -0.005230462883182291,
            "369": 0.071494115011904,
            "370": -0.020872809294667876,
            "371": 0.009338161304922902,
            "372": -0.0454685509680496,
            "373": 0.005275810485250943,
            "374": 0.013064634688487056,
            "375": -0.00504512847123919,
            "376": 0.0005398708203606568,
            "377": -0.03010072213030114,
            "378": -0.04855398905340315,
            "379": -0.03833622074426011,
            "380": -0.007856843014526152,
            "381": -0.006332463979929889,
            "382": -0.029141511337317724,
            "383": -0.04174117572890181,
            "384": 0.03564560270398654,
            "385": -0.029938454315176173,
            "386": 0.027415182555319228,
            "387": 0.0037636111687718967,
            "388": 0.013707855806777552,
            "389": 0.006479370657776211,
            "390": -0.06390332894959501,
            "391": -0.036104207685865294,
            "392": 0.00033035660240399167,
            "393": -0.002144964425653432,
            "394": 0.006724618811585032,
            "395": -0.028991348581150427,
            "396": 0.0024471865145159733,
            "397": -0.01510265815865679,
            "398": 0.029910583501534155,
            "399": 0.043636129420705654,
            "400": -0.050719403126239675,
            "401": -0.018452897556810666,
            "402": -0.03943076757461817,
            "403": 0.01456227603260794,
            "404": -0.012871318686771245,
            "405": 0.03178231648944396,
            "406": -0.01523300529379959,
            "407": -0.03567158168065422,
            "408": -0.0611567209588252,
            "409": -0.009474223562413658,
            "410": -0.018548902795610046,
            "411": -0.00654929873974768,
            "412": 0.027914045588061952,
            "413": 0.008750571599844315,
            "414": 0.03244213241463322,
            "415": 0.006309730403488416,
            "416": 0.06568664236754486,
            "417": 0.017712427601807027,
            "418": 0.007614289887686217,
            "419": -0.018753730129423104,
            "420": -0.02812704121032106,
            "421": 0.04228950091686108,
            "422": 0.009761120614178664,
            "423": 0.03777148330246122,
            "424": -0.01402248373126793,
            "425": 0.008492837301013812,
            "426": 0.010870153457117724,
            "427": 0.04474440530886803,
            "428": 0.01750613009681487,
            "429": -0.015769720392799124,
            "430": 0.003050961073866174,
            "431": -0.036112981209606626,
            "432": 0.02791422682337111,
            "433": -0.04167858899595989,
            "434": 0.04665826612051012,
            "435": 0.05608090884093976,
            "436": -0.06462855926751813,
            "437": 0.01575210410357493,
            "438": -0.032088635442793244,
            "439": 0.0048194715678530784,
            "440": -0.03627903033403196,
            "441": 0.031852852585880484,
            "442": -0.06432515743641808,
            "443": 0.009821716913027407,
            "444": 0.020254261418409903,
            "445": -0.03896812369125259,
            "446": -0.052474388710646976,
            "447": -0.030888724787283002,
            "448": 0.06647255782983995,
            "449": -0.019664223657870742,
            "450": 0.052944864300322136,
            "451": -0.022980525440037664,
            "452": -0.05003033879112718,
            "453": 0.03166900649731768,
            "454": 0.026011153753405056,
            "455": 0.01448931779815387,
            "456": -0.0020050844955351132,
            "457": -0.017487320750986753,
            "458": -0.0072116679882715815,
            "459": -0.06642344152157115,
            "460": -0.0034242256963027367,
            "461": 0.00886596450380959,
            "462": -0.06469289080513964,
            "463": -0.016020493737126915,
            "464": -0.013610348754574184,
            "465": 0.013741479118395298,
            "466": 0.03882201814397489,
            "467": -0.06476732542403643,
            "468": -0.012069756216910636,
            "469": -0.056129505427357514,
            "470": 0.0689137946368816,
            "471": -0.00015106407444298738,
            "472": -0.08435222541238574,
            "473": 0.06179970549144017,
            "474": 0.023226070922897166,
            "475": 0.012474766928697915,
            "476": 0.0075558595619852975,
            "477": 0.026036815172227515,
            "478": 0.004741082553849996,
            "479": -0.07713272982435611,
            "480": -0.015051657501407648,
            "481": 0.010732255668618115,
            "482": 0.021863710280991436,
            "483": -0.039033963190560975,
            "484": 0.04242052000623043,
            "485": -0.03528566924263057,
            "486": -0.003713528617329345,
            "487": 0.011134344555038365,
            "488": -0.012200109672485648,
            "489": -0.00319057481416906,
            "490": -0.0368265658710832,
            "491": 0.03075118486982739,
            "492": 0.04666261058642673,
            "493": -0.03459222355928129,
            "494": -0.014653394476785873,
            "495": 0.008795586353257587,
            "496": 0.016117906594964843,
            "497": -0.024417164050510032,
            "498": 0.0330349753675007,
            "499": -0.046853712868762325,
            "500": 0.029011680976637616,
            "501": -0.02225847750885267,
            "502": -0.012957233336069771,
            "503": -0.05352668146484591,
            "504": -0.010949948214943262,
            "505": -0.06479856270827536,
            "506": -0.08385160002645631,
            "507": -0.009218885344610444,
            "508": -0.0533879028608404,
            "509": -0.028112178042801524,
            "510": 0.07124665729565836,
            "511": -0.00606070970862014,
            "512": -0.0915418968239172,
            "513": -0.02738418755576749,
            "514": -0.04511091635271246,
            "515": 0.07917423603707716,
            "516": 0.04344136344641555,
            "517": 0.010242820968786552,
            "518": 0.003460004485993858,
            "519": 0.03425964393395612,
            "520": -0.01878968245790853,
            "521": 0.054493789642346684,
            "522": 0.049064636810984066,
            "523": 0.06523776413233953,
            "524": 0.008348749083260035,
            "525": -0.01009344092252871,
            "526": -0.03635231905672287,
            "527": 0.0226832390538368,
            "528": -0.025588284902559613,
            "529": -0.0313717366299194,
            "530": -0.04206856516481211,
            "531": 0.020358139706440438,
            "532": -0.012457293491904253,
            "533": -0.026448994258903662,
            "534": -0.014167077311076125,
            "535": -0.0026659188506513816,
            "536": -0.0242950974588188,
            "537": 0.01678486537974652,
            "538": -0.007323326603499239,
            "539": 0.021334390099475874,
            "540": 0.0025807303969074607,
            "541": 0.086255970191882,
            "542": 0.031105274000406063,
            "543": 0.014048721854914934,
            "544": -0.013947326269027966,
            "545": -0.00968523112133735,
            "546": -0.047570118997718625,
            "547": 0.002417452915257955,
            "548": -0.04408112586377899,
            "549": -0.028389565364568707,
            "550": -0.024781049884351994,
            "551": 0.08184355797646742,
            "552": -0.051661042493801865,
            "553": -0.055070108634031834,
            "554": 0.017811754509756833,
            "555": -0.03083225606753976,
            "556": 0.008435539099108887,
            "557": 0.01593739791909553,
            "558": 0.022845265659359657,
            "559": -0.00898649215119932,
            "560": -0.04884380185607879,
            "561": 0.04276716655375886,
            "562": -0.035243594942742124,
            "563": 0.001703247383050497,
            "564": 0.046462195103881214,
            "565": 0.052413096512078886,
            "566": -0.016377728702469875,
            "567": -0.007464411274445434,
            "568": -0.009459875946248895,
            "569": -0.08372409851236427,
            "570": -0.03973222487240184,
            "571": -0.01358432177115258,
            "572": 0.04492168488417,
            "573": -0.04186211657060375,
            "574": -0.009232865938880291,
            "575": 0.0014374313462691606,
            "576": 0.05563769690788015,
            "577": 0.03821696030985456,
            "578": -0.037849566101845054,
            "579": 0.05874715482822451,
            "580": 0.030681200789190302,
            "581": -0.001657478543052701,
            "582": -0.018166634383201638,
            "583": 0.012286708603249876,
            "584": -0.023335392115675355,
            "585": 0.022462960975890657,
            "586": 0.024379739065376268,
            "587": 0.045185376047033335,
            "588": -0.03539264178135777,
            "589": 0.045778178998947386,
            "590": 0.010184660699861172,
            "591": -0.05478503853790253,
            "592": 0.022444570788442586,
            "593": -0.005473737258923303,
            "594": 0.0007705667928983623,
            "595": -0.008103235085444256,
            "596": 0.01442919798153137,
            "597": 0.012511652040190504,
            "598": -0.02628159631940452,
            "599": -0.04484229014481995,
            "600": 0.040884355434172855,
            "601": -0.020280862216802153,
            "602": 0.009687819707960314,
            "603": 0.01741075026333279,
            "604": -0.026298131294040704,
            "605": 0.005092705091494441,
            "606": 0.049662606367795924,
            "607": 0.032253009938433747,
            "608": 0.02073676934128862,
            "609": 0.062007007041573,
            "610": 0.031249447679932006,
            "611": -0.0008242151309091033,
            "612": -0.046060070371163706,
            "613": 0.0017524344483553628,
            "614": -0.057052965235450816,
            "615": -0.0167854743693872,
            "616": -0.03929490342472462,
            "617": -0.004396083733982644,
            "618": -0.06106247545536369,
