{
  "layers": [
    {
      "out_depth": 1,
      "out_sx": 20,
      "out_sy": 20,
      "layer_type": "input"
    },
    {
      "sx": 5,
      "sy": 5,
      "stride": 1,
      "in_depth": 1,
      "out_depth": 8,
      "out_sx": 20,
      "out_sy": 20,
      "layer_type": "conv",
      "l1_decay_mul": 0,
      "l2_decay_mul": 1,
      "pad": 2,
      "filters": [
        {
          "sx": 5,
          "sy": 5,
          "depth": 1,
          "w": {
            "0": null,
            "1": null,
            "2": null,
            "3": -0.00029131204326590784,
            "4": -0.0007631844192798296,
            "5": null,
            "6": null,
            "7": null,
            "8": 0.00016530061575301122,
            "9": -0.0006535062223602833,
            "10": null,
            "11": null,
            "12": null,
            "13": 0.00022347198697298008,
            "14": -0.0007393063300851915,
            "15": 0.0006736628390597602,
            "16": 0.00023712923617227297,
            "17": -0.0014127242178967104,
            "18": 0.0010477700519966513,
            "19": -0.00007430786980447541,
            "20": 0.000050254378771782626,
            "21": 0.0004584070669449765,
            "22": -0.00010416885923725942,
            "23": 0.00018360665313039287,
            "24": -0.0002278280947336571
          }
        },
        {
          "sx": 5,
          "sy": 5,
          "depth": 1,
          "w": {
            "0": null,
            "1": null,
            "2": null,
            "3": -0.00031023688514545897,
            "4": -0.00019555537085482684,
            "5": null,
            "6": null,
            "7": null,
            "8": -0.0005031086074573475,
            "9": -0.00022364073062920231,
            "10": null,
            "11": null,
            "12": null,
            "13": -0.0008653147769071399,
            "14": -0.0003153249406727046,
            "15": 0.00042937913419360216,
            "16": -0.00022024584613086358,
            "17": -0.0006902755254407396,
            "18": 0.00026511407180446287,
            "19": -0.0007606092900680496,
            "20": 0.00021362478808238284,
            "21": 0.00021297876666526652,
            "22": 0.00020669394087525006,
            "23": -0.000033210526890261546,
            "24": 0.0007666461138956921
          }
        },
        {
          "sx": 5,
          "sy": 5,
          "depth": 1,
          "w": {
            "0": null,
            "1": null,
            "2": null,
            "3": -0.0009349224528898708,
            "4": -0.00035373139066805794,
            "5": null,
            "6": null,
            "7": null,
            "8": 0.0003061138318533782,
            "9": -0.0005296042807030763,
            "10": null,
            "11": null,
            "12": null,
            "13": 0.0001923234935020519,
            "14": 0.0003002169119363985,
            "15": -0.0007176337357833915,
            "16": -0.00023905263567529912,
            "17": -0.00048202746248053347,
            "18": 0.0005324459403139903,
            "19": 0.0010411788715675484,
            "20": -0.0004638721987764135,
            "21": 0.0004920502850723966,
            "22": -0.00008283836907348196,
            "23": -0.0007153884019263669,
            "24": -0.001276023061290082
          }
        },
        {
          "sx": 5,
          "sy": 5,
          "depth": 1,
          "w": {
            "0": null,
            "1": null,
            "2": null,
            "3": -0.0003940837507695803,
            "4": -0.001036471843952104,
            "5": null,
            "6": null,
            "7": null,
            "8": 0.00021385392212102067,
            "9": 0.00042825028718475815,
            "10": null,
            "11": null,
            "12": null,
            "13": 0.00014171996537325435,
            "14": -0.00005358622296983135,
            "15": -0.000007967355492349837,
            "16": 0.0005889650669752001,
            "17": -0.0002500713430813967,
            "18": 0.00008744851819250229,
            "19": -0.00005576818271056179,
            "20": 0.0006729321655496415,
            "21": -0.0010955264175892378,
            "22": -0.00006288054270674756,
            "23": -0.0004504917345758861,
            "24": 0.0006929039972652996
          }
        },
        {
          "sx": 5,
          "sy": 5,
          "depth": 1,
          "w": {
            "0": null,
            "1": null,
            "2": null,
            "3": -0.0007578822605994881,
            "4": -0.0006772341590400326,
            "5": null,
            "6": null,
            "7": null,
            "8": 0.0001859475865863966,
            "9": 0.000718832943414923,
            "10": null,
            "11": null,
            "12": null,
            "13": -0.00033960345374754475,
            "14": -0.00031438224315216733,
            "15": 0.0004937457848840988,
            "16": 0.0005510424351165376,
            "17": 0.00025590754852188865,
            "18": -0.00036702812153915226,
            "19": 0.0008057230304811349,
            "20": 0.0006748976628729926,
            "21": 0.0005366432126307016,
            "22": 0.0001032028199378035,
            "23": -0.00021658966910099832,
            "24": 0.0010801821630656286
          }
        },
        {
          "sx": 5,
          "sy": 5,
          "depth": 1,
          "w": {
            "0": null,
            "1": null,
            "2": null,
            "3": 0.00006591793368128971,
            "4": -0.0006904055271473722,
            "5": null,
            "6": null,
            "7": null,
            "8": 0.0006532224644959531,
            "9": 0.00019825246727822848,
            "10": null,
            "11": null,
            "12": null,
            "13": -0.00007827036714259547,
            "14": -0.00001973931534882754,
            "15": -0.0004870585921095239,
            "16": -0.00024080295487989266,
            "17": 0.00024504469680423826,
            "18": 0.00014192146640634251,
            "19": -0.0007962931037869758,
            "20": 0.00005217272542561251,
            "21": 0.00027370202559914587,
            "22": 0.0003823010904116605,
            "23": 0.0007821217138158549,
            "24": -0.000964877416506024
          }
        },
        {
          "sx": 5,
          "sy": 5,
          "depth": 1,
          "w": {
            "0": null,
            "1": null,
            "2": null,
            "3": 0.0006009874787196478,
            "4": -0.00012273186717394284,
            "5": null,
            "6": null,
            "7": null,
            "8": -0.0003168414916689805,
            "9": -0.00006682754603660133,
            "10": null,
            "11": null,
            "12": null,
            "13": -0.0008287489331121529,
            "14": 0.000282470931526265,
            "15": 0.0009529998874480794,
            "16": -0.0007605840662091991,
            "17": -0.000058464812894421496,
            "18": -0.0007645323125823276,
            "19": 0.0002940627843657492,
            "20": 0.0005318551917060079,
            "21": -0.00038976124469657835,
            "22": 0.00036089309655589397,
            "23": -0.0006952046471194572,
            "24": -0.000384642992517185
          }
        },
        {
          "sx": 5,
          "sy": 5,
          "depth": 1,
          "w": {
            "0": null,
            "1": null,
            "2": null,
            "3": -0.0017576460597686291,
            "4": -0.00021013039826337868,
            "5": null,
            "6": null,
            "7": null,
            "8": 0.00013758043208334967,
            "9": 0.000740466522833804,
            "10": null,
            "11": null,
            "12": null,
            "13": -0.00044550120855612945,
            "14": 0.0003340495222870691,
            "15": -0.00047593190451287315,
            "16": 0.0007917977930078737,
            "17": -0.00044682257570491884,
            "18": 0.0003882562614125451,
            "19": 0.0013313232775274495,
            "20": 0.0009020846579395928,
            "21": -0.0005197588499452818,
            "22": -0.0008362557062915552,
            "23": -0.0004906232494692709,
            "24": -0.0005202883248076234
          }
        }
      ],
      "biases": {
        "sx": 1,
        "sy": 1,
        "depth": 8,
        "w": {
          "0": 0.08857469829418653,
          "1": 0.10261943175922889,
          "2": 0.09295263820914205,
          "3": 0.09430217041683152,
          "4": 0.10058551047555243,
          "5": 0.10663265479588432,
          "6": 0.09195273608279224,
          "7": 0.10297111547255933
        }
      }
    },
    {
      "out_depth": 8,
      "out_sx": 20,
      "out_sy": 20,
      "layer_type": "relu"
    },
    {
      "sx": 2,
      "sy": 2,
      "stride": 2,
      "in_depth": 8,
      "out_depth": 8,
      "out_sx": 10,
      "out_sy": 10,
      "layer_type": "pool",
      "pad": 0
    },
    {
      "out_depth": 30,
      "out_sx": 1,
      "out_sy": 1,
      "layer_type": "fc",
      "num_inputs": 800,
      "l1_decay_mul": 0,
      "l2_decay_mul": 1,
      "filters": [
        {
          "sx": 1,
          "sy": 1,
          "depth": 800,
          "w": {
            "0": 1.140878932988439,
            "1": 1.1408123824204384,
            "2": 1.1408939299240923,
            "3": 1.1409071269794901,
            "4": 1.1407206892575603,
            "5": 1.1408664398965875,
            "6": 1.140809604576258,
            "7": 1.1408048941573798,
            "8": 0.000008995441379249786,
            "9": 0.00006670621568744331,
            "10": -0.00019218451642215266,
            "11": -0.00015352098640499477,
            "12": 0.00009344469565576538,
            "13": -0.0001491396043874575,
            "14": 0.00007958715845040594,
            "15": -0.000043410034220460754,
            "16": -0.0000023720519379164466,
            "17": -0.000006786045621996498,
            "18": -0.000023742697014487574,
            "19": -0.000028873392149251256,
            "20": -0.00008143845400229449,
            "21": 0.00016947882130886676,
            "22": 0.00008900386167693789,
            "23": -0.00009160303807154029,
            "24": -0.00011308886104119705,
            "25": -0.00005603719812647886,
            "26": 0.00007529809095702367,
            "27": 0.00004982676748318658,
            "28": 0.00008028357028369217,
            "29": 0.000036566344465042755,
            "30": -0.00007919846827205493,
            "31": -0.00009782480245938285,
            "32": -0.0001282882493331586,
            "33": 0.00006798225773660651,
            "34": 0.00012121813192702217,
            "35": -0.0000569624999428812,
            "36": -0.000039745353804558946,
            "37": 0.00006551758168646396,
            "38": -0.00002128354658367755,
            "39": 0.0002482041577892051,
            "40": -0.00008588189339760385,
            "41": -0.0001574499538322068,
            "42": -0.000047578340222361376,
            "43": -0.0000358349874842056,
            "44": -0.0000819856571238632,
            "45": 0.00008061144632440817,
            "46": -0.00009272779549012235,
            "47": -0.00006446051496146567,
            "48": -0.00000564927941067358,
            "49": 0.000015814383104183076,
            "50": -0.0001173896561405735,
            "51": -0.000053073567120212904,
            "52": 0.00002420482095404215,
            "53": 0.00002739432048272482,
            "54": -0.0000034984888323957674,
            "55": -0.00004535873970422924,
            "56": -0.000038668385243873684,
            "57": -0.00018458553062963213,
            "58": -0.00011790142941887137,
            "59": -0.00008356552726842265,
            "60": 0.00015434991238458845,
            "61": -0.000050657393391110716,
            "62": 0.00001873854071715448,
            "63": -0.00020866634410047005,
            "64": 0.00013543073274922666,
            "65": -0.000141848725151887,
            "66": 0.00005894288681519578,
            "67": -0.00007479138419357823,
            "68": 0.000008467014429800688,
            "69": -0.00006247980101316408,
            "70": 0.00011715737316973219,
            "71": 0.00008289238838903711,
            "72": -0.00015070865859668556,
            "73": -0.0000027761623847112685,
            "74": -0.00005150259209544338,
            "75": -0.00004113169527042767,
            "76": 0.000015463796684885113,
            "77": -0.00008191848192950516,
            "78": -0.00003913632620557968,
            "79": 0.00007571457748244531,
            "80": -0.000009419207067129027,
            "81": 0.0001558055005713638,
            "82": 0.0001024586877068181,
            "83": -0.00016509856950273406,
            "84": 0.000027330508201575217,
            "85": 0.00017031341571243074,
            "86": -0.00010324170449069666,
            "87": -0.00011026653906233289,
            "88": -0.0000861687504710254,
            "89": 0.0001768691304234701,
            "90": 0.000014695664346019097,
            "91": -0.00014024710157268833,
            "92": -0.00020254436986173372,
            "93": 0.00004646775431793066,
            "94": -0.00004917451295650114,
            "95": 0.00004407737158968962,
            "96": 0.0001126230588113071,
            "97": 0.00009616137154664777,
            "98": 0.00009538816271021522,
            "99": 0.00023307556043270983,
            "100": 0.00010293550408934563,
            "101": 0.00008521889913012594,
            "102": -0.00010514358639739138,
            "103": 0.000033920330325132394,
            "104": 0.00007069682617881346,
            "105": 0.000167568178196135,
            "106": -0.00022262451693095175,
            "107": -0.00021479440593858353,
            "108": 0.00010449743439081596,
            "109": -0.00009451545334847048,
            "110": 0.00007812608460214165,
            "111": -0.000016012233283911315,
            "112": 0.00011245229236653424,
            "113": 0.000049330808576089,
            "114": 0.00009010368686356253,
            "115": 0.00009570239816957344,
            "116": -0.00008235446612949166,
            "117": -0.00018666930254165987,
            "118": 0.00001582620161391738,
            "119": 0.00001528185748527886,
            "120": -0.00017668757514497028,
            "121": -0.000009596724530541807,
            "122": 0.00025025478860192144,
            "123": -0.000023950365102857038,
            "124": -0.00007693127599358446,
            "125": -0.000007388479284136188,
            "126": -0.00000656362891464019,
            "127": -0.00008265334769284416,
            "128": -0.000021879195981411416,
            "129": -0.00020731447448890224,
            "130": -0.00010675012396671169,
            "131": -0.000040223897391856244,
            "132": -0.000022201611585180875,
            "133": -0.00008513970851051297,
            "134": -0.00006973122637308067,
            "135": -0.00000905618240541651,
            "136": -0.000009074257860061323,
            "137": -0.00009033729221033996,
            "138": 0.00003562932461802381,
            "139": 0.0001270359357816079,
            "140": -0.0001216251760137847,
            "141": -0.000049285875611927033,
            "142": -0.000025188084211152178,
            "143": -0.00013713734608925568,
            "144": 0.000013354166467530435,
            "145": 0.00002332038746273668,
            "146": 0.00011433969483869117,
            "147": -0.0001365600949728051,
            "148": -0.0000593264687783369,
            "149": 0.000021484024703120415,
            "150": -0.00002134941733203746,
            "151": -0.000029007605847792238,
            "152": -0.00014232384760371595,
            "153": 0.00011352399013150924,
            "154": -0.00011782652129628728,
            "155": -0.00005398385336565828,
            "156": -0.000020559202362686654,
            "157": -0.00015003406201597117,
            "158": -0.00009324650498431188,
            "159": -0.00017077289550676114,
            "160": -0.0000037869099096261703,
            "161": -0.00009417078414964963,
            "162": 0.0001037751319557968,
            "163": -0.0000017865893873712953,
            "164": -0.00002733900205861027,
            "165": -0.0001941177061747624,
            "166": -0.00009508134640415519,
            "167": 0.00018918694756510173,
            "168": 0.00010771672792599586,
            "169": 0.00005935593441461251,
            "170": -0.00005377538019043669,
            "171": -0.00005306864269977464,
            "172": -0.000007807742349140282,
            "173": 0.000011216700960312554,
            "174": 0.000053987150711149456,
            "175": 0.00008884980292537188,
            "176": -0.00023363281910095745,
            "177": -0.00008762226321354987,
            "178": 0.00018382400630222756,
            "179": -0.00005205034167018752,
            "180": -0.0000011422478271421643,
            "181": 0.00004729850162788732,
            "182": 0.000057935305867636666,
            "183": 0.00012785440204155275,
            "184": -0.00005639904263388573,
            "185": 0.000022014866164038842,
            "186": -0.00007345533002055524,
            "187": 3.2936212062822485e-7,
            "188": -0.00008336253996433425,
            "189": -0.00023501700356651418,
            "190": -0.0001537125544618357,
            "191": 0.00011370227504176371,
            "192": 0.00001727268869467864,
            "193": 0.000008728752076895627,
            "194": -0.000004441612149097646,
            "195": 0.00014644487964266678,
            "196": 0.0001439303883597084,
            "197": -0.00004324385715863142,
            "198": -0.0000822446161061061,
            "199": 0.000026111182242733126,
            "200": 0.00004436655062792618,
            "201": 0.00021829885592945556,
            "202": 0.00006514146835891902,
            "203": 0.000057407815602637796,
            "204": 0.00008185362257872119,
            "205": 0.0001452100292199627,
            "206": -0.00007651217662211329,
            "207": -0.000008681084102891623,
            "208": -0.00012057134283929826,
            "209": 0.0000448222159284678,
            "210": -0.000018545400370775256,
            "211": -0.00003724337053626706,
            "212": -0.00003447332434687118,
            "213": 0.000004928093079851128,
            "214": 0.00010209183150603404,
            "215": 0.00004685962881877701,
            "216": -0.00010956002988610015,
            "217": 0.00005421915672327434,
            "218": -0.00007530086527401165,
            "219": -0.000023943397829696538,
            "220": -0.00013504550931973266,
            "221": 0.00009023997400474551,
            "222": -0.000021347014358616107,
            "223": -0.00008921787746983667,
            "224": 0.000060013912096557464,
            "225": 0.0000585482236213628,
            "226": 0.0000868047104105423,
            "227": 0.00004781456505910473,
            "228": 0.00011185306997682865,
            "229": -0.00007566282861862163,
            "230": 0.000002129027138662471,
            "231": 0.00006403407370042413,
            "232": -0.00009197278793347734,
            "233": 0.00003248292370638685,
            "234": 0.000016742658654895795,
            "235": -0.000020689676597205337,
            "236": 0.00004175665852834129,
            "237": 0.000022055524270857848,
            "238": 0.00006882864555121317,
            "239": 0.00006990701013497193,
            "240": -0.00005132733401914981,
            "241": 0.00003919057708903919,
            "242": 0.00006942910131717362,
            "243": -0.000027059632237709563,
            "244": -0.00007928353010079854,
            "245": 0.00013070876275369728,
            "246": 0.000025984442673174925,
            "247": 0.00006066353177274708,
            "248": 0.00010710365441722384,
            "249": -0.00010254517436718943,
            "250": -0.00007325868901717819,
            "251": -0.00003957092453105174,
            "252": 0.0000858334754173765,
            "253": -0.000028848110242583246,
            "254": -0.000020186504942424312,
            "255": 0.00031757138449616944,
            "256": 0.0001952265491169457,
            "257": 0.00019141945086269735,
            "258": -0.00022837733383321456,
            "259": -0.00003775634672032018,
            "260": -0.00008770366807234805,
            "261": -0.00003298723342890962,
            "262": -0.000014693148148543302,
            "263": -0.00025283870502589733,
            "264": 0.000038177681937529324,
            "265": 0.000025017627577339496,
            "266": -0.00009900904151821818,
            "267": 0.00003731157117340345,
            "268": -0.000022630106427098808,
            "269": 0.000033822300915601345,
            "270": -0.00007251517757242213,
            "271": 0.00009379306470230143,
            "272": -0.000040137560848084045,
            "273": 0.00011700167548996022,
            "274": -0.00011884469844850994,
            "275": 0.000017600366509361595,
            "276": 0.000061808786133609,
            "277": -0.00019032934892403475,
            "278": -0.0000370892320245047,
            "279": -0.00013880631558791393,
            "280": 0.000014834670693235315,
            "281": -0.00004989845121579957,
            "282": 0.00000357231743014224,
            "283": 0.00010089245751471267,
            "284": 0.00002829385505926252,
            "285": -0.000013697781231341263,
            "286": 0.00003529790340060572,
            "287": -0.000026481916278104324,
            "288": -0.00005857612128703197,
            "289": -0.000008465934577657665,
            "290": 0.00018807762788253983,
            "291": 0.000010236135584182541,
            "292": 0.0000021258818817095553,
            "293": -0.00007287854391006162,
            "294": -0.00022459860548668144,
            "295": -0.000016536855360429915,
            "296": 0.00011462959586032881,
            "297": -0.000030169085445150557,
            "298": 0.000032860978874012745,
            "299": 0.00009709957471649793,
            "300": -0.000002174446511768144,
            "301": 0.00004411509233194461,
            "302": 0.000024845683066022937,
            "303": 0.000006642080032552077,
            "304": -0.00018936762900751298,
            "305": -0.00006377741675324301,
            "306": -0.000013803254252616634,
            "307": -0.00014389467059851342,
            "308": 0.00013963841083269903,
            "309": 0.00013411263886854312,
            "310": 0.00003221963050592619,
            "311": 0.000160559386622746,
            "312": -0.00007441555163988487,
            "313": -0.000024746132647509716,
            "314": 0.0000646038993445114,
            "315": 0.00009593510957772516,
            "316": 0.000038137717649549254,
            "317": -0.00012669293457668858,
            "318": -0.00009595962487812583,
            "319": -0.00024352151172572168,
            "320": -0.00001614830503647257,
            "321": 0.00002128653367658359,
            "322": 0.00008496064922199398,
            "323": 0.00008670098117098107,
            "324": -0.0001014398425164038,
            "325": -0.000025738430808196825,
            "326": -0.00003487100973679883,
            "327": -0.00008457742121574964,
            "328": 0.00021281613688445256,
            "329": -0.00011170643073522768,
            "330": -0.00010245539155190754,
            "331": -0.00012330542678149953,
            "332": -0.00015406640837207876,
            "333": 0.0001552590124633596,
            "334": -0.0002540373353613015,
            "335": -0.000128798420894804,
            "336": 0.000017835238087610273,
            "337": -0.00024335951314165003,
            "338": 0.00017671470599597592,
            "339": -0.00008872782946598714,
            "340": -0.00020279707964709171,
            "341": 0.000048351948964630656,
            "342": 0.000038178608410460764,
            "343": 0.000009695711631088043,
            "344": 0.00004921023083658541,
            "345": -0.000052055961910896234,
            "346": 0.00012234013085405445,
            "347": 0.00004434366138391857,
            "348": -0.00003776121827864889,
            "349": 1.7667491026736042e-7,
            "350": 0.00012221176337404155,
            "351": -0.000005683638187794976,
            "352": 0.00003787899520178603,
            "353": -0.00007366047751001441,
            "354": -0.00007572489966236107,
            "355": -0.00011460873582011905,
            "356": -0.000016615392708704283,
            "357": 0.0001016165172078791,
            "358": -0.00013881691986016847,
            "359": -0.000027113694099703182,
            "360": -0.0000793998972614485,
            "361": 0.00002354054990563889,
            "362": 0.000019704983432658187,
            "363": -0.00005482813824285022,
            "364": -0.00010719233763977322,
            "365": -0.00017462933382103178,
            "366": -0.000025573544168930132,
            "367": -0.00008573570425061284,
            "368": 0.000006221537989720972,
            "369": 0.00006591770891279733,
            "370": -0.00004528203376457364,
            "371": -0.00011591632940964635,
            "372": -0.000046689352907946864,
            "373": -0.00002729038069276649,
            "374": 0.00011801374577885575,
            "375": -0.000005039378140790157,
            "376": -0.00012768123426849088,
            "377": -0.00029221347323179646,
            "378": 0.0001347361523909935,
            "379": -0.00010466659282712946,
            "380": -0.00004447704068455566,
            "381": 0.000027596953048888934,
            "382": 0.00015179655744963975,
            "383": 0.0001258447842141843,
            "384": -0.00007604484529126655,
            "385": -0.00012438868539194772,
            "386": 0.0001273861007958897,
            "387": 0.00009507416245035223,
            "388": 0.00011042532119984161,
            "389": -0.000047059252411544605,
            "390": -0.000029106298120663476,
            "391": 0.000021838626078329456,
            "392": 0.000004971382114312705,
            "393": -0.000025875888551268857,
            "394": 0.00004008721311845702,
            "395": 0.000012037737458915767,
            "396": 0.000018527364494286642,
            "397": 0.00015768902267180858,
            "398": 0.00020793294736816395,
            "399": 0.00011382307450441818,
            "400": -0.00008981512218791921,
            "401": 0.00004807969505933657,
            "402": -0.00009235812803942413,
            "403": -0.00004917473215451773,
            "404": -0.00037242362164869816,
            "405": -0.0000187394866568635,
            "406": 0.00009640258400341913,
            "407": 0.00019201312898241507,
            "408": 0.00019500513468376056,
            "409": 0.00010010904315756441,
            "410": -0.00012448769533279953,
            "411": 0.000036584513088628504,
            "412": 0.00007212371717285088,
            "413": -0.00012339379591856656,
            "414": 0.000025274106009949228,
            "415": -0.00007474980864658692,
            "416": 0.00014265170954353093,
            "417": 0.000026855380081021696,
            "418": 9.610537991480603e-7,
            "419": -0.00016675017767802446,
            "420": -0.00009738972460679155,
            "421": 0.000024388795638890893,
            "422": -0.00005082355557561829,
            "423": -0.00004781435405479351,
            "424": -0.0001803305227448946,
            "425": 0.00022172425639084824,
            "426": 0.000057471568111582,
            "427": 0.00020061798726710395,
            "428": -0.00012554264420663687,
            "429": 0.000011289850812088313,
            "430": 0.00005947508435805562,
            "431": 0.000025126194391506276,
            "432": -0.00017331081780477524,
            "433": -0.00007427966077112977,
            "434": 0.00015173241587374217,
            "435": -0.000048173691981627456,
            "436": -0.00018411045983803576,
            "437": 0.00006800392592908798,
            "438": 0.0000934534959473822,
            "439": 0.00002922752684955786,
            "440": 0.00007487543063359679,
            "441": 0.00011030221639183398,
            "442": 0.00006658547676595697,
            "443": 0.000017693718650274236,
            "444": -0.00004637423470543644,
            "445": 0.00004337084426624977,
            "446": 0.0001246413335297427,
            "447": 0.0000729585668118314,
            "448": 0.00010249572834952558,
            "449": -0.000011141066867770654,
            "450": -0.0001087117005678644,
            "451": -0.000013829615096143152,
            "452": 0.00006855041112898874,
            "453": -0.00019098214540453368,
            "454": 0.00009209290447371223,
            "455": -0.000034474282998149006,
            "456": -0.00010824640979551154,
            "457": 0.0001633429758616737,
            "458": 0.00005265334944152733,
            "459": 0.00004561317422381028,
            "460": 0.00009144216633998489,
            "461": -0.00011636495962936532,
            "462": -0.00005346806871720215,
            "463": 0.00014962220281739452,
            "464": -0.00010142584535729735,
            "465": -0.00005733703387662978,
            "466": 0.000040958588981308396,
            "467": 0.00011080568996744123,
            "468": 0.000005963844047255696,
            "469": 0.00011178007424379152,
            "470": 0.00005153582854174734,
            "471": -0.0000072456149979865755,
            "472": 0.00005477356372282125,
            "473": -0.00014636096000731846,
            "474": -0.00004078171800218308,
            "475": 0.00005837988983023923,
            "476": 0.00007801461130011922,
            "477": -0.00008659700723606293,
            "478": -0.00010272206040789182,
            "479": 0.000004764980901213765,
            "480": -0.00005609800496659467,
            "481": 0.00004170246403318587,
            "482": -0.00006794348355530003,
            "483": 0.00005830040035959331,
            "484": 0.000001647976828487968,
            "485": 0.00002393629217526802,
            "486": -0.00003378229950745293,
            "487": 0.000020049645945382585,
            "488": -0.00008703609051662452,
            "489": 0.000024920926024360652,
            "490": 0.000009463773238395272,
            "491": 0.00004708196371770716,
            "492": 0.00007466797835350376,
            "493": -0.00019102901407917124,
            "494": 0.0001746052142051406,
            "495": -0.00011111880860197677,
            "496": -0.00003181503188750132,
            "497": -0.00005138350178161886,
            "498": -0.00013777608221224167,
            "499": 0.00006184862463693581,
            "500": -0.00017840339057242766,
            "501": 0.00003856395656377125,
            "502": -0.000053221694179799354,
            "503": 0.00000652350302711832,
            "504": -0.00008710927563711717,
            "505": -0.0000890200934640877,
            "506": 0.000005335436955110651,
            "507": 0.00020925073477714293,
            "508": 0.0001374341182186901,
            "509": 0.000037246415151222965,
            "510": 0.000048804908574617454,
            "511": -0.000009109844168090274,
            "512": -0.000044384718292545235,
            "513": 0.00017013087175185291,
            "514": -0.000043911560120699104,
            "515": 0.00015968282803020936,
            "516": 0.0000650606960222819,
            "517": -0.00007073162928225293,
            "518": -0.0001122994777504675,
            "519": -0.00014805998979286147,
            "520": -0.00012884541838969696,
            "521": -0.00005758050596643885,
            "522": 0.000023779899705605387,
            "523": 0.00006975082961592487,
            "524": 0.000013454075526806143,
            "525": 0.00001853317439758425,
            "526": 0.00010068661992583777,
            "527": 0.000042893682189365786,
            "528": 0.000005981260315312275,
            "529": 0.00006457018564536615,
            "530": 0.00017349147774028687,
            "531": -0.00006257062508588391,
            "532": 0.0001769788803647824,
            "533": -0.000027432922863747882,
            "534": -0.000004220644099355127,
            "535": 0.000021755442124283945,
            "536": -0.00016175181459428018,
            "537": 0.000005653035852065436,
            "538": 0.00009756766678203557,
            "539": 0.000014267501320328688,
            "540": -0.00010124769879721901,
            "541": 0.00010510155975970356,
            "542": 0.000005147788232310332,
            "543": 0.000048569141785607,
            "544": -0.00007967319935997664,
            "545": 0.00010823924703348861,
            "546": -0.000029485386595762425,
            "547": -0.000049702284612248685,
            "548": 0.00004579473104817824,
            "549": -0.00013739512892336152,
            "550": 0.000017684656870383785,
            "551": -0.00008312480175058716,
            "552": 0.00011629370636055579,
            "553": -0.000049789341557486084,
            "554": 0.00004551121067586803,
            "555": -0.00009168646497056356,
            "556": -0.00007862822695074802,
            "557": -0.00004592455642452217,
            "558": -0.00003821439799393128,
            "559": 0.00002844802780599784,
            "560": -0.000015258062923541296,
            "561": 0.00004713806695568257,
            "562": 0.0001254092706865489,
            "563": 0.00018078957582431728,
            "564": 0.0000973410858067783,
            "565": -0.00015688034634657198,
            "566": -0.00005699795194709648,
            "567": 0.000034338214320737985,
            "568": -0.00011524382722875794,
            "569": -0.00013485443906396962,
            "570": 0.00015108615652195301,
            "571": -0.00007047043610069932,
            "572": 0.00007421009561926192,
            "573": -0.00028074842650264564,
            "574": -0.000014741692463289251,
            "575": -0.000026416748426241245,
            "576": -0.000001713235309454206,
            "577": -0.00004500932486131848,
            "578": -0.00005997086260164349,
            "579": -0.000050820378505038576,
            "580": 0.0002707569087353059,
            "581": 0.0000625049113021678,
            "582": 0.00012789377431565626,
            "583": -0.00005244490908011769,
            "584": 0.00006113236101181449,
            "585": 0.000073957630676163,
            "586": -0.000022618661223836318,
            "587": 0.00013288382112412115,
            "588": -0.0000669687328548943,
            "589": -0.0000436903339466867,
            "590": 0.000008110525265580677,
            "591": 0.00003377277922123901,
            "592": -0.00021771524549954994,
            "593": -0.00009683296114845752,
            "594": 0.00011293773300168366,
            "595": 0.000014784505885589471,
            "596": -0.000058971952141272355,
            "597": 0.000048123320362183016,
            "598": -0.00009770321667188345,
            "599": 0.00020029321067275776,
            "600": -0.00012842681881704935,
            "601": -0.000005125543023164551,
            "602": -0.00004751919474745533,
            "603": 0.000145672783113205,
            "604": -0.00000452512125107977,
            "605": -0.000018553187517888577,
            "606": 0.000031419248138737875,
            "607": -0.000022595524007533396,
            "608": 0.0002532235860478636,
            "609": -0.00001728490155874539,
            "610": 0.00011161664339733484,
            "611": -0.00009204550801866045,
            "612": 0.00006171624465094655,
            "613": 0.0001542584036839031,
            "614": 0.000043694088858069996,
            "615": -0.000043084803300408494,
            "616": 0.0000937921647501589,
            "617": -0.00011819352075397222,
            "618": -0.00009819208889597906,
            "619": -0.00007395209511620105,
            "620": 0.000027399231169311246,
            "621": -0.00012936745170615747,
            "622": -0.00018239436007488636,
            "623": -0.00015244537317564492,
            "624": -0.00018605316265261115,
            "625": 0.00008864661420818188,
            "626": -0.00001677704965152663,
            "627": 6.314283058612162e-7,
            "628": -0.0002599743156279696,
            "629": -0.0000186816954187442,
            "630": -0.00021450187262748885,
            "631": 0.00020136104813290283,
            "632": -0.000015153455433743258,
            "633": -0.00008383986971346755,
            "634": 0.0001523523271320317,
            "635": -0.00015352887255367758,
            "636": -0.0002113944631818025,
            "637": 0.000015665914982428613,
            "638": -0.00009532752286819539,
            "639": 0.00004897234201329446,
            "640": 0.00008690324073884568,
            "641": 0.00009764645636320963,
            "642": 0.0000029665239498226827,
            "643": -0.00011530409515261951,
            "644": 0.000007382337772183745,
            "645": 0.00013941462240368957,
            "646": 0.000005722364234115027,
            "647": -0.0000923793569650181,
            "648": 0.000024268892405847917,
            "649": 0.00002002579925087331,
            "650": -0.00009875186601855929,
            "651": -0.00016447899259537551,
            "652": 0.00017507373614794795,
            "653": -0.00011596861640043392,
            "654": 0.00015740975857642505,
            "655": -0.000008188735942919307,
            "656": -0.00009454158668089378,
            "657": -0.00009209151137551046,
            "658": 0.0001606035262655434,
            "659": -0.00005735349434678416,
            "660": 0.00006432890883606517,
            "661": -0.000011657771422447267,
            "662": -0.0000919139318673201,
            "663": -0.00005997282199234048,
            "664": 0.00005575226915511596,
            "665": 0.0000025122551982333453,
            "666": 0.00005738678524553262,
            "667": 0.000006942339900618283,
            "668": 0.00001584121794951254,
            "669": 0.00014657257582723903,
            "670": 0.00005118920311153405,
            "671": -0.00006416085783727669,
            "672": -0.00004645771586550031,
            "673": -0.000007595388769977134,
            "674": -0.00007962859648239229,
            "675": -0.00016527298426949758,
            "676": -0.00010052309964234436,
            "677": -0.00021723925368973332,
            "678": -0.0001406692893393018,
            "679": 0.00001251049648113803,
            "680": -0.00006189507534178532,
            "681": 0.00001119371993509348,
            "682": 0.000057690869342894816,
            "683": 0.00004600711532550815,
            "684": 0.00009129830343244171,
            "685": 0.00009259366172624605,
            "686": 0.00011133315367706749,
            "687": 0.00005770630903151894,
            "688": 0.00009039979850498749,
            "689": 0.00011605813066665384,
            "690": 0.00008834725639505836,
            "691": 0.00007579669956885348,
            "692": 0.0000624175933347409,
            "693": 0.00003161994742260114,
            "694": -0.000059682016463472684,
            "695": 0.00004581575832620656,
            "696": 0.000034902412813439064,
            "697": -0.0000018004308693329695,
            "698": -0.00009601483597485535,
            "699": 0.00003010291887657928,
            "700": -0.000011356562550802032,
            "701": 0.00007284128442548952,
            "702": 0.00014063924212091353,
            "703": 0.00002997495740915606,
            "704": 0.00008558514385839492,
            "705": 0.00006281296131111707,
            "706": -0.00009440169417417546,
            "707": 0.000035146896049741525,
            "708": 0.00006691473021593155,
            "709": -0.00007943498348500433,
            "710": -0.000239646960932502,
            "711": 0.00010832689290231893,
            "712": -0.00011935609121361694,
            "713": -0.0001446797361009342,
            "714": 0.00010703003348250062,
            "715": 0.00001990094388597966,
            "716": -0.00011194100146147928,
            "717": 0.00006281199384243659,
            "718": -0.0001567039951594647,
            "719": 0.0000891259737907906,
            "720": -0.000039683673707313325,
            "721": -0.00021726202737151415,
            "722": -0.000009475165753750115,
            "723": 0.000035602853210426534,
            "724": -0.00002734453670349466,
            "725": 0.0001894079425017935,
            "726": 0.000014649573555229423,
            "727": 0.00009590082374447802,
            "728": -0.00011093439274536136,
            "729": 0.000036972982157540394,
            "730": 0.000043182588138515185,
            "731": -0.000009155684199776604,
            "732": -0.00005994172778559207,
            "733": -0.0001838467113551931,
            "734": -0.000008409034476862373,
            "735": 0.00017378979499660317,
            "736": 0.000024448201656157905,
            "737": 0.000057355547766911205,
            "738": -0.00003478947094856609,
            "739": 0.00022028124527960973,
            "740": 0.0000032000360528055904,
            "741": -0.00008073960455192003,
            "742": 0.00020007345183550577,
            "743": -0.000026596633432211503,
            "744": 0.00019673115379612683,
            "745": 0.00013798384775348742,
            "746": 0.000008905817903292623,
            "747": 0.00020534739643177766,
            "748": 0.000021310070158920775,
            "749": 0.00000767955756934983,
            "750": -0.00007207740754807947,
            "751": -0.00007831842090313195,
            "752": -0.00024908542718692957,
            "753": -0.00009883350162665262,
            "754": -0.00014295629594402945,
            "755": 0.00015598650786572763,
            "756": 0.000026685827045462472,
            "757": 0.00003037133848145008,
            "758": 0.00015068396322536585,
            "759": 0.00006033871772261045,
            "760": -0.0001758174409496369,
            "761": 0.00007218292239934842,
            "762": 0.00008038442202365422,
            "763": 0.00011454614709362708,
            "764": 0.000006628748460911287,
            "765": -0.00007632095570894567,
            "766": 0.000018384345836297258,
            "767": 0.00010608141397784615,
            "768": -0.000010607486035476487,
            "769": -0.00009757703356150971,
            "770": 0.00006269766974332867,
            "771": 2.926744884382748e-7,
            "772": 0.00007924348949449298,
            "773": 0.0000793380700056124,
            "774": 0.00008903625537010446,
            "775": 0.00006657440804158429,
            "776": -0.000014650365196706616,
            "777": -0.000026256835538991443,
            "778": -0.00016861336649864317,
            "779": 0.00004855157054317517,
            "780": -0.00006494585528052531,
            "781": 0.00010110189418259471,
            "782": 0.00002022677645691634,
            "783": 0.000002826463376718114,
            "784": -0.00005823439217232337,
            "785": -0.00004056123088399946,
            "786": 0.00003810688290051681,
            "787": 0.00007608726012965559,
            "788": -0.00005987060088120353,
            "789": -0.000029668533189621176,
            "790": 0.00004045197850248656,
            "791": 0.000024209238135853645,
            "792": -0.00014843485503801809,
            "793": 0.00017109691865424252,
            "794": 0.0002475551155871431,
            "795": -0.00006403656579048645,
            "796": -0.0001550522663642239,
            "797": -0.000043935968248623625,
            "798": -0.00011120776584645926,
            "799": -0.00005295217557263206
          }
        },
        {
          "sx": 1,
          "sy": 1,
          "depth": 800,
          "w": {
            "0": -0.00002603963214037071,
            "1": -0.00006320145643361912,
            "2": 0.00013467645420942227,
            "3": 0.00012929073135727263,
            "4": -0.000058538754287770184,
            "5": 0.00008305391393955122,
            "6": -0.000060472209014306933,
            "7": 0.00003044748137359121,
            "8": 0.00035508537052283045,
            "9": 0.00006136179992483472,
            "10": 0.00001945236865962201,
            "11": -0.00014701266074752792,
            "12": 0.00003749948303345782,
            "13": -0.00004062101492990391,
            "14": -0.00001257049206205892,
            "15": -0.000058815983387515636,
            "16": 0.00005395962077710844,
            "17": -0.000057753599823754245,
            "18": 0.00014170307590574542,
            "19": 0.00007152352210956291,
            "20": -0.00007551826258057935,
            "21": 0.00007233671557967427,
            "22": -0.00017075223584775952,
            "23": -0.000022743221150849412,
            "24": -0.00013104642218794696,
            "25": 0.000029641938328470824,
            "26": 0.00018788160246783177,
            "27": 0.00011080736771028067,
            "28": 0.00006759721066914636,
            "29": 0.0002904893112465156,
            "30": 0.000029094923268685865,
            "31": 0.00012332233595962658,
            "32": 0.00010835193410632817,
            "33": -0.00005111016512949614,
            "34": 0.00007224579165180305,
            "35": -0.00004934585555655397,
            "36": 0.0000052311497723811965,
            "37": -0.00009005143112531482,
            "38": -0.00012711120370556065,
            "39": -0.00009531402499902985,
            "40": -0.00006236407465618687,
            "41": -0.00009871416617501944,
            "42": -0.00007200462589456904,
            "43": -0.000019962682916548736,
            "44": -0.000026701870716587994,
            "45": 0.00007379845723518925,
            "46": -0.00017165619712062338,
            "47": -2.613770394334236e-7,
            "48": -0.000016953095149411938,
            "49": 0.0000745513000939647,
            "50": 0.00002156059023692991,
            "51": 0.00004996591538345937,
            "52": -0.00008767832142052164,
            "53": -0.000058420691159750614,
            "54": 0.0001241603254334573,
            "55": 0.00012139420641156965,
            "56": -0.00017761221766849852,
            "57": 0.00007375534750224478,
            "58": 0.00005102493504478518,
            "59": -0.00006574584491301987,
            "60": 0.00012660324421289606,
            "61": -0.00008715042798899408,
            "62": 0.00009214205931297604,
            "63": -0.00008540406358344114,
            "64": -0.00007985343189242078,
            "65": 0.00010304671012893123,
            "66": -0.00009493971983504912,
            "67": 0.00001310818239758528,
            "68": -0.00003776559481155653,
            "69": -0.0000053108593786322805,
            "70": -3.3022973089345505e-7,
            "71": -0.00009096390137121977,
            "72": -0.000060223055570391316,
            "73": -0.00020342703813711185,
            "74": -0.00004191263960430704,
            "75": 0.000014921093024709936,
            "76": 0.00010560599155380948,
            "77": -0.00008333744753244096,
            "78": -0.00009307287653964288,
            "79": 0.00002226296290136228,
            "80": -0.000027697229490593178,
            "81": 0.00017126948612295454,
            "82": 0.00004365350170507738,
            "83": -0.000043269469006001504,
            "84": -0.00001371030023220749,
            "85": -0.000022077464402051932,
            "86": -0.0001806512116458839,
            "87": -0.00022914274060626847,
            "88": 0.000021978547170479216,
            "89": -0.000006984525515173745,
            "90": 0.000013290786795420199,
            "91": 0.00012391535404554353,
            "92": 0.00003248062814235118,
            "93": -0.00006532812639063435,
            "94": 0.00006482847253029298,
            "95": -0.00006074042122651355,
            "96": -0.00020048420143147248,
            "97": 0.00002744193322772317,
            "98": -0.0000508998809517295,
            "99": -0.0000960924035619176,
            "100": -0.0001299665233529458,
            "101": 0.000015024070623220776,
            "102": -0.00008303467622012318,
            "103": 0.000058351180572930304,
            "104": -0.00010139952329162068,
            "105": 0.00003431040615709806,
            "106": -0.0001023584232090819,
            "107": -0.00016101957586652228,
            "108": 0.00015431154974427391,
            "109": -0.00011889461808589836,
            "110": 0.00012801835346192464,
            "111": 0.0001411333846867086,
            "112": -0.00005972994207493257,
            "113": 0.00005551657882583208,
            "114": 0.00012422077735351454,
            "115": -0.00005353222983308286,
            "116": 0.00010013961848266874,
            "117": 0.0001457884583816963,
            "118": 0.00011122439482026369,
            "119": 0.0000618381997254321,
            "120": -0.00007404306293958434,
            "121": -0.0001385433563329754,
            "122": -0.00005039763627853582,
            "123": -0.000019312590028452363,
            "124": -0.00019608746531197662,
            "125": -0.000046978038534166157,
            "126": -0.0000733096801222168,
            "127": 0.000058483074290622566,
            "128": -0.00005431434857033682,
            "129": 0.00010019508764037202,
            "130": 0.0001095912279658284,
            "131": 0.00004571729037650258,
            "132": -0.00015871041445069471,
            "133": 0.0000011921521740569244,
            "134": -0.0001576626021247344,
            "135": -0.000124936271465015,
            "136": -0.00014874614875865885,
            "137": -0.000003995054014780407,
            "138": -0.000008124378364980345,
            "139": -0.00011370485828407365,
            "140": 0.00005656415970277583,
            "141": 0.00012580813209679982,
            "142": 0.000046792382085639605,
            "143": 0.00007401684966111123,
            "144": -0.0001110258856869916,
            "145": -0.00006147286173961234,
            "146": -0.00013111567896679415,
            "147": 0.000004814219642779073,
            "148": -0.00004565844116469949,
            "149": 0.00006609157736576093,
            "150": 0.00009835267893512597,
            "151": -0.00005752122456005963,
            "152": -0.00008417404197226774,
            "153": 0.00007912152866191897,
            "154": 0.00005991062682340171,
            "155": 0.00002171580411628559,
            "156": -0.000027198173541372603,
            "157": -0.00008030556684180595,
            "158": -0.00004087189013980693,
            "159": -0.0001357885164268241,
            "160": 0.000043402707582568596,
            "161": -0.0001871857949201023,
            "162": -0.000050806466325268955,
            "163": -0.000003062904531792398,
            "164": 0.000021575926275003428,
            "165": -0.0000701805916641212,
            "166": 0.00019121497530883284,
            "167": -0.00008222122350281605,
            "168": -0.00006825665778356884,
            "169": -0.000008185833301313425,
            "170": -0.00017729593536429183,
            "171": -0.00008808884680059725,
            "172": 0.00004285269683730731,
            "173": -0.000024045455112935607,
            "174": 0.00011572311544149836,
            "175": 0.00003452201104797213,
            "176": -0.00013832316836482825,
            "177": -0.0000223192474021364,
            "178": 0.000059804651596461065,
            "179": -0.0001934690155663111,
            "180": -0.00004058974435475526,
            "181": -0.00013611621389073906,
            "182": -0.00007250339524982283,
            "183": -0.00017485108633998996,
            "184": 0.00001049706700329921,
            "185": -0.00003366522125448801,
            "186": -0.00010042699470120078,
            "187": -0.0000898880275421235,
            "188": 0.0001012494028297166,
            "189": 0.000056162250024931425,
            "190": -0.000032826116697800044,
            "191": 0.00000775493246489985,
            "192": -0.00016288168833071938,
            "193": -0.00018528582952979274,
            "194": 0.00018625374321094292,
            "195": 0.00004276259414343055,
            "196": 0.00009176487087324965,
            "197": 0.00007079008677484093,
            "198": -0.00010188387077104971,
            "199": 0.00004473915353438576,
            "200": -0.00013698432099180414,
            "201": -0.000003171073822185633,
            "202": 0.00013957403699858017,
            "203": 0.000048145605379244815,
            "204": -0.00004441219710404375,
            "205": 0.00008740305397588048,
            "206": -0.00003316375532749851,
            "207": 0.000057813554726983014,
            "208": 0.00021838394056881936,
            "209": -0.000028163334827682268,
            "210": -0.00003035157245628973,
            "211": -0.00010722225297405927,
            "212": -0.00008470902612261315,
            "213": 0.00012406440170399793,
            "214": -0.00006949913461326284,
            "215": 0.00007583660212911286,
            "216": -0.00023110007934383416,
            "217": -0.0000010810915171568554,
            "218": 0.00004081562828156593,
            "219": 0.0000839050758808954,
            "220": -0.0000349317122903269,
            "221": -0.00009058111994605491,
            "222": 0.000014195575134592675,
            "223": -0.000034632028884629175,
            "224": -0.000038907598432056254,
            "225": -0.00010385207532025608,
            "226": -0.0000748385828362644,
            "227": -0.000018802238934999126,
            "228": 0.00001656403948915634,
            "229": -0.00003533217618860197,
            "230": 0.00009844162531170286,
            "231": 0.00023239295012986323,
            "232": -0.000035430548200713256,
            "233": 0.00011101645038622458,
            "234": -0.00006265985299806777,
            "235": 0.00008844610945448531,
            "236": -0.00011168943191343115,
            "237": -0.00012695679321543781,
            "238": 0.00019193967647390526,
            "239": -0.00006360464588500096,
            "240": -0.00012971009373049383,
            "241": 0.00005728569453675409,
            "242": -0.0000658770586453674,
            "243": -0.000035587285372441596,
            "244": -0.00008186193191766319,
            "245": -0.00010251942092652921,
            "246": 0.000005544296927760901,
            "247": 0.0000250018491742271,
            "248": 0.00008860393496567516,
            "249": 0.00003640026327219599,
            "250": -0.00011209221329317297,
            "251": -0.00015061285536127245,
            "252": 0.00002844895341084891,
            "253": 0.0000084949029850664,
            "254": -0.00011751652332881533,
            "255": 0.000011111983478303877,
            "256": 0.00008422691767960333,
            "257": -0.00010224483441187756,
            "258": 0.00017526394510348597,
            "259": 0.00007495158278935994,
            "260": 0.00003379506407477593,
            "261": -0.00012934224792138097,
            "262": -0.0001256877471840366,
            "263": 0.00007449882357696214,
            "264": -0.00016996257920503193,
            "265": 0.00018845737740882677,
            "266": -0.00004313593294015311,
            "267": 0.000037167963717055836,
            "268": -0.00006455625243070139,
            "269": -0.000019971020436199895,
            "270": -0.000051506479353515667,
            "271": 0.000022221560034216636,
            "272": -0.00014403848315468204,
            "273": 0.0001622206158065341,
            "274": 0.000040517526051838075,
            "275": -0.00006683148208298459,
            "276": -0.000033606728380863555,
            "277": 0.00003692667029572191,
            "278": -0.000018404941930272308,
            "279": 0.0001426525565452577,
            "280": 0.00004724152858826334,
            "281": 0.000002002325840651471,
            "282": -0.00004347739027366422,
            "283": 0.00004891584438101633,
            "284": 0.00001916944508203598,
            "285": -0.00007347645220597083,
            "286": -0.00007171041598690125,
            "287": 0.00003888782824973716,
            "288": 0.0001686523157458339,
            "289": 0.00009493546046579308,
            "290": 0.000009759967968880567,
            "291": 0.000007542557339261156,
            "292": 0.00010866170362722704,
            "293": 0.00012947529872142478,
            "294": -0.00007273179967147705,
            "295": 0.0000018489856304801198,
            "296": -0.0000903277592938743,
            "297": -0.00000208693494314855,
            "298": -0.000021691841382856365,
            "299": 0.00011027811419397169,
            "300": -0.000026207951252735996,
            "301": 0.000003733083397238255,
            "302": 0.00001231232096247588,
            "303": -0.00024221312791891333,
            "304": 0.00002175113261392647,
            "305": -0.00004409134450728473,
            "306": -0.00003167421633916098,
            "307": -0.000060679164659878464,
            "308": 0.000042722471133306096,
            "309": -0.00011984643148384108,
            "310": 0.000027021756843620762,
            "311": 0.0001829296304434849,
            "312": -0.00003731743654903751,
            "313": -0.0001763170037506375,
            "314": -0.00004414092042154327,
            "315": 0.00008195684381005612,
            "316": 0.00019520661735243045,
            "317": 0.000049881972836954934,
            "318": 0.00003565133962458747,
            "319": -0.00007868875121858722,
            "320": 0.00004822545965417021,
            "321": 0.0000474330648694905,
            "322": 0.00020750414715937248,
            "323": 0.00016646717815615287,
            "324": -0.00001594833988206466,
            "325": -0.00007566982833438087,
            "326": 0.00004017248192906307,
            "327": -0.00013686960521295827,
            "328": -0.00010588506686732402,
            "329": 0.00019002381577832864,
            "330": -0.00013061744626880956,
            "331": 0.00017412261450755603,
            "332": 0.00007011577337205711,
            "333": -0.0000620605213132492,
            "334": 0.00010964643687390537,
            "335": 0.00018111731764676683,
            "336": -0.00004800494542759983,
            "337": 0.000024020234916439468,
            "338": 0.00004904888614411866,
            "339": 0.00008973717266771919,
            "340": 0.000014637148556192007,
            "341": 0.00020455125384914795,
            "342": -0.00016610327800346413,
            "343": 0.000041163590452143144,
            "344": -0.00002739214799270393,
            "345": 0.0001624768119920904,
            "346": 0.00015557052787342127,
            "347": -0.00008962444285694868,
            "348": -0.0000914679397094741,
            "349": 0.00005253618558465014,
            "350": -0.00007927323636732957,
            "351": -0.000010194314436560923,
            "352": -0.0000958744661311373,
            "353": -0.00001733518132615091,
            "354": -0.000049586524661393963,
            "355": 0.0001236968804310248,
            "356": -0.00010703597068449767,
            "357": 0.00008026479420958013,
            "358": 0.000018784328383999824,
            "359": 0.00009571373655620993,
            "360": 0.00015673288051151445,
            "361": 0.00010349056538744617,
            "362": -0.00017636271973564034,
            "363": 0.00009095765040514005,
            "364": -0.00011100414501782358,
            "365": -0.000014267014233808697,
            "366": -0.00008788058967359364,
            "367": 0.000013337577280222529,
            "368": 0.00016759454581686718,
            "369": -0.00012752587163011975,
            "370": 0.00004893638985372598,
            "371": 0.0001064986426467605,
            "372": 0.00006266823546024572,
            "373": 0.00004810319666702485,
            "374": -0.00002910795930970587,
            "375": -0.00015225377037076597,
            "376": -0.00002034497071948835,
            "377": -0.0001778312799449898,
            "378": 0.00018283002267716243,
            "379": -0.0001665742542542087,
            "380": 0.00020040937076608653,
            "381": 0.00009940102845410044,
            "382": 0.00006837791506454193,
            "383": 0.00007741513387743609,
            "384": -0.00006647583626385386,
            "385": -0.00014401081654403472,
            "386": -0.00012397478544505386,
            "387": 0.00009986137589322884,
            "388": -0.00012635136690188387,
            "389": 0.00013298743209040923,
            "390": 0.00008660611563162875,
            "391": 0.0002483178359202189,
            "392": -0.00008750620147466174,
            "393": 0.000041425330503063486,
            "394": 0.00010495625079386825,
            "395": -0.00006184087107618372,
            "396": -0.00004569307844912875,
            "397": -0.000018439330896898797,
            "398": -0.0001926688464046449,
            "399": 0.000050286885638860554,
            "400": 0.00003292404308124772,
            "401": 0.0002054909432373547,
            "402": 0.0001248197919958942,
            "403": 2.4026494770350153e-7,
            "404": 0.00006436290899650135,
            "405": -0.0000487973261236758,
            "406": 0.0001304815149529326,
            "407": 0.00018366913481389176,
            "408": -0.00003054041703336177,
            "409": 0.0001240333255356773,
            "410": -0.000031547590118658774,
            "411": -0.0001848249322905353,
            "412": -0.0001433202104088232,
            "413": 0.000035484247652045045,
            "414": -0.00012108342790669447,
            "415": -0.00010805833498491031,
            "416": 0.000005108270166522204,
            "417": 0.0001773201047187965,
            "418": -0.0001533248227137006,
            "419": -0.000106335765797907,
            "420": 0.0000345577614201095,
            "421": -0.000028266911787486804,
            "422": 0.00003694217392129453,
            "423": 0.00005508810150145946,
            "424": 0.0001136665287082415,
            "425": 0.0000854330679225474,
            "426": -0.000051917419519276534,
            "427": -0.00004016999316994175,
            "428": 0.0000182894033453463,
            "429": -0.0002702956349370856,
            "430": -4.0274063558419835e-7,
            "431": 0.000009238246311731565,
            "432": 0.0001793454464183452,
            "433": 0.00009405031782307796,
            "434": 0.00016396177111707342,
            "435": -0.00015257673811896913,
            "436": -0.00011811029467020643,
            "437": -0.00001353316251714822,
            "438": -0.000020251648703083363,
            "439": 0.00005929275563505114,
            "440": 0.00008727484396597117,
            "441": 0.000014626394228878402,
            "442": -0.000041211819035745816,
            "443": -0.0000292351698315479,
            "444": -0.00004575880219399943,
            "445": 0.00007110240976260953,
            "446": 0.00005272976196152217,
            "447": 0.00010054472524134631,
            "448": 0.00011650309797405119,
            "449": -0.00009697253610772635,
            "450": 0.00014028593014007792,
            "451": 0.0000839065245238502,
            "452": 0.000050513961931922546,
            "453": 0.00012909785910405176,
            "454": -0.00013034760313892553,
            "455": 0.00012506745471790702,
            "456": 0.000015745001619093727,
            "457": -0.0001105230486818769,
            "458": -0.00005197374184232841,
            "459": -0.00012356268412210388,
            "460": 0.000015026717798591878,
            "461": -0.00006437723379871083,
            "462": -0.00003767372246794069,
            "463": -0.00009752905649773572,
            "464": -0.00012691035604239957,
            "465": 0.0002430555291124358,
            "466": 0.0001819940356479616,
            "467": -0.00004562586394693735,
            "468": 0.000011267584035544653,
            "469": -0.00021470993998479732,
            "470": -0.00005134457244918483,
            "471": -0.00011937092419016571,
            "472": 0.00006491468153646665,
            "473": -0.00007055542974713269,
            "474": -0.00009998299127021239,
            "475": 0.00006772536630709838,
            "476": 0.00005298287890479118,
            "477": 0.0001078993484720327,
            "478": -0.00019683760305201718,
            "479": -0.00017664706106360794,
            "480": 0.00008268992201418473,
            "481": 0.00013890133156813455,
            "482": 0.000048992683164406774,
            "483": 0.000019333658329522413,
            "484": -0.000005213478788418193,
            "485": 0.00002477587291562152,
            "486": -0.00012317253271715108,
            "487": 0.00001155820389153161,
            "488": 0.0001401282186212628,
            "489": -0.00011626963830777108,
            "490": -0.000011234649768674847,
            "491": -0.00007261382301964509,
            "492": -0.00021165016362490586,
            "493": -0.00007077535948801195,
            "494": 0.000026025490094656487,
            "495": 0.000032074329693687395,
            "496": -0.00014912563815577587,
            "497": 0.00007428981393917937,
            "498": 0.00004157606600984501,
            "499": -0.00013954054260979868,
            "500": -0.00013206164116361297,
            "501": 0.00010704104934231336,
            "502": 0.00007650260875560588,
            "503": -0.00003141565924057372,
            "504": -0.00015828521807462792,
            "505": 0.00003580623982356861,
            "506": 0.00022932461501077282,
            "507": -0.000009503830395371752,
            "508": 0.00010417348270449788,
            "509": -0.00011052626343923406,
            "510": -0.00005110259919265993,
            "511": 0.00012440847143217575,
            "512": -0.0001283909629915864,
            "513": 0.00010836523230385241,
            "514": 0.000172940368836885,
            "515": -0.0000911705341885062,
            "516": -0.00003518325794723744,
            "517": -0.00017312411502995448,
            "518": -0.000154052741434134,
            "519": 0.00007567755266736469,
            "520": 0.00006717068692744289,
            "521": -0.0001323359953746018,
            "522": 0.00012726997176771727,
            "523": -0.00013039655546553638,
            "524": -0.00011558072443085725,
            "525": -0.00024203222686175927,
            "526": 0.00018575479434889373,
            "527": 0.0000798927927661625,
            "528": -0.00008472298493834438,
            "529": -0.000015484432123282123,
            "530": -0.000003774845163961692,
            "531": 0.00011674351802084282,
            "532": -0.00007185115517224775,
            "533": -0.000037956500854894126,
            "534": 0.00011825583545727641,
            "535": -0.0000030560189756659538,
            "536": -0.00002119277083458379,
            "537": 0.00013720565340394683,
            "538": 0.00009468557291747639,
            "539": -0.00003693485547242736,
            "540": -0.000010591573101760488,
            "541": -0.00008184385598473043,
            "542": 0.0000883496961990686,
            "543": 0.000024016766071823587,
            "544": -0.00001919677990625845,
            "545": 0.00012162755022753861,
            "546": -0.00016997895310546049,
            "547": -0.00007303013889322641,
            "548": 0.00004243748421521752,
            "549": 0.00011078578415044383,
            "550": 0.0000768216145403082,
            "551": -0.00001645156530949466,
            "552": -0.00008601984369060257,
            "553": 0.00017640470443427205,
            "554": 0.00003922406159098916,
            "555": 0.0000766918194350054,
            "556": -0.00007738079213701583,
            "557": -0.00005663824976015517,
            "558": -0.00005893468592871732,
            "559": -0.00012088726131304025,
            "560": -0.000017631566729754533,
            "561": 0.00007211163409757177,
            "562": 0.00012519627520507517,
            "563": -0.000051967202470152574,
            "564": -0.00010754533464347057,
            "565": -0.00014111540984644336,
            "566": 0.00010505914530654112,
            "567": 0.00011891015731278465,
            "568": -0.0001703368108496347,
            "569": 0.0001703311022153052,
            "570": 0.00011635019846436466,
            "571": 0.0001176030775331776,
            "572": -0.00005077125079538947,
            "573": -0.000040740774853311715,
            "574": -0.00009426600037790595,
            "575": -0.00006208624363842647,
            "576": -0.0001466906774159855,
            "577": 0.00006570782973724373,
            "578": 0.00008797242695587681,
            "579": 0.000056491576277756314,
            "580": -0.000022199037192176363,
            "581": -0.00006278908756409794,
            "582": 0.000029878329214688264,
            "583": 0.00007015282637453751,
            "584": -0.000056092653401058775,
            "585": 0.000035316046986251524,
            "586": -0.00013090396138233635,
            "587": 0.000104576787031598,
            "588": 0.00006253760933412094,
            "589": -0.00009536912441721464,
            "590": -0.00013315810988407658,
            "591": 0.0000792394959101152,
            "592": 0.000007850235214991686,
            "593": -0.00009296065437802746,
            "594": 0.000035743366568878895,
            "595": -0.000017245086411924747,
            "596": 0.00016025082143941109,
            "597": 0.000046453430027596476,
            "598": -0.00009593814609819107,
            "599": 0.000012077286922735728,
            "600": -0.000125995269765701,
            "601": 0.000051092886930644317,
            "602": -0.00008315402085110297,
            "603": -0.00008740992426307537,
            "604": -0.00028304696128883105,
            "605": -0.00007922017284708439,
            "606": -0.00014575726817851102,
            "607": 0.00014130392007939932,
            "608": -0.00011558094876714939,
            "609": -0.000056383174912074176,
            "610": 0.00016358292564229795,
            "611": -0.00020583781459741874,
            "612": -0.00013059275259664889,
            "613": 0.00010733485251160375,
            "614": -0.000008584771702602165,
            "615": -0.000023969973602662487,
            "616": 0.0000482388718552138,
            "617": -0.000025029610227162594,
            "618": 0.0002852097329847776,
            "619": -0.00009779917911689596,
            "620": -0.00002266076874797825,
            "621": -0.0002361989703356536,
            "622": 0.00011465575998556994,
            "623": -0.000088248708421252,
            "624": -0.00013508946630310138,
            "625": -0.000005821867283672694,
            "626": 2.6926625977273223e-7,
            "627": 0.000018456843785282484,
            "628": 0.00003254816647650848,
            "629": 0.00021654807689264714,
            "630": -0.000020849511522349905,
            "631": 0.00012687393414417036,
            "632": 0.000049052778110087157,
            "633": 0.00011647164750607208,
            "634": 0.00010845984176446431,
            "635": 0.0000011661231758001345,
            "636": 0.0000972596681970789,
            "637": 0.000028267004220341797,
            "638": 0.00008909411350950613,
            "639": 0.00012214828757012668,
            "640": 0.000009334042369204334,
            "641": 0.0000790925640300362,
            "642": 0.000026780225488226565,
            "643": 0.00007992461446653176,
            "644": 0.00018204232524324332,
            "645": 0.00001538347947003418,
            "646": 0.00006786630232947746,
            "647": -0.00011009381839987564,
            "648": 0.0002312020686463524,
            "649": 0.000013010463692506305,
            "650": 0.00003392525369094228,
            "651": -0.00012822173777040218,
            "652": 0.00016155677517833505,
            "653": 0.000011232983113314544,
            "654": -0.00007045183275195456,
            "655": 0.00007008842151797035,
            "656": 0.00004860685252512328,
            "657": 0.00005774896927202596,
            "658": -0.00008836537765710906,
            "659": -0.0001866794747910473,
            "660": 0.0000780907710436624,
            "661": 0.000026832387037242963,
            "662": -0.00006410276298791981,
            "663": -0.00008058600755518856,
            "664": -0.00016859949720669668,
            "665": -0.000038146894137153854,
            "666": -0.00017054046391357761,
            "667": 0.00003609779004245813,
            "668": -0.00008458966231665815,
            "669": -0.00006791552750328426,
            "670": -0.0000027104850793759157,
            "671": -0.0000092461231578624,
            "672": 0.00011006896368001756,
            "673": -0.00009668467378234249,
            "674": 0.00011966956270762436,
            "675": -0.00009314679617948891,
            "676": 0.00027318488873708446,
            "677": -0.00015447443626952787,
            "678": -0.00006440018435563463,
            "679": -0.000018885663589058018,
            "680": 0.0000691886134127821,
            "681": 0.000028226485348414145,
            "682": 0.00009387299581964263,
            "683": 0.00010713638474242592,
            "684": -0.00006296447908542217,
            "685": -0.00013893481449808235,
            "686": -0.00008131369543737414,
            "687": -0.00006765582288602317,
            "688": 0.00008266370404507652,
            "689": -0.00005732851148261976,
            "690": 0.00004441169938175511,
            "691": -0.00011891930755814413,
            "692": 0.00010088016836312953,
            "693": -0.000034135830884317,
            "694": -0.000007597301170707007,
            "695": 0.00012503195843579736,
            "696": -0.00002517284232515916,
            "697": -0.00005984459263371193,
            "698": -0.0000044361441878224885,
            "699": -0.000059967487768745794,
            "700": -0.00016006813302385167,
            "701": -0.00002620522578683517,
            "702": -0.00005839646614410857,
            "703": -0.0000032982051518964656,
            "704": 0.0000388067655738329,
            "705": 0.00018669269933295759,
            "706": -0.0001586455599099346,
            "707": -0.00007266758104682505,
            "708": -0.0001606503516333085,
            "709": -0.000019381992821023296,
            "710": 0.000018107896648919414,
            "711": 0.0001160947713877983,
            "712": -0.00012578675673377367,
            "713": 0.000037077311294890924,
            "714": -0.00002075526971299076,
            "715": -0.00001826387637542663,
            "716": 0.00004977769389079735,
            "717": -0.00002784020084952058,
            "718": 0.00014874882781481033,
            "719": -0.00008418476312823186,
            "720": 0.000023773597075010945,
            "721": 0.000020447105270562323,
            "722": 0.0002405206357755204,
            "723": 0.00004078417461077209,
            "724": 0.00012789059709768886,
            "725": 0.000009015422433386126,
            "726": -0.000004535104832007169,
            "727": 0.0001563317948701114,
            "728": 0.00007596401821683354,
            "729": 0.000043358860253113096,
            "730": -0.00012650368575237993,
            "731": 0.000016650931579752722,
            "732": -0.00016944557964973677,
            "733": 0.00007548646515800202,
            "734": 0.00017776831602713664,
            "735": -0.000011140245206032386,
            "736": 0.00004340795533362845,
            "737": -0.00003170979171135572,
            "738": 0.0001238027310107124,
            "739": 0.000002660381005737637,
            "740": -0.00005742364798269459,
            "741": 0.000010179823527209046,
            "742": -0.00007408939342069697,
            "743": -0.00011305846113134988,
            "744": 0.00011080111964940216,
            "745": 0.00006348454492395331,
            "746": 0.00014642876594312928,
            "747": -0.00007296567240583081,
            "748": 0.000188074847290871,
            "749": 0.00006921318367823804,
            "750": 0.00006499048977863844,
            "751": 0.0000022432009729838085,
            "752": -0.00007235229043251299,
            "753": -0.00016582548421372872,
            "754": 0.00006500902456250939,
            "755": 0.00005159447082783209,
            "756": -0.00012545469792588337,
            "757": 0.00003623356324150764,
            "758": -0.00017130590458659206,
            "759": 0.000008879449042654849,
            "760": -0.000015299358456072815,
            "761": 0.00007055811879598557,
            "762": -0.00003475255080040514,
            "763": -0.00009518523969960392,
            "764": 0.00004494329988614979,
            "765": -0.00002167118289112675,
            "766": 0.00012204355537464253,
            "767": -0.000013407451774220116,
            "768": 0.00009559401894942469,
            "769": 0.00008888074428590047,
            "770": 0.00005487078263250554,
            "771": 0.0000946417032740057,
            "772": -0.00004802339696550602,
            "773": -0.00023110734871215364,
            "774": -0.00014482976182141264,
            "775": -0.00010359584409814784,
            "776": 0.000013536731891179187,
            "777": 0.00008044646194851856,
            "778": -0.00006877784235918862,
            "779": -0.00006430971298375504,
            "780": 0.000008171923924775549,
            "781": 0.000006437816731630332,
            "782": -0.00007705834162064184,
            "783": 0.000010992793317027,
            "784": -0.00010958600402191575,
            "785": -0.000026512199391436626,
            "786": -0.00009207435465901305,
            "787": -0.0000718710786003661,
            "788": -0.000011661903047561085,
            "789": 0.00003330979772577235,
            "790": -0.00006423830686612922,
            "791": -0.000009488815216420686,
            "792": 0.00010789810604036147,
            "793": -0.0000920768743342218,
            "794": -0.00014409922166510168,
            "795": 0.00004382094673798128,
            "796": -0.00011702301665607017,
            "797": 0.00003646949316436938,
            "798": -0.00013420205882806003,
            "799": 0.00011330764983400027
          }
        },
        {
          "sx": 1,
          "sy": 1,
          "depth": 800,
          "w": {
            "0": 0.8545782798520255,
            "1": 0.8547024560888205,
            "2": 0.8545993686261087,
            "3": 0.8544588843219161,
            "4": 0.8546121590105781,
            "5": 0.854572227539486,
            "6": 0.8544651463524716,
            "7": 0.8544343270769782,
            "8": -0.00008626335532886319,
            "9": 0.00006473308902260475,
            "10": 0.00011248434749714968,
            "11": 0.0001202520778684792,
            "12": 0.00009538895017774047,
            "13": 0.00010634712650997752,
            "14": 0.00012264717828842263,
            "15": -0.00009259345915569823,
            "16": -0.0000369872001312697,
            "17": 9.042401361761803e-7,
            "18": -0.00006009348583422715,
            "19": -0.0000032636007286796843,
            "20": -0.0001796511557404699,
            "21": 0.00005144890337701271,
            "22": 0.00008991102036476115,
            "23": 0.00015697465555751912,
            "24": 0.00017958935794279814,
            "25": -0.00033086277874241465,
            "26": 0.00007879388164813002,
            "27": -0.0002169104647365487,
            "28": 0.000045495403043057774,
            "29": 0.00004231794195412483,
            "30": -0.00002110985243637431,
            "31": 0.000020871438105148744,
            "32": -0.00006691242667153853,
            "33": -0.00010117948912158286,
            "34": 0.0000670990042985967,
            "35": -0.00007485875251981424,
            "36": -0.00003293255942960852,
            "37": -0.00009083403412587082,
            "38": 0.00004590574951108379,
            "39": -0.00003418212701559255,
            "40": 0.00023916881820150408,
            "41": -0.00015412763649765368,
            "42": 0.00003342364333824043,
            "43": 0.0001618595794664739,
            "44": -0.0001723121940861568,
            "45": -0.00010908646522278324,
            "46": -0.0000303535746508288,
            "47": -0.000021480412035850122,
            "48": 0.0001094880714827038,
            "49": -0.0000039891529607772615,
            "50": -0.00011962265303817592,
            "51": -0.00006497033402276718,
            "52": 0.00008198969082962474,
            "53": 0.00008896278222981485,
            "54": -0.00005987597236666066,
            "55": -0.000016030145177959732,
            "56": -0.00009976974687304552,
            "57": -0.00003970670561582001,
            "58": -0.000030329802013051647,
            "59": -0.00000897709837769219,
            "60": -0.000026677753919878535,
            "61": -0.000043230700976886865,
            "62": 0.00004972880357071246,
            "63": 0.000025725302419982972,
            "64": 0.000038358027636597066,
            "65": 0.00013583687380320616,
            "66": -0.00015616724142647966,
            "67": 0.00008617966710935501,
            "68": -0.000036166732365464205,
            "69": 0.000057387041905092085,
            "70": 0.00013810905749859728,
            "71": -0.00010780992456676168,
            "72": 0.00006545699659473776,
            "73": -0.00000658195269385298,
            "74": 0.00017549350522117466,
            "75": 0.0001016345874110371,
            "76": -0.00017431866382044224,
            "77": 0.00007606716708738714,
            "78": -0.00009302643851569935,
            "79": 0.000055320660763885385,
            "80": 0.00007652686941369657,
            "81": -0.0000027583417490092242,
            "82": -0.00008399512097458091,
            "83": 0.00007994955414324785,
            "84": -0.00010804507788283935,
            "85": 0.00006983599944599776,
            "86": -0.00003498994312079164,
            "87": 0.0000035859851101925984,
            "88": 0.000045050131392699134,
            "89": 0.00008062537035784696,
            "90": -0.00003608063549321877,
            "91": -0.00015445974243923465,
            "92": -0.00016058979051835438,
            "93": -0.00003340836956300879,
            "94": -0.00004678303906534737,
            "95": 0.000010687569410865384,
            "96": 0.000022282968029242416,
            "97": -0.000025510751045728052,
            "98": 0.000036104972858635656,
            "99": -0.0000781072275881606,
            "100": 0.00005828037980666995,
            "101": 0.00006634007105606997,
            "102": -0.000275898578593522,
            "103": 0.0002271665576439845,
            "104": -0.00006728245398225069,
            "105": 0.000026072842036583174,
            "106": -0.00006241988785226625,
            "107": -0.000024182886437216666,
            "108": 0.000050592698699151446,
            "109": 0.00002847821522593251,
            "110": 0.00023723451792150902,
            "111": -0.00008547603561635595,
            "112": 0.000199454928892176,
            "113": 0.00011044685560582128,
            "114": 0.00003621163137578473,
            "115": -0.000004869466978398837,
            "116": -0.0001399380977183815,
            "117": 3.895878518853376e-7,
            "118": -0.00003086362445809146,
            "119": -0.00005666768892049876,
            "120": -0.00011365169973753156,
            "121": 0.00007467107042203638,
            "122": 0.00008824974420805856,
            "123": -0.00014312749160829956,
            "124": -0.0001368338355258595,
            "125": 0.0001206672831695338,
            "126": 0.00010410408585229004,
            "127": 0.0000343073802239672,
            "128": 0.000008105150038873635,
            "129": -0.00010565327106609268,
            "130": 0.0000199492804974218,
            "131": -0.00006633998350363811,
            "132": -0.00003403580544775884,
            "133": 0.0001582202940309321,
            "134": -0.0001873828664728498,
            "135": -0.000017516690554674664,
            "136": 0.000033105068123207,
            "137": 0.00010659167836580387,
            "138": -0.00006857567560185793,
            "139": 0.0001057739709132936,
            "140": 0.00006055403793959953,
            "141": 0.0000614804504553544,
            "142": -0.000004321277131784005,
            "143": -0.00006690852014910776,
            "144": 0.00014927197781193976,
            "145": -0.00003985824063631634,
            "146": -0.0002025722114946218,
            "147": 0.00003116030512261484,
            "148": 0.000003901463285738663,
            "149": -0.000004082393423695504,
            "150": 0.00008372024566744352,
            "151": -0.00008070560863334443,
            "152": 0.00009367755137163156,
            "153": 0.00021588195685258253,
            "154": 0.000007878226735616506,
            "155": 0.00008526235791627902,
            "156": -0.00016272599024217248,
            "157": 0.00009929273983936087,
            "158": -0.00004213970453678617,
            "159": -0.00008135302431440505,
            "160": -0.00014706660981885988,
            "161": -0.000019756654616409343,
            "162": -0.0001290020719812904,
            "163": 0.00018522038090346173,
            "164": 0.0001392376933281868,
            "165": 0.00012227056048952093,
            "166": -0.00010938203900940752,
            "167": -0.000029746733185908443,
            "168": -0.00017716792925932893,
            "169": 0.00011814458921864009,
            "170": 0.00009046997851212055,
            "171": 0.00013180584839459625,
            "172": 0.00014438231077767784,
            "173": -0.0000588598880756302,
            "174": 0.00018002134455697623,
            "175": 0.000008035870649985323,
            "176": -0.000023730154415366332,
            "177": -0.0001217776414460778,
            "178": -0.00004176750049996507,
            "179": 0.00014190087094419007,
            "180": 0.00007200598360781567,
            "181": 0.00001327799384107337,
            "182": 0.00023148755078454178,
            "183": -0.00016264022942870143,
            "184": 0.0000733010830044614,
            "185": 0.00012959475619660525,
            "186": -0.00009400946196574037,
            "187": 0.000049018144199759694,
            "188": 0.0001275583920849884,
            "189": -0.00008664626770620909,
            "190": -0.00004423702096265157,
            "191": 0.000008803118705553132,
            "192": -0.00014515679341928816,
            "193": -0.00015516270974879235,
            "194": -0.000020664617917721016,
            "195": 0.00012289184014212498,
            "196": 0.00010835733075995874,
            "197": -0.00007915404091145392,
            "198": -0.00014058303675421646,
            "199": 0.000021522690979390955,
            "200": 0.00009642261066117246,
            "201": 0.00001343050107284875,
            "202": -0.00008025654875544531,
            "203": 0.0001697631714617792,
            "204": -0.000028464038057099478,
            "205": -0.00008214811656780947,
            "206": 0.000014304982438923329,
            "207": -0.00009899027506345733,
            "208": -0.00003185459521133196,
            "209": 0.00008028623806798909,
            "210": 0.00006823100048643152,
            "211": -0.000054722319195371634,
            "212": -0.00005901146316563056,
            "213": -0.00025894431589241687,
            "214": 0.000020736069935411265,
            "215": 0.00011642683274646792,
            "216": 0.000024466278650867523,
            "217": 0.00009068299505414212,
            "218": -0.0002029682941132561,
            "219": -0.0000384071021893201,
            "220": 0.000008795919257925947,
            "221": -0.000026134094811594462,
            "222": -0.000006321130258516952,
            "223": -0.00000769596626150698,
            "224": -0.00008981073014975206,
            "225": -0.00018320714083973607,
            "226": -0.00010889471129045743,
            "227": 0.0001588514448852309,
            "228": 0.0002502944405550826,
            "229": 0.00016590210203035188,
            "230": -0.00003828042232333532,
            "231": -0.000010206467984907362,
            "232": -0.000119293550615814,
            "233": -0.000049953914064879276,
            "234": 0.000029756776271223914,
            "235": 0.000025348340233813645,
            "236": 0.00014461285345686854,
            "237": -0.00005855000479409511,
            "238": -0.00018855656655535335,
            "239": 0.00004769135492748922,
            "240": -0.00007088289961050977,
            "241": -0.00005614192331049439,
            "242": 0.00002749850892657107,
            "243": -0.000059067408923542674,
            "244": 0.000030170604918266158,
            "245": -0.00009216316007781154,
            "246": 0.0001266007109031514,
            "247": 0.000037698808755244026,
            "248": 0.00016347580190349473,
            "249": 0.000021149019648269486,
            "250": -0.000039336006741468824,
            "251": -0.00010721682766914805,
            "252": -0.00009715190048030318,
            "253": 0.0000996759574974694,
            "254": -0.00021043906382560052,
            "255": -0.00009628870095130287,
            "256": 0.00011885166770082465,
            "257": -0.00006867948491651346,
            "258": 0.00011084120107878102,
            "259": 0.00007688957928146069,
            "260": 0.00007902048110688442,
            "261": 0.00015197524631033532,
            "262": -0.000022123209069151197,
            "263": 0.00013259658806170463,
            "264": 0.00003324463260517854,
            "265": -0.00011619224850329069,
            "266": -0.00013298371480323837,
            "267": -0.00024245993789307062,
            "268": 0.00005739611685058167,
            "269": -0.00005091119439470823,
            "270": 0.00014956462993297737,
            "271": 0.0001420283014258595,
            "272": 0.00003763449019585664,
            "273": -0.000015084403770055361,
            "274": 0.00008002348054808057,
            "275": -0.000135833119058192,
            "276": 0.00015551864180139341,
            "277": 0.0002362644529430281,
            "278": 0.00007148398514057683,
            "279": -0.00015397133827467114,
            "280": 0.00007589154531348958,
            "281": -0.000037565472079184985,
            "282": 0.00002361032009548898,
            "283": 0.0000368905330203746,
            "284": 0.00002448514461664646,
            "285": -0.00019583496678215578,
            "286": 0.00018636701222830653,
            "287": -0.00006378073399066828,
            "288": -0.00007589145142438548,
            "289": -0.00023604055817374285,
            "290": 0.00010840838668400735,
            "291": 0.00001620102005495164,
            "292": 0.00015760321403332652,
            "293": 0.0001420201681155251,
            "294": -0.0000040454172532390726,
            "295": -0.00008263365613911482,
            "296": 0.00009160378587902417,
            "297": 0.00012211460782604453,
            "298": -0.000005605167436620865,
            "299": 0.00008351274250108985,
            "300": 0.00007746913496861388,
            "301": -0.000028833078972597813,
            "302": 0.0000758195030864525,
            "303": 0.00003283140315061112,
            "304": 0.0001900916532745095,
            "305": 0.0000320637578169363,
            "306": 0.00011999452734792458,
            "307": -0.000023256074776294954,
            "308": -0.000013618097987283922,
            "309": 0.00014579960924370922,
            "310": 0.000018804703464798906,
            "311": 0.00007986854760891605,
            "312": -0.00010541741245805882,
            "313": 0.0002389660276388838,
            "314": -0.00007957764808897432,
            "315": 0.0000053303429343298,
            "316": -0.00012482268814516907,
            "317": 0.000019392970248354936,
            "318": -0.00001382552063657491,
            "319": 0.00005862728752004937,
            "320": 0.00011526083514545254,
            "321": -0.000044433840578728015,
            "322": -0.00002218641409613054,
            "323": -0.00010663527944536699,
            "324": -0.000010753396378159486,
            "325": 0.00012695753199386248,
            "326": 0.0001831100207171718,
            "327": -2.90911149691608e-7,
            "328": 0.00003284307761321207,
            "329": 0.00006707809394961534,
            "330": 0.00013641014145092677,
            "331": 0.00007023360872653335,
            "332": -0.00003156106081195861,
            "333": -0.00003853367993286981,
            "334": 0.00014688029481759086,
            "335": -0.0000023630478619890227,
            "336": 0.00013452754081877223,
            "337": 0.00002947489928752906,
            "338": -0.000044641067996606455,
            "339": -0.00002823982477503353,
            "340": -0.000034951585857681146,
            "341": -0.000022159192102444408,
            "342": -0.00004275841258172604,
            "343": 0.000013374125521394544,
            "344": -0.00009221383403925391,
            "345": 0.00007418580061876949,
            "346": 0.0001678937549338343,
            "347": -0.0000057962556672959915,
            "348": 0.000007843731488636721,
            "349": 0.00011747554926569262,
            "350": 0.000002334071249571365,
            "351": 0.000134040002212698,
            "352": -0.00010002367283164369,
            "353": -0.00008209042375309684,
            "354": 0.000042723396158005445,
            "355": -0.000026138181904934867,
            "356": 0.0000949280766907699,
            "357": 0.0000050174908413659885,
            "358": -0.00011450547129825685,
            "359": -0.000014119498508804352,
            "360": 0.00005111036495192364,
            "361": 0.00008723123398314863,
            "362": -0.00008314402035888868,
            "363": -0.00004496905931877416,
            "364": -0.00010181694780117534,
            "365": 0.00019015271391729813,
            "366": 0.00008273502816327293,
            "367": 0.00002434611628535985,
            "368": 0.00012133801953480125,
            "369": -0.00011586871307516797,
            "370": 0.00008057324739115613,
            "371": 0.00004512047716791945,
            "372": 0.000060303988976107796,
            "373": -0.000005175465944061089,
            "374": 0.00009923079626348336,
            "375": -0.000026547896782351973,
            "376": -0.00006761114450246883,
            "377": 0.00012906928733491752,
            "378": -0.00010698397181872584,
            "379": 0.000032098520597396846,
            "380": -0.00004317611999916946,
            "381": 0.000011903864083393647,
            "382": 0.000036754739342859234,
            "383": 0.00007478920940655916,
            "384": -0.00007452119750019124,
            "385": -0.00009512558883287484,
            "386": -0.000020453286639363956,
            "387": 0.000016459906293057128,
            "388": -0.000013392133045556192,
            "389": 0.00004224262984752867,
            "390": 0.00030285486044411236,
            "391": -0.0001307668874647812,
            "392": -0.000015336458259886364,
            "393": -0.00013071694431571787,
            "394": -0.00008742536460866391,
            "395": -0.000029326766469300548,
            "396": 0.00005005490118215814,
            "397": -0.00011825809097788143,
            "398": -0.000014862678753909966,
            "399": -0.000012552652409914256,
            "400": -0.0000026622548966438465,
            "401": -0.00013479509285212993,
            "402": 0.00018940470387441096,
            "403": 0.000044461965319510335,
            "404": -0.00006102644771817279,
            "405": 0.00002074021185292331,
            "406": 0.000055335116638084646,
            "407": 0.00009062113213289761,
            "408": -0.00026715007697857446,
            "409": 0.000023554978287722314,
            "410": -0.000060868489838921026,
            "411": -0.000173060026222365,
            "412": 0.000021942492570045594,
            "413": -0.00009297074142925518,
            "414": -0.0001679397438700973,
            "415": 0.00006466949807177013,
            "416": 0.00011128995480937439,
            "417": 0.00013659416306921986,
            "418": 0.0001013632259238251,
            "419": -0.00003747140235883238,
            "420": -0.00012073397412662162,
            "421": 0.000059477475490620707,
            "422": -0.00013471938272148398,
            "423": 0.00023517810673163279,
            "424": -0.00008467597148230374,
            "425": 0.000051772248193738394,
            "426": -0.000125527214614821,
            "427": -0.00016655764018076976,
            "428": -0.00014797170252708945,
            "429": 0.00019095211703099916,
            "430": -0.00007974740207427434,
            "431": -0.00004418562846310439,
            "432": -0.00006358218100225519,
            "433": 0.0001860737366292454,
            "434": 0.000041806079826116446,
            "435": -0.00010389264609188345,
            "436": 0.00016078579097099827,
            "437": -0.00018565713066958587,
            "438": -0.00006740968866265315,
            "439": 0.00003002313638387939,
            "440": -0.00003762251134263329,
            "441": -0.00002769328707015397,
            "442": -0.00001362400562298794,
            "443": -0.00006265535594177122,
            "444": 0.00003144269570135571,
            "445": 0.00014082940874990442,
            "446": -0.000020244987138532155,
            "447": 0.00004157736631158117,
            "448": 7.632352290921642e-7,
            "449": -0.00017381654043985325,
            "450": -0.00006611531018604382,
            "451": 0.00009727452215188501,
            "452": -0.000013349442927793965,
            "453": 0.00003668967278937093,
            "454": 0.000025495444652036517,
            "455": -0.00014896222502576328,
            "456": -0.000026415822859367633,
            "457": 0.00011904823795235882,
            "458": 0.0001079866014870073,
            "459": -0.000142020857565889,
            "460": -0.00015631475639584085,
            "461": -0.0001120534233833581,
            "462": 0.00021782482047308098,
            "463": -0.00012572562778558015,
            "464": 0.0001117612988681705,
            "465": -0.00008932320314101051,
            "466": 0.0001164290497063582,
            "467": -0.0000838451425227041,
            "468": -0.000008937510766572384,
            "469": -0.0001376997399125597,
            "470": -0.00009419898091278138,
            "471": -0.000014536437065185392,
            "472": 0.0001777611120982829,
            "473": -0.0001829600648470712,
            "474": -0.00010607853616799914,
            "475": -0.00003060409755487126,
            "476": 0.0000167738189669373,
            "477": 0.00005327829025900702,
            "478": 0.00017315192694733385,
            "479": 0.0001343139077924968,
            "480": -0.000138960747705697,
            "481": -0.00010316490049923288,
            "482": 0.00005260166439376496,
            "483": 0.000022566127967514427,
            "484": -0.000124722501348645,
            "485": 0.00015324266588262128,
