{
  "layers": [
    {
      "out_depth": 1,
      "out_sx": 20,
      "out_sy": 20,
      "layer_type": "input"
    },
    {
      "sx": 5,
      "sy": 5,
      "stride": 1,
      "in_depth": 1,
      "out_depth": 8,
      "out_sx": 20,
      "out_sy": 20,
      "layer_type": "conv",
      "l1_decay_mul": 0,
      "l2_decay_mul": 1,
      "pad": 2,
      "filters": [
        {
          "sx": 5,
          "sy": 5,
          "depth": 1,
          "w": {
            "0": null,
            "1": null,
            "2": null,
            "3": 0.15500086727428658,
            "4": 0.20524973735905244,
            "5": null,
            "6": null,
            "7": null,
            "8": -0.22055667986333538,
            "9": -0.06747222434112539,
            "10": null,
            "11": null,
            "12": null,
            "13": -0.06401963578161002,
            "14": 0.06451024590117228,
            "15": 0.1550578346112375,
            "16": 0.07671052347380995,
            "17": 0.1464608910296681,
            "18": -0.1503201006887543,
            "19": 0.01988188247960496,
            "20": -0.29434378603330835,
            "21": -0.04880884636444728,
            "22": 0.04260110138638381,
            "23": -0.3249049816641363,
            "24": -0.14797209941390535
          }
        },
        {
          "sx": 5,
          "sy": 5,
          "depth": 1,
          "w": {
            "0": null,
            "1": null,
            "2": null,
            "3": 0.41035718289212675,
            "4": -0.061467636896239,
            "5": null,
            "6": null,
            "7": null,
            "8": 0.0904742732603235,
            "9": -0.08696601738341757,
            "10": null,
            "11": null,
            "12": null,
            "13": 0.03400508691214138,
            "14": -0.47496894477856966,
            "15": -0.024116762661135313,
            "16": 0.16300658464991435,
            "17": 0.17105389150040576,
            "18": 0.02546563605629272,
            "19": -0.058620767379239457,
            "20": -0.07839743770623565,
            "21": -0.26801182271731205,
            "22": 0.25505699397991394,
            "23": -0.044598990077232815,
            "24": 0.04079501646140694
          }
        },
        {
          "sx": 5,
          "sy": 5,
          "depth": 1,
          "w": {
            "0": null,
            "1": null,
            "2": null,
            "3": -0.19306784819758907,
            "4": -0.09667880571868169,
            "5": null,
            "6": null,
            "7": null,
            "8": -0.0781466541870001,
            "9": -0.13600926997830437,
            "10": null,
            "11": null,
            "12": null,
            "13": 0.018285194491275514,
            "14": -0.14176322615094045,
            "15": -0.4130323935994401,
            "16": -0.052651488668325315,
            "17": 0.04663687733566445,
            "18": -0.0865135296526103,
            "19": 0.24881000991427563,
            "20": -0.06360873905824009,
            "21": 0.2074869083585919,
            "22": -0.11483320157698616,
            "23": 0.32115338607328625,
            "24": 0.033155022466553885
          }
        },
        {
          "sx": 5,
          "sy": 5,
          "depth": 1,
          "w": {
            "0": null,
            "1": null,
            "2": null,
            "3": 0.30515241518260383,
            "4": 0.595186214057257,
            "5": null,
            "6": null,
            "7": null,
            "8": -0.08749499184836067,
            "9": 0.4118097595111862,
            "10": null,
            "11": null,
            "12": null,
            "13": 0.17174177795324003,
            "14": -0.28466105822790055,
            "15": -0.23061313213080764,
            "16": -0.21098952221123307,
            "17": 0.03277322783959704,
            "18": 0.040489422518301565,
            "19": 0.10807440384775284,
            "20": 0.23820007974863774,
            "21": -0.11517078719281595,
            "22": 0.1264838794668682,
            "23": -0.0692288172033048,
            "24": -0.13313816254245425
          }
        },
        {
          "sx": 5,
          "sy": 5,
          "depth": 1,
          "w": {
            "0": null,
            "1": null,
            "2": null,
            "3": -0.06718184495381373,
            "4": -0.2686152685538396,
            "5": null,
            "6": null,
            "7": null,
            "8": -0.06327981164651682,
            "9": 0.19509196075015403,
            "10": null,
            "11": null,
            "12": null,
            "13": -0.01865054735804686,
            "14": -0.16617922278838668,
            "15": -0.15767025185475994,
            "16": 0.37956119564638396,
            "17": -0.10041611848663606,
            "18": 0.136087741053979,
            "19": 0.06988553400411454,
            "20": -0.3471412947841211,
            "21": -0.3178224115914081,
            "22": 0.06529273741828576,
            "23": 0.1604447332876585,
            "24": 0.12603922922779381
          }
        },
        {
          "sx": 5,
          "sy": 5,
          "depth": 1,
          "w": {
            "0": null,
            "1": null,
            "2": null,
            "3": 0.28512013407894826,
            "4": -0.14609956922828846,
            "5": null,
            "6": null,
            "7": null,
            "8": -0.1860285880307693,
            "9": -0.14401842044496455,
            "10": null,
            "11": null,
            "12": null,
            "13": -0.10686683502806994,
            "14": -0.10523235146978353,
            "15": 0.1888417182347316,
            "16": -0.13143142477553854,
            "17": 0.19607286877771182,
            "18": -0.31437302712428106,
            "19": -0.3426359634105049,
            "20": 0.13799427055188154,
            "21": 0.03514786626517708,
            "22": 0.12274071266075448,
            "23": 0.1654660031365482,
            "24": 0.3506981223021652
          }
        },
        {
          "sx": 5,
          "sy": 5,
          "depth": 1,
          "w": {
            "0": null,
            "1": null,
            "2": null,
            "3": 0.02419956617296225,
            "4": -0.09889849456182064,
            "5": null,
            "6": null,
            "7": null,
            "8": 0.005847047102684704,
            "9": 0.08331591544705574,
            "10": null,
            "11": null,
            "12": null,
            "13": -0.2861278172055172,
            "14": 0.13552827987379884,
            "15": 0.41692163197356613,
            "16": 0.2040376970840067,
            "17": -0.09799725648846888,
            "18": -0.04114142128750062,
            "19": 0.001445073066731468,
            "20": -0.04742626513750013,
            "21": 0.07761229227729591,
            "22": -0.10110878011963448,
            "23": 0.05019005231939213,
            "24": -0.10508194883994983
          }
        },
        {
          "sx": 5,
          "sy": 5,
          "depth": 1,
          "w": {
            "0": null,
            "1": null,
            "2": null,
            "3": 0.026898755972062687,
            "4": -0.07762592875935989,
            "5": null,
            "6": null,
            "7": null,
            "8": 0.23344789185426382,
            "9": -0.2064775263678027,
            "10": null,
            "11": null,
            "12": null,
            "13": -0.2561277895408591,
            "14": -0.014805258059014434,
            "15": -0.039242375810426965,
            "16": 0.08574891128195355,
            "17": 0.14167126200357266,
            "18": 0.16992666261517658,
            "19": 0.1322761529958126,
            "20": 0.13230199496092188,
            "21": 0.06748739253236981,
            "22": -0.2780429818869501,
            "23": -0.3667576994655195,
            "24": 0.16031592093160504
          }
        }
      ],
      "biases": {
        "sx": 1,
        "sy": 1,
        "depth": 8,
        "w": {
          "0": 0.10837807604899541,
          "1": 0.10309421310064092,
          "2": 0.08543823781696282,
          "3": 0.09914835696333855,
          "4": 0.10480697648984702,
          "5": 0.0997791938494443,
          "6": 0.09510080243289981,
          "7": 0.11864396644240098
        }
      }
    },
    {
      "out_depth": 8,
      "out_sx": 20,
      "out_sy": 20,
      "layer_type": "relu"
    },
    {
      "sx": 2,
      "sy": 2,
      "stride": 2,
      "in_depth": 8,
      "out_depth": 8,
      "out_sx": 10,
      "out_sy": 10,
      "layer_type": "pool",
      "pad": 0
    },
    {
      "out_depth": 30,
      "out_sx": 1,
      "out_sy": 1,
      "layer_type": "fc",
      "num_inputs": 800,
      "l1_decay_mul": 0,
      "l2_decay_mul": 1,
      "filters": [
        {
          "sx": 1,
          "sy": 1,
          "depth": 800,
          "w": {
            "0": 759.6686261357704,
            "1": 759.6302576144751,
            "2": 759.6289011298198,
            "3": 759.6408256443947,
            "4": 759.6543304621902,
            "5": 759.5901823797915,
            "6": 759.6943587291923,
            "7": 759.6210458808279,
            "8": 0.04475774170126526,
            "9": -0.03385832651679215,
            "10": 0.023538828858401792,
            "11": 0.005252974773059548,
            "12": 0.007942160647467358,
            "13": -0.022354972982781843,
            "14": -0.010778234060181307,
            "15": -0.04445697170735187,
            "16": 0.011625804430709569,
            "17": 0.0024686272853146254,
            "18": -0.017494322122402768,
            "19": 0.03537003255011986,
            "20": -0.036767598679995774,
            "21": -0.03612783324797205,
            "22": -0.03618111330493885,
            "23": -0.011613896512819173,
            "24": -0.0197988010852252,
            "25": -0.061274347316641234,
            "26": 0.027908919252928894,
            "27": -0.011192992185700655,
            "28": -0.04908388012117375,
            "29": -0.05666642869444467,
            "30": -0.03494576631927311,
            "31": -0.0046154668191058755,
            "32": -0.0034441542976792385,
            "33": 0.0009592339537678762,
            "34": 0.018752431857046815,
            "35": -0.017346481253997355,
            "36": -0.016322186754677653,
            "37": -0.006535014911122948,
            "38": 0.056322330994671134,
            "39": 0.01675188669640601,
            "40": -0.011527638371070946,
            "41": -0.011278262938346016,
            "42": 0.02333919519100736,
            "43": 0.02858769472363725,
            "44": -0.04664370668966866,
            "45": -0.050149798035651706,
            "46": -0.004745237123688846,
            "47": 0.0049277108522385775,
            "48": -0.005883607173310235,
            "49": 0.0044138616936601135,
            "50": -0.024736082529208378,
            "51": -0.007373041893708484,
            "52": -0.035809358265523034,
            "53": 0.04187031522182675,
            "54": 0.0028968817585703754,
            "55": -0.05197978872199472,
            "56": -0.027231261685226427,
            "57": -0.05530354317411876,
            "58": 0.004741264830806295,
            "59": -0.03772860512986843,
            "60": -0.013905317928370048,
            "61": 0.0043880655604509695,
            "62": 0.017285474861890915,
            "63": -0.04509189956178069,
            "64": 0.015151821110719894,
            "65": -0.005899062200438918,
            "66": 0.042403300341648735,
            "67": 0.02703130039300407,
            "68": 0.05713984268049283,
            "69": -0.010827236644120275,
            "70": -0.009101640992893999,
            "71": 0.012799022802928071,
            "72": 0.0013287781082900216,
            "73": -0.004921631390695392,
            "74": 0.049574729753348964,
            "75": 0.03350085076621858,
            "76": 0.0164552209839759,
            "77": -0.03927570640501697,
            "78": 0.01973011303222549,
            "79": -0.05489816509742883,
            "80": 0.030477225991814537,
            "81": -0.024705270585529533,
            "82": -0.0022832985002912897,
            "83": 0.021425239188643936,
            "84": -0.02411676436401801,
            "85": -0.01623869502457505,
            "86": -0.03679014763577111,
            "87": -0.03625872515282747,
            "88": -0.044806258034302424,
            "89": 0.04618550290266191,
            "90": -0.011932531263523125,
            "91": -0.010417541606859461,
            "92": -0.035177786229616904,
            "93": 0.053645314702222106,
            "94": -0.013524149427902303,
            "95": -0.012155360723820126,
            "96": -0.018980806300173896,
            "97": 0.04143758775600229,
            "98": 0.051249113207510376,
            "99": -0.0003394044923677477,
            "100": -0.009311761079775749,
            "101": -0.02690664614831939,
            "102": 0.036396882462405716,
            "103": -0.0131504401872071,
            "104": 0.038627671629615036,
            "105": 0.015953688027019464,
            "106": -0.03358432662337945,
            "107": 0.01832266870099897,
            "108": 0.05469928166864009,
            "109": 0.0027224893369893343,
            "110": 0.05816348633063191,
            "111": 0.032065796011709106,
            "112": -0.0048726556716284005,
            "113": 0.05927610283627626,
            "114": 0.033957997105304255,
            "115": -0.035895477381156456,
            "116": 0.03434298901525292,
            "117": 0.04803073374194776,
            "118": -0.007058111171275209,
            "119": 0.0002707350304042696,
            "120": 0.000748172725605924,
            "121": -0.017062610305831317,
            "122": 0.032097082513477364,
            "123": 0.015699711483594413,
            "124": 0.02954289524294874,
            "125": 0.031716862840639855,
            "126": -0.0009271778184622078,
            "127": 0.006241766654302874,
            "128": -0.06744745616304365,
            "129": -0.006008100856655025,
            "130": -0.015090189744133117,
            "131": -0.04898680235713223,
            "132": -0.008469182527015865,
            "133": -0.024299609735412356,
            "134": 0.04918199727406469,
            "135": -0.01913911563738714,
            "136": -0.039053482514202036,
            "137": -0.07235538372730532,
            "138": 0.059536944494412436,
            "139": 0.06449722820636508,
            "140": 0.014811881767123305,
            "141": -0.019164872379356355,
            "142": 0.03299258823554244,
            "143": -0.02588152232501499,
            "144": 0.00946296380949417,
            "145": -0.0036189986462449135,
            "146": 0.03706984857712279,
            "147": -0.033549603550434556,
            "148": -0.019893050109065964,
            "149": 0.020488938278464392,
            "150": -0.022618827010892916,
            "151": 0.009809130572270468,
            "152": -0.005375711649282805,
            "153": -0.028967101519136593,
            "154": -0.015994308242617855,
            "155": -0.043463676904912596,
            "156": -0.03363212569600883,
            "157": 0.032600646004864196,
            "158": -0.029682000538156932,
            "159": 0.008006307246660384,
            "160": -0.01322787943901501,
            "161": 0.023341985889021505,
            "162": 0.006843864969576455,
            "163": 0.01398622360273504,
            "164": -0.01679880636108317,
            "165": 0.005013379602095278,
            "166": -0.03414064451512357,
            "167": 0.01721922299765789,
            "168": -0.019370055531248796,
            "169": -0.06013197938951605,
            "170": -0.0355537822241451,
            "171": -0.022657501788743588,
            "172": -0.040205695842212334,
            "173": 0.028324524513822134,
            "174": 0.014230438137040096,
            "175": 0.016494036006006196,
            "176": 0.024035671035386886,
            "177": -0.015903746328218074,
            "178": 0.00030690958878161484,
            "179": -0.001953724150838581,
            "180": 0.049777359018030216,
            "181": -0.03805248353748921,
            "182": 0.042996033380417825,
            "183": -0.00008926822700961891,
            "184": 0.003933369914967841,
            "185": 0.042135104557280964,
            "186": -0.005089121615494114,
            "187": 0.0109395871167541,
            "188": -0.029804087915919777,
            "189": -0.021947833241111755,
            "190": -0.0011449403534175325,
            "191": -0.003084835180931491,
            "192": 0.018134687313970416,
            "193": 0.021870878656834663,
            "194": -0.005703354085337819,
            "195": -0.006133320130399723,
            "196": 0.03129238280744004,
            "197": 0.026515878922752666,
            "198": -0.0025017664627379286,
            "199": -0.07212231803318417,
            "200": 0.006847204054662203,
            "201": 0.031135846928256355,
            "202": 0.009602821214954337,
            "203": -0.04015571603462534,
            "204": 0.023728153294418727,
            "205": 0.036418533100135465,
            "206": 0.023871486473269834,
            "207": 0.043775706469000066,
            "208": 0.023218113108067946,
            "209": -0.002134794291765949,
            "210": 0.019058233930267447,
            "211": -0.034254668378757645,
            "212": 0.05241548100962166,
            "213": 0.0270462778551612,
            "214": 0.01143685762566861,
            "215": -0.004071360911001057,
            "216": -0.07672225904758362,
            "217": 0.04169410003758494,
            "218": 0.020168623230951796,
            "219": -0.02199087792098347,
            "220": 0.05318328377572784,
            "221": 0.048693028476160936,
            "222": 0.002332049537800226,
            "223": -0.044012907231885286,
            "224": -0.02538660908706404,
            "225": 0.033350545535636746,
            "226": 0.014057181987128674,
            "227": -0.014480666610800682,
            "228": 0.028802676133135644,
            "229": 0.0710258035918954,
            "230": -0.05192129822113529,
            "231": -0.03956397235715294,
            "232": 0.0029641188233902314,
            "233": -0.02431233024028374,
            "234": 0.013938619652726674,
            "235": -0.02735029613000622,
            "236": -0.031717555488793785,
            "237": -0.0033167788360497783,
            "238": -0.01624784586873496,
            "239": -0.04043402163857342,
            "240": 0.011709515086430608,
            "241": -0.013011609641120114,
            "242": 0.021410706704402448,
            "243": 0.04785862034076726,
            "244": 0.03348769023571852,
            "245": 0.004760882484852799,
            "246": 0.04154943559652731,
            "247": -0.06334906002516608,
            "248": -0.0027223395500873496,
            "249": -0.027182484575161054,
            "250": -0.02321767299199807,
            "251": -0.032394585138169986,
            "252": -0.009668893440905138,
            "253": 0.006319059415562391,
            "254": 0.02111797585294117,
            "255": -0.015468138974882526,
            "256": -0.04576473084502419,
            "257": -0.032649487893840735,
            "258": 0.03221991017643119,
            "259": -0.06313430380177579,
            "260": -0.04814764600655946,
            "261": -0.03546835945323956,
            "262": 0.0030467408322490844,
            "263": 0.016300704910045077,
            "264": -0.01051497366562143,
            "265": -0.0038202816890944248,
            "266": 0.026048772515013335,
            "267": 0.03291569597014499,
            "268": -0.00444761349892676,
            "269": -0.014297496974386557,
            "270": 0.003573947388869706,
            "271": -0.010223023373738132,
            "272": 0.022352644997386234,
            "273": -0.0060386710605187886,
            "274": 0.04563882678840462,
            "275": 0.01107657656184218,
            "276": 0.08359454272708162,
            "277": -0.010343218345790396,
            "278": 0.01618030925161835,
            "279": 0.011358879154839557,
            "280": 0.01380002829571014,
            "281": 0.001052906203120975,
            "282": -0.041353174443441165,
            "283": 0.01831843107322211,
            "284": -0.05830826903205573,
            "285": 0.005141269945431279,
            "286": 0.03580132178613627,
            "287": -0.03140037919659685,
            "288": 0.01045180804977508,
            "289": -0.0875666801538245,
            "290": 0.03169306180583282,
            "291": 0.027489471788680032,
            "292": 0.038149616570060677,
            "293": 0.04094507066467656,
            "294": 0.00018917575746734536,
            "295": 0.04964399830592531,
            "296": 0.008136807473307466,
            "297": 0.027281770367147917,
            "298": -0.041338550335251655,
            "299": -0.03214954581316903,
            "300": -0.07133629277561353,
            "301": 0.020271402826251464,
            "302": -0.00927841262926311,
            "303": -0.025182101835767016,
            "304": 0.015849304352991363,
            "305": -0.04210064795927435,
            "306": -0.04836971277917451,
            "307": -0.005227808619050881,
            "308": 0.03071216794920422,
            "309": -0.0008389052100624345,
            "310": 0.009035445234942424,
            "311": -0.021886146683846596,
            "312": -0.02791767472439662,
            "313": 0.014140129452325817,
            "314": -0.05634657032133124,
            "315": -0.023249329190601402,
            "316": -0.028750730072014813,
            "317": 0.0062634903296637555,
            "318": 0.0301757448433728,
            "319": -0.04827181075780124,
            "320": -0.002282865886363103,
            "321": 0.03272319387127124,
            "322": 0.08044231522290539,
            "323": -0.01105500973222092,
            "324": -0.018980365333701375,
            "325": -0.046756413880600055,
            "326": 0.02579629735995299,
            "327": 0.009418479269047498,
            "328": -0.042403720314087505,
            "329": 0.036551324636960446,
            "330": -0.007615959485307178,
            "331": 0.00648201511066586,
            "332": 0.001832169677274371,
            "333": -0.022198752906443558,
            "334": 0.06457106483866996,
            "335": -0.00761606797571376,
            "336": -0.017533958017763786,
            "337": -0.00605002608867749,
            "338": -0.07583136567262966,
            "339": 0.0007719893760568954,
            "340": 0.018831487916339203,
            "341": 0.007875056085039474,
            "342": -0.021709647928182862,
            "343": 0.023934941502966597,
            "344": -0.06353444858574597,
            "345": 0.028399088287399215,
            "346": 0.04288517906856785,
            "347": 0.013335266954650407,
            "348": 0.018324118087673397,
            "349": 0.0021743989680904365,
            "350": -0.01293140401749346,
            "351": -0.015400034991266957,
            "352": 0.010850273423731521,
            "353": 0.020657652104452508,
            "354": 0.024161184130412232,
            "355": -0.05430599704821597,
            "356": -0.06580437021603722,
            "357": 0.014232418321495731,
            "358": 0.020271478740282782,
            "359": -0.02808332571426206,
            "360": -0.007970033899732103,
            "361": 0.014748616840859732,
            "362": 0.008281204275010558,
            "363": -0.039563844953871996,
            "364": -0.030538549746829277,
            "365": 0.009545025226717942,
            "366": 0.0029278752387773485,
            "367": 0.05639021273517299,
            "368": -0.049353752064779946,
            "369": -0.006043525487201734,
            "370": -0.0016862764727154623,
            "371": 0.0498476840233152,
            "372": 0.03460362585877674,
            "373": 0.004429182809630927,
            "374": 0.0352441924291837,
            "375": 0.03218838987189409,
            "376": 0.02408704644473695,
            "377": 0.038886089403503264,
            "378": -0.03065489352439734,
            "379": 0.023103637572090274,
            "380": -0.027826128971485363,
            "381": -0.023537140180387935,
            "382": 0.01719643433007109,
            "383": -0.028936090524102988,
            "384": -0.005030095505804934,
            "385": 0.06789687909241664,
            "386": 0.00779532739378687,
            "387": -0.012059435391449394,
            "388": 0.007047515044611035,
            "389": 0.012140557088403201,
            "390": 0.0066333061431126114,
            "391": -0.017529556789337083,
            "392": 0.03752087027846382,
            "393": 0.003833405082875201,
            "394": 0.0007066310264349005,
            "395": -0.04248002989330798,
            "396": -0.02352164759797505,
            "397": 0.022144034300504486,
            "398": -0.008337908000533066,
            "399": -0.04701259242289924,
            "400": 0.008080375327317205,
            "401": -0.017655804733161095,
            "402": 0.02733551168104909,
            "403": -0.049536831554263895,
            "404": 0.003725650113932892,
            "405": 0.000503549316154279,
            "406": -0.029205804800984187,
            "407": 0.022014352799700432,
            "408": -0.018601399936162357,
            "409": -0.02310482281666876,
            "410": 0.0644310095566049,
            "411": -0.0134818090343232,
            "412": 0.008406717784713703,
            "413": 0.04702230329773594,
            "414": 0.019134282624395392,
            "415": -0.0267897579022117,
            "416": -0.03051526298035908,
            "417": 0.029354456716715806,
            "418": -0.05884610928249692,
            "419": -0.03718831165494228,
            "420": 0.05826653450360817,
            "421": -0.001036843545904448,
            "422": 0.05725548513573708,
            "423": -0.02656260943786813,
            "424": 0.03179684124610735,
            "425": 0.03878959821251803,
            "426": -0.0029905437941263346,
            "427": -0.03558457877167526,
            "428": -0.005248413089306847,
            "429": 0.00483993452009968,
            "430": -0.010389705121361774,
            "431": -0.024581178683309144,
            "432": 0.002616324830095876,
            "433": -0.013982091060584297,
            "434": -0.0296669856659529,
            "435": 0.007509926498629197,
            "436": -0.03389257888908295,
            "437": 0.009527869148309012,
            "438": -0.009489218849254952,
            "439": -0.02875832863359125,
            "440": -0.013938298112503378,
            "441": 0.018000910095063622,
            "442": -0.040529901949621965,
            "443": 0.018350680330029873,
            "444": 0.017722164025804007,
            "445": 0.03745359855338991,
            "446": 0.00008381805733727255,
            "447": -0.027647891662380318,
            "448": -0.004915582262700215,
            "449": 0.0235456511580142,
            "450": 0.012237039081683025,
            "451": 0.0018297632805753974,
            "452": -0.028435891087300318,
            "453": -0.02307457437209699,
            "454": 0.009039849408268021,
            "455": 0.041880409871688985,
            "456": -0.01710500703507614,
            "457": -0.015713646588024096,
            "458": -0.05973384711339885,
            "459": -0.01378668125785299,
            "460": 0.00345895968925308,
            "461": 0.0035990765315632054,
            "462": -0.041725579473289844,
            "463": 0.04808791073892789,
            "464": -0.04407188829153725,
            "465": 0.004964290298110347,
            "466": -0.010153344945336703,
            "467": 0.005311879019228017,
            "468": -0.0006990338702209663,
            "469": 0.016569150738725075,
            "470": 0.004715456381663446,
            "471": -0.016528826410090434,
            "472": 0.032086542896300224,
            "473": -0.044090565957708154,
            "474": -0.002968449326989909,
            "475": 0.00028418266422615196,
            "476": 0.023968213088828655,
            "477": -0.018148696835447016,
            "478": 0.022926855655609212,
            "479": -0.012039788224693135,
            "480": 0.024916323205448485,
            "481": 0.044222635974276475,
            "482": -0.033209969660463544,
            "483": 0.08775258618086543,
            "484": 0.006909872933627187,
            "485": -0.01950944877275131,
            "486": 0.002690691134129979,
            "487": -0.009118781916314819,
            "488": -0.04748488969893852,
            "489": -0.007483020084633778,
            "490": 0.005642929501252235,
            "491": -0.034594820115691496,
            "492": -0.020952306368454025,
            "493": -0.0029271035922460885,
            "494": -0.04158885438232283,
            "495": 0.06226740725793583,
            "496": -0.03233957877881104,
            "497": -0.046890324132524655,
            "498": 0.026241744698511944,
            "499": -0.0474698713710239,
            "500": -0.04968917804253904,
            "501": 0.01570296414741437,
            "502": 0.031179873793120417,
            "503": -0.02470761684741039,
            "504": -0.007283018518689968,
            "505": 0.04682433935525363,
            "506": -0.013313832107830659,
            "507": 0.01251111315715591,
            "508": -0.015148146012277715,
            "509": 0.06783594094187849,
            "510": 0.058766928398124536,
            "511": -0.017669797705858938,
            "512": -0.01869079539907821,
            "513": -0.01597012092100869,
            "514": -0.025001091619127357,
            "515": 0.00044263385439752815,
            "516": 0.04074612682006206,
            "517": -0.023983136516906974,
            "518": 0.0009798688220660579,
            "519": -0.031140409440472378,
            "520": 0.018119915738139397,
            "521": -0.030633240190360088,
            "522": 0.013620428750967091,
            "523": -0.03637455027602143,
            "524": 0.026143271727597298,
            "525": 0.023855286078500147,
            "526": -0.012217071754092805,
            "527": -0.030036601865135362,
            "528": -0.06264086164922314,
            "529": 0.006009262701780156,
            "530": 0.009215016138247071,
            "531": -0.012296481252242317,
            "532": -0.01748047961554238,
            "533": -0.013522368136855792,
            "534": 0.044700354338182854,
            "535": -0.016294653789215956,
            "536": -0.059926762314560504,
            "537": 0.03620824360962445,
            "538": 0.026308598351976714,
            "539": 0.018695835203110762,
            "540": 0.01227874903517102,
            "541": 0.03870615208509199,
            "542": 0.03693801404090639,
            "543": -0.03574902721885653,
            "544": -0.018355193150203897,
            "545": 0.010407930525600354,
            "546": 0.05090649745245456,
            "547": -0.020116907684339012,
            "548": -0.006445041952732987,
            "549": -0.01219776162720424,
            "550": -0.009355452568906502,
            "551": 0.0033803632287517866,
            "552": -0.015670971837440408,
            "553": -0.05937578543976876,
            "554": 0.030830943893109235,
            "555": 0.034830400935011815,
            "556": -0.029031846975930878,
            "557": 0.033311976735648174,
            "558": 0.039451143755294744,
            "559": -0.03933030971060336,
            "560": -0.019413263485108027,
            "561": 0.02536345819172523,
            "562": -0.05176805577764727,
            "563": -0.03658014288220261,
            "564": -0.006669291325398936,
            "565": -0.005640144763859306,
            "566": 0.0013852806546016357,
            "567": -0.057500731066212944,
            "568": -0.0209624393670639,
            "569": -0.047205911996369344,
            "570": 0.00447388265819854,
            "571": 0.036848738530095675,
            "572": -0.02195507773880742,
            "573": -0.015067285537388285,
            "574": -0.015908197317224662,
            "575": 0.0052032961845473276,
            "576": -0.015269189396145692,
            "577": -0.028048585640702603,
            "578": 0.057900924245909695,
            "579": -0.021109689454568616,
            "580": -0.012872616309868067,
            "581": -0.039248132829528715,
            "582": -0.020770287299054387,
            "583": -0.038096491918314185,
            "584": -0.04037979965676809,
            "585": 0.005681179395839523,
            "586": 0.0008265871599163505,
            "587": -0.0030791222386517074,
            "588": 0.008521970114558757,
            "589": 0.016003636970695217,
            "590": -0.0195020598090883,
            "591": 0.0038277958328888696,
            "592": 0.008065276527884859,
            "593": 0.01421956324614432,
            "594": -0.0018213806310803072,
            "595": 0.03949542872588469,
            "596": 0.02730682403924637,
            "597": 0.0051962606971101616,
            "598": -0.07504760713849074,
            "599": 0.026369304484640196,
            "600": -0.019607121485384044,
            "601": 0.0026140625390691247,
            "602": -0.025085047224412606,
            "603": -0.02361877856407944,
            "604": -0.002466575225531233,
            "605": -0.035347060927649124,
            "606": -0.017838809944865544,
            "607": 0.021508361233989057,
            "608": -0.012881584578089808,
            "609": -0.0609454119872726,
            "610": 0.01467237207896452,
            "611": -0.02066228461379202,
            "612": 0.021608603543130846,
            "613": 0.03536370781938118,
            "614": -0.06583721107680786,
            "615": -0.04158626005707963,
            "616": -0.007179380090397994,
            "617": 0.021752906921632047,
            "618": -0.032871445183782814,
            "619": -0.016156513176936473,
            "620": 0.034183337298818804,
            "621": 0.050916717965254085,
            "622": 0.011152700285698787,
            "623": -0.010316581963111464,
            "624": -0.005721012878889439,
            "625": 0.033697260676131546,
            "626": 0.002464772567127383,
            "627": -0.023078937034078893,
            "628": -0.029739039239901795,
            "629": 0.02703046225028884,
            "630": -0.0008909296288762137,
            "631": 0.0003375487964953523,
            "632": 0.01512269317716779,
            "633": -0.02404729830484993,
            "634": -0.06746575629782878,
            "635": 0.023371422532100984,
            "636": 0.027214484806374065,
            "637": 0.041927097626633936,
            "638": -0.013539192212174323,
            "639": 0.031239804550140717,
            "640": 0.001006075493164452,
            "641": 0.04615962880495066,
            "642": -0.044527486076625676,
            "643": -0.023036525974956926,
            "644": 0.013916311162023954,
            "645": 0.011671102310099516,
            "646": 0.02667220802690705,
            "647": 0.008597193024032043,
            "648": 0.023252971125959622,
            "649": -0.0006960392124911235,
            "650": -0.01070448312638853,
            "651": -0.0356879704664882,
            "652": 0.018958791811013388,
            "653": 0.03568450564491575,
            "654": -0.005987507153220434,
            "655": -0.03654090150784024,
            "656": -0.00540576380165856,
            "657": -0.018629268194136347,
            "658": -0.02898803816441955,
            "659": -0.057697020152011426,
            "660": -0.04043165231112256,
            "661": 0.024268564516997333,
            "662": -0.0017766550928444591,
            "663": -0.002227449086330898,
            "664": -0.014703558463126543,
            "665": -0.028159866377508676,
            "666": -0.00008245606459785724,
            "667": -0.013330863448636088,
            "668": 0.010068456930299896,
            "669": -0.03251871529635444,
            "670": 0.053792454946541696,
            "671": 0.015281721723921443,
            "672": 0.03464935928041004,
            "673": -0.02896831058791299,
            "674": -0.05942010358066566,
            "675": 0.02973398856963736,
            "676": -0.01824227812600824,
            "677": -0.0295302653598266,
            "678": 0.022107826204521324,
            "679": 0.01280122244770133,
            "680": 0.01329610504531288,
            "681": -0.015297343025716443,
            "682": 0.01282836225095469,
            "683": 0.041791779724778065,
            "684": 0.01916961823281855,
            "685": -0.006524373309185095,
            "686": -0.022206850935685567,
            "687": 0.016876308787492897,
            "688": -0.016731054417992528,
            "689": -0.04213636137145602,
            "690": 0.012708164358012738,
            "691": -0.017036221225279632,
            "692": 0.0206246195319503,
            "693": 0.025909528611641513,
            "694": -0.023882460348913892,
            "695": 0.018575455531248924,
            "696": -0.04329972254780475,
            "697": 0.00456293974682988,
            "698": -0.025892878897929298,
            "699": 0.021206615263835077,
            "700": -0.03729200137230573,
            "701": 0.03893403761802292,
            "702": 0.013154916070311945,
            "703": -0.06357803907544668,
            "704": -0.016274167942071233,
            "705": -0.033936984283439824,
            "706": -0.0072512095432805965,
            "707": -0.011477011542236765,
            "708": -0.048900767891910786,
            "709": 0.016117106883454132,
            "710": 0.04299812150246908,
            "711": 0.057866570058830925,
            "712": 0.008803582828665758,
            "713": -0.03416475900168508,
            "714": -0.03200899752455901,
            "715": -0.006793072845499273,
            "716": 0.00030864274189962147,
            "717": -0.022047513287548795,
            "718": 0.010826357871431354,
            "719": 0.0071598962264591065,
            "720": 0.025310664100819686,
            "721": -0.052153117427370776,
            "722": 0.012328935736999308,
            "723": 0.002161550824448675,
            "724": 0.01946281262239641,
            "725": -0.014311026531711107,
            "726": -0.07023034218946646,
            "727": -0.015880190111792918,
            "728": -0.01480334702546375,
            "729": 0.01229772242126812,
            "730": 0.039841786512342006,
            "731": -0.02406245978177313,
            "732": -0.0404408020870475,
            "733": 0.006081062290142832,
            "734": 0.018864313715990916,
            "735": -0.026277876241759607,
            "736": -0.04251784832998413,
            "737": 0.05164312926499141,
            "738": 0.0025738327150307172,
            "739": -0.008086105211675897,
            "740": 0.030202276661207714,
            "741": 0.03186707776016368,
            "742": 0.00367118543648647,
            "743": 0.001967408258035523,
            "744": 0.037431941325205456,
            "745": -0.019714156527322113,
            "746": 0.030627738666779463,
            "747": -0.008014710957524034,
            "748": -0.013975835495844798,
            "749": -0.04730065111414978,
            "750": 0.04472179148691097,
            "751": 0.06445223091495451,
            "752": -0.05781771800467242,
            "753": 0.027021398010551697,
            "754": 0.02063455444178925,
            "755": 0.04000798658744572,
            "756": -0.06603783820760209,
            "757": 0.006049825124575939,
            "758": 0.04858821028857185,
            "759": -0.003094804321518436,
            "760": -0.01696603185236188,
            "761": 0.004945050284753222,
            "762": 0.026004380725512803,
            "763": 0.020796505464713545,
            "764": 0.01572488764739357,
            "765": 0.018340234716053,
            "766": -0.004529555055820866,
            "767": 0.036460316719774,
            "768": 0.0009595661375211781,
            "769": 0.02021506560563402,
            "770": 0.04934734725225983,
            "771": -0.057542490564909614,
            "772": -0.055515191406893656,
            "773": -0.014228933463709147,
            "774": -0.046573031610214956,
            "775": 0.02570606655412959,
            "776": -0.022696962403425194,
            "777": 0.0491858508642174,
            "778": -0.0019100349511744358,
            "779": 0.00792557961263295,
            "780": -0.021637182317606612,
            "781": -0.010360672217682103,
            "782": 0.03350124121834406,
            "783": 0.018453842485236988,
            "784": -0.00205809053248103,
            "785": -0.02779842269475797,
            "786": -0.012283897865473983,
            "787": 0.05198587373787019,
            "788": -0.02674443594744623,
            "789": -0.022693055958504457,
            "790": 0.08746372885841525,
            "791": -0.0433371328603451,
            "792": -0.061752390599167664,
            "793": 0.024990617028660084,
            "794": 0.00501259804505773,
            "795": 0.044062593181860656,
            "796": -0.021563267438565036,
            "797": 0.0033444184564604186,
            "798": 0.018219584941459303,
            "799": -0.046017115830188415
          }
        },
        {
          "sx": 1,
          "sy": 1,
          "depth": 800,
          "w": {
            "0": -0.00427370968232635,
            "1": 0.024291130200837893,
            "2": -0.012931634761523996,
            "3": 0.04120390968848448,
            "4": 0.0033065357918936494,
            "5": -0.04494805342246954,
            "6": 0.025159768974023753,
            "7": -0.01127287919793696,
            "8": -0.002557007131960317,
            "9": -0.054076297602977726,
            "10": 0.012577456635427956,
            "11": 0.02215998283614302,
            "12": 0.058582224895192325,
            "13": -0.007499904157825939,
            "14": -0.01893314713848204,
            "15": 0.05200734232073491,
            "16": -0.018592964401950712,
            "17": -0.03482049418950626,
            "18": -0.02045793883611994,
            "19": -0.0446311832758252,
            "20": 0.0417513965590757,
            "21": -0.011381162296527449,
            "22": -0.04607312232333038,
            "23": 0.004875567195364094,
            "24": -0.00025834404660072987,
            "25": -0.02651340194585963,
            "26": -0.033943643762289165,
            "27": 0.018023879892920317,
            "28": 0.010706917190921934,
            "29": -0.06425331043032391,
            "30": -0.04631582716522931,
            "31": 0.049758167797035915,
            "32": 0.01439992924259353,
            "33": 0.012956858022489477,
            "34": -0.0038246346948716627,
            "35": -0.005965040697134352,
            "36": 0.014960983407364696,
            "37": 0.0020354207561740457,
            "38": 0.013447592926166459,
            "39": 0.013812253021118104,
            "40": 0.00968642920547094,
            "41": 0.05312295117486284,
            "42": 0.0017654052898068663,
            "43": -0.015911879807590772,
            "44": 0.03278393567000457,
            "45": -0.006264524948913981,
            "46": -0.005962163291223095,
            "47": 0.0021850454584780065,
            "48": 0.0025113968557585247,
            "49": -0.03722108872206635,
            "50": 0.0035069701212846398,
            "51": -0.05265779225027856,
            "52": 0.03120102736863097,
            "53": 0.01884955530658885,
            "54": 0.008354112020939457,
            "55": -0.007241968120506737,
            "56": -0.01838646556780266,
            "57": 0.031937295839142635,
            "58": 0.010585257948892684,
            "59": -0.0018068594765729392,
            "60": -0.0296676685664219,
            "61": -0.01287253406284582,
            "62": 0.005496526234252438,
            "63": -0.016438416527107043,
            "64": 0.021370596397788415,
            "65": 0.007878685873023799,
            "66": 0.022948174184407633,
            "67": 0.02368377037862493,
            "68": -0.02938351329114117,
            "69": -0.005889268899585012,
            "70": 0.03771559361524417,
            "71": 0.02244099122094209,
            "72": -0.026489444568477818,
            "73": 0.006516691297664671,
            "74": -0.00046834114399268604,
            "75": 0.03412363023339423,
            "76": 0.026344597121928683,
            "77": 0.00823441406042222,
            "78": -0.025745273005986623,
            "79": 0.02798473441848225,
            "80": 0.012457275692343058,
            "81": 0.015148515847227493,
            "82": -0.01350020442026283,
            "83": 0.02115248195600076,
            "84": -0.045891409387915715,
            "85": -0.01789679958174439,
            "86": -0.03178862712185395,
            "87": -0.021168296016555035,
            "88": -0.002632429183265693,
            "89": 0.02741756446058953,
            "90": 0.009514829159729463,
            "91": 0.021242478244685545,
            "92": 0.008574856049798237,
            "93": -0.01682469006203648,
            "94": -0.037142085808701104,
            "95": 0.03451775113885043,
            "96": -0.017392902514624026,
            "97": -0.03442256939104357,
            "98": 0.04796255434756023,
            "99": -0.04724822384071373,
            "100": 0.03159095771925498,
            "101": 0.041132021354956555,
            "102": -0.0005312736108838366,
            "103": 0.04814976808400373,
            "104": 0.04325361695359995,
            "105": -0.031230819355686282,
            "106": 0.03993996018277169,
            "107": -0.02207331763112775,
            "108": -0.018115202465413194,
            "109": -0.019231569067930016,
            "110": -0.021469642027554366,
            "111": -0.007130777604835314,
            "112": 0.03470713004955137,
            "113": -0.04419630499449847,
            "114": 0.031942548725031966,
            "115": -0.008779593277723876,
            "116": -0.0229622104009018,
            "117": -0.02403657812747174,
            "118": -0.014126687250447951,
            "119": -0.021652718769470492,
            "120": 0.04551928093836027,
            "121": 0.008363335777044482,
            "122": -0.021107103395381206,
            "123": 0.0047856868868862736,
            "124": 0.02240673785514811,
            "125": 0.027491205865660312,
            "126": 0.024934933889647192,
            "127": 0.033924010786341954,
            "128": -0.050848891062087655,
            "129": 0.012898991207249381,
            "130": -0.00923681250657284,
            "131": -0.032306725362956666,
            "132": -0.03211599852295473,
            "133": 0.00040168917940893925,
            "134": -0.009214762364337574,
            "135": -0.013039940074860886,
            "136": -0.019038129561959116,
            "137": -0.053686529241687236,
            "138": -0.003628170658700649,
            "139": 0.019240636228737874,
            "140": -0.007236646973642509,
            "141": 0.006001617764497404,
            "142": -0.020768855339415474,
            "143": 0.06713419748955791,
            "144": 0.007171349401152317,
            "145": -0.01395605985364193,
            "146": 0.027676597456172115,
            "147": 0.008884993864588896,
            "148": -0.051641321691786826,
            "149": 0.00043883530544755695,
            "150": -0.045922009307476384,
            "151": 0.0331571941653226,
            "152": -0.04488506703228392,
            "153": 0.012812790900231586,
            "154": 0.01546590256828808,
            "155": -0.041972501474121585,
            "156": -0.023645434515903885,
            "157": -0.0488124146059553,
            "158": 0.01867006639266663,
            "159": -0.023092913960876028,
            "160": 0.00868910499157937,
            "161": 0.023417992151475914,
            "162": -0.03600663918165531,
            "163": -0.061488903552141025,
            "164": -0.01333605246190976,
            "165": 0.06798872453694778,
            "166": 0.027367828570048408,
            "167": 0.014899680119976933,
            "168": -0.011577627723904804,
            "169": -0.0041790349917414,
            "170": 0.016212925152198243,
            "171": 0.0163940293344547,
            "172": 0.08422817074453173,
            "173": 0.0028644308843556393,
            "174": 0.028843496742371206,
            "175": -0.04123129195887495,
            "176": 0.03784016830836211,
            "177": -0.008208454628639656,
            "178": -0.02007098936973759,
            "179": -0.0020974682247864103,
            "180": -0.015603085853255134,
            "181": -0.0032944524090103037,
            "182": -0.036860984534616115,
            "183": -0.006070430547925829,
            "184": -0.05536833760920913,
            "185": 0.023740870213049235,
            "186": 0.010706235991894792,
            "187": 0.02151103871308866,
            "188": 0.0021720445277269907,
            "189": 0.01408583220591655,
            "190": 0.020409297477361355,
            "191": 0.006137926453456374,
            "192": -0.027873404210133564,
            "193": 0.007425752009812456,
            "194": -0.02264889857304904,
            "195": 0.008431223764163526,
            "196": -0.02342726198418133,
            "197": 0.03217598414494765,
            "198": -0.007246423808905492,
            "199": 0.03540748530307722,
            "200": -0.017395276322020883,
            "201": -0.024923194207968208,
            "202": -0.06890457227532296,
            "203": 0.031212951038181877,
            "204": -0.014257623682043969,
            "205": 0.036504403055504564,
            "206": -0.020424864011617968,
            "207": 0.014466944401630322,
            "208": 0.040673698969729964,
            "209": 0.02643168872276459,
            "210": -0.01819014963573272,
            "211": 0.051829874430507954,
            "212": 0.03573533384666351,
            "213": 0.034590738891368024,
            "214": -0.011598764082105245,
            "215": 0.048728847989952445,
            "216": -0.012678487694048852,
            "217": 0.054210067862980015,
            "218": 0.026590214318352692,
            "219": 0.0010660642227622468,
            "220": -0.04821610574222202,
            "221": 0.015282067545425574,
            "222": -0.030555844259571602,
            "223": 0.02218411773858276,
            "224": -0.041404639334029,
            "225": -0.008375344319112538,
            "226": 0.011222074503717252,
            "227": -0.00020548546569703791,
            "228": -0.024755555350913068,
            "229": 0.009756428515552416,
            "230": 0.037078408988440385,
            "231": -0.024333409070670064,
            "232": -0.030390444884307213,
            "233": -0.0010807045656324578,
            "234": -0.03997824086686308,
            "235": -0.01591090284427426,
            "236": 0.01154681634121167,
            "237": -0.04425214163728417,
            "238": 0.0034280156167422965,
            "239": -0.02854276944186018,
            "240": 0.024508843023806206,
            "241": 0.06492438003375219,
            "242": 0.016654918478885096,
            "243": 0.0637326888852454,
            "244": -0.016486089117750086,
            "245": -0.0273980165565554,
            "246": -0.03312502408919726,
            "247": 0.021935541692523788,
            "248": -0.017196069695868996,
            "249": -0.03438730472864533,
            "250": 0.02603164864643866,
            "251": -0.06703745846444609,
            "252": 0.014785877597421615,
            "253": -0.00628660713333233,
            "254": -0.04013846634544563,
            "255": -0.014305658447302793,
            "256": 0.019681938796962777,
            "257": -0.025156751911772482,
            "258": -0.01902702428042667,
            "259": 0.007041337978290112,
            "260": 0.008244898453025675,
            "261": -0.015838222058523626,
            "262": -0.008582156252747893,
            "263": 0.05253938086220267,
            "264": 0.01049490981913423,
            "265": -0.013324068136343997,
            "266": 0.02653664322078869,
            "267": -0.016437220314758368,
            "268": 0.028642154904901674,
            "269": 0.021373281862797806,
            "270": -0.04086836192981215,
            "271": -0.026551067999351283,
            "272": 0.03465071217685791,
            "273": 0.007441141167447857,
            "274": 0.012663637762078832,
            "275": -0.004624456682327256,
            "276": 0.04982763436012843,
            "277": 0.03868672404028603,
            "278": 0.029484216963981773,
            "279": 0.029362682462632204,
            "280": -0.017576897867491066,
            "281": 0.004767982978519387,
            "282": -0.03100407958198431,
            "283": -0.015910232368004724,
            "284": 0.05331090887670328,
            "285": 0.011066294985102408,
            "286": 0.03138572559709031,
            "287": 0.03039482988924626,
            "288": 0.004569047049258161,
            "289": -0.003262845140281897,
            "290": 0.021331267922856594,
            "291": -0.007992495297237825,
            "292": -0.0003287163118423172,
            "293": -0.04894037297251089,
            "294": -0.02602460190373257,
            "295": 0.002650870940369961,
            "296": -0.0011604774716471652,
            "297": 0.018656004391962973,
            "298": -0.01173463442415129,
            "299": -0.022620881792673863,
            "300": 0.004167506863323072,
            "301": -0.03183223967007804,
            "302": -0.02629807752373482,
            "303": 0.0018687535258611846,
            "304": 0.0362795872319634,
            "305": 0.04830641693280185,
            "306": 0.010253420667610652,
            "307": 0.055635023070903455,
            "308": 0.01706116516069725,
            "309": 0.025764803079352205,
            "310": 0.004528232155590272,
            "311": 0.028305455325732882,
            "312": -0.0022224999225571324,
            "313": 0.021189458022586666,
            "314": -0.029546027964612063,
            "315": 0.006521883831896034,
            "316": -0.015463972739994029,
            "317": 0.009529690290533887,
            "318": -0.00018925372826420443,
            "319": 0.002181845599085472,
            "320": -0.007373113097741806,
            "321": 0.04050113110283997,
            "322": 0.023016606331326732,
            "323": 0.00874630878191668,
            "324": -0.019204828262639258,
            "325": 0.020148192499910803,
            "326": 0.032544101474893616,
            "327": 0.020477351696512523,
            "328": -0.005005253344909198,
            "329": 0.03326329064083449,
            "330": 0.027428730117095675,
            "331": 0.0017442837495815669,
            "332": -0.02051096043676185,
            "333": 0.01834282925869961,
            "334": 0.010814603458116441,
            "335": 0.09837372947886451,
            "336": -0.0008799671008827129,
            "337": -0.05425631064268032,
            "338": 0.07401482790073215,
            "339": -0.00834904311757648,
            "340": -0.03584211149417823,
            "341": 0.03197551162792592,
            "342": -0.03232291708409692,
            "343": 0.04277443451506134,
            "344": 0.029647407867658484,
            "345": 0.024301163902125538,
            "346": -0.04435561290928553,
            "347": 0.00019045650167416348,
            "348": -0.011543779322314814,
            "349": 0.002062258594659706,
            "350": 0.025707566801859438,
            "351": 0.04593704121105652,
            "352": 0.0631021933445564,
            "353": -0.004482186535706771,
            "354": 0.021643735481086227,
            "355": 0.0308303093352361,
            "356": 0.06730068045763758,
            "357": 0.03193343774860952,
            "358": -0.020155633375161543,
            "359": -0.02188720496178055,
            "360": -0.011214259121288228,
            "361": -0.05821217391942602,
            "362": -0.0034517538529775364,
            "363": 0.010055857866305274,
            "364": 0.04180950242820512,
            "365": -0.030882495166990744,
            "366": 0.033161033239229684,
            "367": -0.0129971921519062,
            "368": -0.005340985291589162,
            "369": -0.009510880982422627,
            "370": 0.004766240236654927,
            "371": -0.016271299063804184,
            "372": -0.0186665797832727,
            "373": 0.02217658167465662,
            "374": -0.047702206017245195,
            "375": -0.01767040665011969,
            "376": 0.0725711813064351,
            "377": 0.0362602119558775,
            "378": 0.040024591541181355,
            "379": 0.007242053585168572,
            "380": -0.006857776632831966,
            "381": 0.03554313596342581,
            "382": -0.030535945796961707,
            "383": 0.012476074225595548,
            "384": 0.027659725718886807,
            "385": 0.00032668659695897875,
            "386": -0.015486557262757817,
            "387": -0.012876681899087795,
            "388": 0.04726154091923851,
            "389": 0.018940292249626647,
            "390": 0.014928094562534437,
            "391": -0.03164805477641968,
            "392": -0.0007730650956154687,
            "393": -0.05141033238810242,
            "394": -0.0014609072755827955,
            "395": 0.014602711842829618,
            "396": 0.04031086666063323,
            "397": -0.004469183893237632,
            "398": -0.030426819683370014,
            "399": -0.00323631922042362,
            "400": 0.03259227701528227,
            "401": 0.02903469670452752,
            "402": 0.026262069008648446,
            "403": 0.008920321197582943,
            "404": -0.0019884468294215606,
            "405": -0.0008013252389066949,
            "406": 0.05143350159574062,
            "407": 0.0815523924122076,
            "408": -0.013616206764491434,
            "409": 0.039850459057898836,
            "410": 0.021674418800101267,
            "411": -0.025323123992968412,
            "412": 0.019627926038259774,
            "413": 0.029036106261575073,
            "414": 0.026490577548212033,
            "415": -0.039939025370544105,
            "416": 0.025324959822797144,
            "417": -0.023535590571282683,
            "418": -0.050779316653283356,
            "419": 0.01501178599361141,
            "420": -0.035739557739614514,
            "421": -0.005813161769059312,
            "422": 0.005035818134315857,
            "423": -0.004497607418376945,
            "424": 0.00913693827574183,
            "425": -0.024129807718958132,
            "426": -0.029679851167856545,
            "427": -0.050432814851631994,
            "428": 0.00020340762728528766,
            "429": 0.024238556148437094,
            "430": 0.023707386829136368,
            "431": -0.03519862308982076,
            "432": 0.004692215868442916,
            "433": -0.0155707050689829,
            "434": -0.08048210561007549,
            "435": -0.016332994723343427,
            "436": 0.019977440634105597,
            "437": -0.014591145206263931,
            "438": -0.0606809489533876,
            "439": 0.06013941824134228,
            "440": 0.005361503721848825,
            "441": 0.0036443457343500883,
            "442": -0.008432686464148983,
            "443": 0.00979844986036282,
            "444": -0.04337490726353619,
            "445": -0.01042826047260729,
            "446": -0.01041953362642375,
            "447": -0.004614693880346244,
            "448": -0.013139700865311976,
            "449": 0.0053702387227829345,
            "450": -0.013398897821751478,
            "451": -0.0173425521036417,
            "452": -0.02539564130980117,
            "453": 0.002153523560284268,
            "454": 0.009426793528292293,
            "455": 0.006418352672562664,
            "456": 0.021398915174724316,
            "457": -0.07565026403548485,
            "458": -0.010248792561786112,
            "459": 0.04104680591509019,
            "460": 0.002346443479456525,
            "461": 0.006726417572152041,
            "462": -0.030345624728203954,
            "463": 0.04539002303082436,
            "464": -0.02391652392826219,
            "465": -0.06997004769876793,
            "466": -0.01624954684181337,
            "467": 0.031258289846114916,
            "468": 0.08102565103181904,
            "469": -0.053639649418783186,
            "470": 0.06850684551424699,
            "471": -0.0360298708445633,
            "472": 0.012810705437549978,
            "473": 0.025033709763207745,
            "474": 0.010473330211681432,
            "475": -0.03343474010380964,
            "476": -0.03531702981774781,
            "477": -0.010074571394956352,
            "478": -0.009513586462935309,
            "479": -0.013334898298934465,
            "480": -0.029982095052887434,
            "481": 0.0006089864248624638,
            "482": 0.004302686405960281,
            "483": 0.023475045031150037,
            "484": 0.0008433593200264204,
            "485": 0.003984638145384517,
            "486": -0.005634886769277069,
            "487": 0.008842475244510798,
            "488": 0.016403121911319377,
            "489": 0.015331698607194959,
            "490": 0.014017077340202619,
            "491": 0.006259829189232379,
            "492": 0.015038719756026402,
            "493": 0.014583609061929018,
            "494": 0.007251860415297552,
            "495": 0.013690096280510758,
            "496": -0.01563816128015853,
            "497": -0.03781887793458149,
            "498": 0.0268342626465926,
            "499": 0.04318688316617493,
            "500": 0.01573734876220364,
            "501": -0.0030149299284563,
            "502": -0.011408695886181278,
            "503": 0.02739919501781268,
            "504": -0.03160462097555355,
            "505": -0.020430244839582515,
            "506": 0.03225410488162036,
            "507": 0.03334974350589034,
            "508": 0.03643037241715471,
            "509": -0.022747030256884404,
            "510": 0.025128122721364707,
            "511": -0.031510145242130104,
            "512": -0.02138161647442663,
            "513": 0.003350887022343245,
            "514": 0.039178537972324845,
            "515": -0.001469513950789066,
            "516": -0.013592431504366497,
            "517": -0.013869679060423419,
            "518": 0.030550207218065232,
            "519": -0.012877801922080292,
            "520": -0.009486322925574704,
            "521": 0.0027435641080445104,
            "522": -0.06882402764616996,
            "523": 0.024225886206603736,
            "524": 0.015899840968744652,
            "525": 0.0003967214485610566,
            "526": 0.015398276979818324,
            "527": 0.042681663258099585,
            "528": 0.03590670065976872,
            "529": -0.023731763262399643,
            "530": -0.023701055845521395,
            "531": -0.0490796734631963,
            "532": -0.002416852619790245,
            "533": 0.004060753013429102,
            "534": 0.01938227688439226,
            "535": -0.029791259676235894,
            "536": 0.047476594353990056,
            "537": 0.004703694059556929,
            "538": 0.014591837125768213,
            "539": -0.06869558081132428,
            "540": 0.024252931360036083,
            "541": -0.00575959158027852,
            "542": 0.03656213027674659,
            "543": -0.010044983734644207,
            "544": 0.03617058950774438,
            "545": -0.011853518961469188,
            "546": 0.05406658314884792,
            "547": -0.00818636466439665,
            "548": 0.02283803154519178,
            "549": 0.03566036133038007,
            "550": 0.030253581497892357,
            "551": -0.0065466590138655145,
            "552": -0.01089314254026324,
            "553": -0.00034281822900354074,
            "554": 0.015855549386410102,
            "555": 0.038321729927549404,
            "556": -0.0737159794459465,
            "557": -0.07550893759987809,
            "558": -0.046840311406868645,
            "559": -0.03795219231713471,
            "560": -0.03344510287322928,
            "561": -0.004257788982226223,
            "562": -0.024561854329238558,
            "563": 0.04644833654033206,
            "564": -0.026896271715911114,
            "565": 0.04799898490902744,
            "566": -0.04436737413200862,
            "567": -0.007535726680370616,
            "568": -0.026512009645629477,
            "569": 0.009864300502063337,
            "570": 0.033194757013002105,
            "571": -0.02630194972785669,
            "572": -0.0076814328952408166,
            "573": -0.04336750742484625,
            "574": -0.0546648249428319,
            "575": -0.04074679440749465,
            "576": -0.02815340849108958,
            "577": 0.005104104295462252,
            "578": 0.001129462180814489,
            "579": -0.000741946138067019,
            "580": -0.01385168827688923,
            "581": -0.007367031698482524,
            "582": -0.07121318940335461,
            "583": -0.018524247738014844,
            "584": -0.020456814933161302,
            "585": -0.04003740254208425,
            "586": -0.01155991995791136,
            "587": 0.02243767282715454,
            "588": -0.017979452860576162,
            "589": 0.004752721006556581,
            "590": -0.00312138782566451,
            "591": -0.03420493377796919,
            "592": -0.04099523141165978,
            "593": -0.03523230855672152,
            "594": 0.004643318141550909,
            "595": -0.028710864071680928,
            "596": -0.024526380285524584,
            "597": -0.07477602097436394,
            "598": -0.034407068827068475,
            "599": 0.06723195515009993,
            "600": -0.03287619110787694,
            "601": -0.02259925233064366,
            "602": 0.008644203221173466,
            "603": -0.02637383890563502,
            "604": 0.02419426568318292,
            "605": -0.03208276807451556,
            "606": -0.0011819510453525868,
            "607": -0.022050498556753267,
            "608": 0.029670768758589677,
            "609": 0.014031301612475565,
            "610": 0.014849533171147329,
            "611": 0.0363980772753359,
            "612": 0.0010939747490506069,
            "613": 0.019910145223406457,
            "614": 0.013406872838165744,
            "615": -0.01527752915585624,
            "616": 0.019675627856248438,
            "617": -0.006491689745670293,
            "618": 0.010646514108964776,
            "619": -0.051780290792475536,
            "620": -0.004460256563772357,
            "621": -0.009472346766072613,
            "622": 0.00923286883905256,
            "623": -0.03057103798709993,
            "624": -0.020428082655283945,
            "625": 0.0009324188255648157,
            "626": 0.027347745184397896,
            "627": 0.009822500417459575,
            "628": 0.0001778631850575381,
            "629": -0.007931784203879261,
            "630": -0.040047057371527556,
            "631": 0.004017219893568925,
            "632": 0.039107686570791764,
            "633": -0.024464578284954207,
            "634": -0.008080128803848428,
            "635": -0.02792641646674121,
            "636": -0.024126092538706623,
            "637": 0.022715566043564582,
            "638": 0.014503230097436978,
            "639": 0.018008746614730627,
            "640": 0.045506217238651676,
            "641": -0.025054376676208374,
            "642": -0.010208329795279412,
            "643": -0.018564764720844777,
            "644": -0.026856692220778106,
            "645": -0.013404873210221317,
            "646": -0.03660132510656913,
            "647": 0.010480404624742352,
            "648": 0.030579469421071023,
            "649": 0.04626282059841378,
            "650": 0.03324140701408017,
            "651": 0.004075003806863292,
            "652": -0.026013654988955956,
            "653": -0.004173314616432143,
            "654": 0.018566807612084554,
            "655": -0.03514097595384264,
            "656": -0.04300703157704259,
            "657": 0.004252247315668096,
            "658": -0.03230013862475665,
            "659": 0.008374320995515015,
            "660": 0.001125888451621575,
            "661": -0.03785820050792684,
            "662": 0.009627236068883674,
            "663": -0.013008895811069754,
            "664": -0.014728684280476434,
            "665": 0.007065082898792992,
            "666": 0.0018973745886026064,
            "667": -0.03945534930357367,
            "668": -0.016059897873362112,
            "669": -0.030930757204805072,
            "670": 0.0045558666586764905,
            "671": -0.018890765033811315,
            "672": -0.00925695650417052,
            "673": 0.02315551432345585,
            "674": 0.04629296312151565,
            "675": 0.0635869928504034,
            "676": -0.005012391734299558,
            "677": -0.029709483428429297,
            "678": -0.005738160279408798,
            "679": -0.03180390536486229,
            "680": 0.050885089636367946,
            "681": 0.0180738530932346,
            "682": 0.01372439298691548,
            "683": 0.025273084012995797,
            "684": -0.02406539718852404,
            "685": -0.001488049590588442,
            "686": -0.05804686479582484,
            "687": 0.05245610552084379,
            "688": -0.013369346159261856,
            "689": 0.013410591063176104,
            "690": -0.045607890593573855,
            "691": -0.002935379946706813,
            "692": 0.0015630899365099199,
            "693": 0.026837217899707905,
            "694": 0.027026575765095814,
            "695": -0.018672241772799244,
            "696": -0.0038263049959039214,
            "697": 0.018329874321948467,
            "698": 0.02923535998089386,
            "699": -0.01596891855421485,
            "700": 0.0385339902562413,
            "701": 0.017254866466794094,
            "702": -0.00009758979735499109,
            "703": -0.004499649026603933,
            "704": -0.020692063128057665,
            "705": -0.029017094134289906,
            "706": -0.0029756243342812755,
            "707": 0.00916714079292547,
            "708": -0.0025532385839355807,
            "709": -0.05118585150768969,
            "710": 0.025389363924890315,
            "711": 0.015858980176004157,
            "712": 0.010656346913788146,
            "713": 0.013951605794696896,
            "714": 0.01607104284013681,
            "715": 0.011810619032724533,
            "716": 0.062253370967986804,
            "717": -0.0020629405848747026,
            "718": -0.03457580166247762,
            "719": 0.03544105422033431,
            "720": -0.011101638066637744,
            "721": 0.022967279326172513,
            "722": -0.004636448252746402,
            "723": -0.05650722685264011,
            "724": -0.011758679787339271,
            "725": -0.004787171204707661,
            "726": -0.009838174974826978,
            "727": -0.0005262780782552821,
            "728": -0.010373516226006376,
            "729": -0.010453311401769564,
            "730": -0.0038247133625729773,
            "731": -0.01965196049010649,
            "732": 0.039846452701062685,
            "733": 0.027563572809427315,
            "734": 0.06089619602563866,
            "735": 0.047068654595750735,
            "736": -0.02852335525303731,
            "737": 0.0214469419036558,
            "738": -0.005731113428993908,
            "739": 0.04527471769708932,
            "740": -0.010204427692863994,
            "741": 0.021829506603515125,
            "742": 0.0021069195962853888,
            "743": -0.03869669574520159,
            "744": 0.02944896695701076,
            "745": 0.047914712138483015,
            "746": -0.015496980013516362,
            "747": -0.002657946993911595,
            "748": -0.004952519412216948,
            "749": -0.02629850167603838,
            "750": -0.016512628502261064,
            "751": -0.02152636584523017,
            "752": -0.006960382692280108,
            "753": 0.006123352440581656,
            "754": 0.035996012701894155,
            "755": -0.03917000677595854,
            "756": -0.008176596713799156,
            "757": 0.015132355364459898,
            "758": 0.003633414606934454,
            "759": -0.004979225866561179,
            "760": -0.031107110255387826,
            "761": 0.0453277146474734,
            "762": 0.007149594660466765,
            "763": -0.01001914898674338,
            "764": 0.018644618166130777,
            "765": 0.08652052285318823,
            "766": -0.044997580398978027,
            "767": 0.007859464668753249,
            "768": 0.02066509808637297,
            "769": 0.015975377523310075,
            "770": -0.004367075204653575,
            "771": 0.02836797836508715,
            "772": 0.019289502557575534,
            "773": -0.010234272021227259,
            "774": -0.01405539954658393,
            "775": -0.013811641309974535,
            "776": 0.0067550170664808975,
            "777": 0.011220058199749533,
            "778": 0.030361222037279915,
            "779": 0.006784101739488091,
            "780": 0.07823119266676899,
            "781": -0.00916804747192384,
            "782": 0.014202872647132032,
            "783": -0.0026442277020128817,
            "784": 0.05559796842688872,
            "785": 0.036763553141897706,
            "786": 0.004932254728327154,
            "787": 0.01601458493165303,
            "788": -0.009381035736695863,
            "789": 0.006397639381562607,
            "790": 0.026064066310009945,
            "791": -0.05290246090874821,
            "792": 0.042766553163644735,
            "793": -0.015046534893451357,
            "794": 0.022207435208954643,
            "795": -0.005114040399912244,
            "796": 0.007460080164588283,
            "797": 0.010965241973698754,
            "798": 0.0018598740011075618,
            "799": 0.05461419059788776
          }
        },
        {
          "sx": 1,
          "sy": 1,
          "depth": 800,
          "w": {
            "0": 0.03866327897312864,
            "1": -0.0714109134157569,
            "2": 0.0012336452609024097,
            "3": -0.009407715172003115,
            "4": 0.052682945755178415,
            "5": 0.08566643287509483,
            "6": -0.037751706986698885,
            "7": 0.029828204446110698,
            "8": 0.0024402266471782318,
            "9": -0.07852814179790749,
            "10": 0.055355917833238115,
            "11": -0.006650634108734721,
            "12": -0.029474447884388227,
            "13": -0.0023888100491376465,
            "14": 0.0021012540390285494,
            "15": -0.06351252728569534,
            "16": -0.022009828293197482,
            "17": -0.016013521378667815,
            "18": -0.0011930604674180365,
            "19": -0.025987018351475186,
            "20": -0.02403896404988681,
            "21": 0.029815505033497003,
            "22": -0.026126123678088687,
            "23": -0.049195301537368,
            "24": -0.0275405995973945,
            "25": 0.0159874211519025,
            "26": -0.0015959995843571495,
            "27": -0.011940774253724739,
            "28": -0.040882783796147314,
            "29": -0.026784959688720772,
            "30": 0.029411799907541766,
            "31": 0.019397215353374242,
            "32": 0.019837520330892817,
            "33": -0.0078547874215775,
            "34": -0.008676280153974533,
            "35": 0.030437769380874443,
            "36": -0.008850737233272928,
            "37": 0.00024339736853752544,
            "38": 0.01070357991544871,
            "39": -0.023674895256215023,
            "40": 0.027022936731780352,
            "41": -0.011564991317141983,
            "42": 0.00500460384986754,
            "43": 0.01658560674975613,
            "44": 0.0027625157544597565,
            "45": 0.028183725268124734,
            "46": -0.009907344876859183,
            "47": -0.03864976804239114,
            "48": -0.01385434391533481,
            "49": 0.015127192930336117,
            "50": -0.006070438022714242,
            "51": 0.03038151921094612,
            "52": 0.0001545800343140533,
            "53": 0.025216413578415843,
            "54": -0.00398927285891591,
            "55": 0.012968848209341721,
            "56": 0.0032288729186537527,
            "57": 0.007785400913500894,
            "58": -0.015839668973155814,
            "59": -0.02265093317359392,
            "60": 0.03659353598837621,
            "61": -0.041914729988871184,
            "62": 0.006210703279654833,
            "63": -0.023212776609863876,
            "64": -0.005741795474178152,
            "65": -0.007566184281123434,
            "66": -0.033503447137453915,
            "67": 0.015522358542276076,
            "68": 0.043902856966907516,
            "69": 0.03038194440883823,
            "70": -0.004850312828892294,
            "71": 0.019928237821636628,
            "72": 0.028241839336783488,
            "73": 0.01868909762508664,
            "74": 0.028123420663838924,
            "75": -0.011780216035335009,
            "76": 0.04457431260616423,
            "77": -0.019915024194872753,
            "78": 0.0830963186096951,
            "79": 0.026771895069377945,
            "80": -0.013621537679279084,
            "81": -0.0047630681928170085,
            "82": -0.009723574555157778,
            "83": -0.02171685574036584,
            "84": 0.03264444329125098,
            "85": 0.016364778215585206,
            "86": 0.05415400481307229,
            "87": 0.004370455983463487,
            "88": -0.03196502207874611,
            "89": 0.01749992949470464,
            "90": 0.026710837359045756,
            "91": -0.003755347088544963,
            "92": 0.02543386563380314,
            "93": 0.007316492463179116,
            "94": -0.060550647833291726,
            "95": 0.03494581561591614,
            "96": 0.028432941983318995,
            "97": 0.02346624010148095,
            "98": -0.01798352883775086,
            "99": 0.009849514202129869,
            "100": -0.02536187461513507,
            "101": -0.02004376330909459,
            "102": 0.03555655183211593,
            "103": 0.0053015877339379035,
            "104": -0.01678889820121071,
            "105": 0.0348656421786772,
            "106": -0.03090108699411018,
            "107": -0.06194315696890052,
            "108": 0.0027079769216128884,
            "109": -0.020447963020708837,
            "110": -0.00885887455305677,
            "111": 0.03826003846922614,
            "112": -0.028143545458226303,
            "113": 0.011187799913131218,
            "114": 0.02222277027496802,
            "115": -0.0030526051230421593,
            "116": 0.034457079974086424,
            "117": 0.030550445326929472,
            "118": -0.011049401788186117,
            "119": 0.011844649861542452,
            "120": -0.01088924302136756,
            "121": -0.017179697984238993,
            "122": -0.021299793198822834,
            "123": -0.03356321044257179,
            "124": -0.020652418995692597,
            "125": 0.010630776622803763,
            "126": 0.051093750716024254,
            "127": 0.0016484340095318884,
            "128": 0.03881739283788911,
            "129": -0.05398357863061344,
            "130": -0.008687836704603248,
            "131": -0.027011469797913207,
            "132": -0.01910247497609463,
            "133": 0.005094851893610932,
            "134": -0.014193080162142989,
            "135": 0.03580583825008463,
            "136": -0.014056870841732402,
            "137": 0.01868384288797349,
            "138": -0.04621071708114345,
            "139": 0.007687003316387228,
            "140": -0.006124996338929298,
            "141": -0.039002441536235444,
            "142": -0.04289421709253415,
            "143": -0.020002144538658544,
            "144": 0.021316618693046886,
            "145": -0.0031713019862176,
            "146": -0.045326661515618503,
            "147": 0.04304202614446115,
            "148": 0.01964649145223646,
            "149": 0.021514295348308485,
            "150": -0.004819005768469564,
            "151": -0.0023047625683739925,
            "152": 0.008500857987422842,
            "153": -0.0092344352561176,
            "154": -0.005234523245993502,
            "155": -0.016371942187043017,
            "156": 0.01769396198847275,
            "157": -0.047934977010254114,
            "158": -0.06209275204273142,
            "159": 0.025902728910783736,
            "160": -0.0038826842638182753,
            "161": 0.03206051662411689,
            "162": -0.013189043606650254,
            "163": -0.019690835363629925,
            "164": 0.04060815947373987,
            "165": -0.005119832264272804,
            "166": -0.008232369104269702,
            "167": 0.038992389702778706,
            "168": 0.02924581499550006,
            "169": 0.027634142979826363,
            "170": -0.03925533678597858,
            "171": 0.041103449075636955,
            "172": -0.008369200357852899,
            "173": -0.025539710712380616,
            "174": 0.028801549703839645,
            "175": -0.015779495229118548,
            "176": -0.03527920089852754,
            "177": -0.001241148436840243,
            "178": 0.008205283188885752,
            "179": -0.03285661433706921,
            "180": 0.017822883536085257,
            "181": -0.0030638415356261097,
            "182": 0.04806060185267202,
            "183": -0.013367740709285874,
            "184": -0.012589624316792666,
            "185": 0.0037395218386118384,
            "186": -0.0038630871156121183,
            "187": -0.01334320855613219,
            "188": -0.05790086219464641,
            "189": 0.012028657006929063,
            "190": 0.03472208940440087,
            "191": 0.04174120004326054,
            "192": -0.022527343880022324,
            "193": 0.012322806110367231,
            "194": -0.018276141262930475,
            "195": -0.035357517715800285,
            "196": 0.018506705709863357,
            "197": -0.010570258014324327,
            "198": 0.059179075467087644,
            "199": -0.01766717801163893,
            "200": -0.05094200757762862,
            "201": 0.0043806435833639475,
            "202": -0.02974965006548296,
            "203": -0.043318287312548776,
            "204": -0.03782631922178566,
            "205": 0.04902749995773249,
            "206": -0.005393032841814308,
            "207": -0.013412337882972457,
            "208": 0.049448411347637174,
            "209": -0.06601082272328022,
            "210": -0.0315617683797307,
            "211": -0.023991098012963882,
            "212": 0.05908529432145715,
            "213": -0.0003037123494209077,
            "214": 0.01240503466278218,
            "215": 0.0030518845867497485,
            "216": 0.02797799454027771,
            "217": 0.0005153547466449198,
            "218": -0.014626105468254314,
            "219": 0.006383332748219845,
            "220": 0.017188866055921473,
            "221": -0.025503698885213418,
            "222": 0.020644142088658925,
            "223": 0.033498421777851714,
            "224": -0.03269208990074566,
            "225": -0.020228531076661706,
            "226": 0.03871837386823372,
            "227": 0.010970783264693211,
            "228": 0.012698356558023602,
            "229": 0.01815107951309933,
            "230": 0.005741863468089771,
            "231": -0.00914292754519301,
            "232": -0.012951067309810374,
            "233": -0.00008149842791927632,
            "234": -0.012614837239593887,
            "235": 0.02547358580762518,
            "236": 0.005399012960046045,
            "237": 0.058838217989056335,
            "238": -0.03658256537595189,
            "239": -0.021254806654651497,
            "240": -0.026555426540050595,
            "241": -0.01883833607218163,
            "242": -0.00423987319610051,
            "243": 0.03344070122349523,
            "244": 0.03393165896099409,
            "245": -0.015275539498378246,
            "246": 0.03113326432069006,
            "247": 0.0418207571640938,
            "248": 0.023265292943459248,
            "249": 0.07211925083042843,
            "250": 0.022850644303275793,
            "251": 0.008849436600782678,
            "252": -0.002906633417748733,
            "253": 0.007766125147901384,
            "254": 0.037973297868431226,
            "255": -0.058151590158250104,
            "256": -0.003726901828069599,
            "257": 0.005488602618389758,
            "258": 0.06196812246597708,
            "259": -0.024819732276168915,
            "260": -0.005233213125870328,
            "261": -0.008090586974868095,
            "262": 0.057862839071375134,
            "263": -0.004486961120519371,
            "264": 0.005256696636672137,
            "265": -0.02109888170360198,
            "266": 0.003927371566900015,
            "267": 0.0552851302197106,
            "268": 0.028542730814975614,
            "269": 0.002353621217461624,
            "270": -0.014227638683809152,
            "271": 0.0066225973655128475,
            "272": -0.008710780939567377,
            "273": 0.001357520813756274,
            "274": 0.017240596436287278,
            "275": -0.012969238938974885,
            "276": 0.08114269920938286,
            "277": 0.034460862919280806,
            "278": -0.058864187338690484,
            "279": 0.006346634230709363,
            "280": -0.01275637618499604,
            "281": 0.009417139875001446,
            "282": -0.01671598264972917,
            "283": -0.01767098246503583,
            "284": -0.009025626004417774,
            "285": 0.053513800799710846,
            "286": -0.02052523670918706,
            "287": 0.01953757462339678,
            "288": -0.005260597637963631,
            "289": 0.015012438017947523,
            "290": 0.05769654680177407,
            "291": -0.054978852167877686,
            "292": -0.006294770999381888,
            "293": -0.01869767058226141,
            "294": -0.008393218948463172,
            "295": -0.01349512813651694,
            "296": 0.013043884221932577,
            "297": 0.003120091070163861,
            "298": -0.004959746202555596,
            "299": -0.04978216066182989,
            "300": 0.017640160597821305,
            "301": -0.007892403226380344,
            "302": -0.04710923767753005,
            "303": -0.024765225819456196,
            "304": 0.016046598521999696,
            "305": 0.03844614040867388,
            "306": 0.011187545202573857,
            "307": 0.010705084541378331,
            "308": -0.00017068812267991685,
            "309": 0.016343826534367663,
            "310": 0.012211010188092213,
            "311": 0.051255729595911875,
            "312": -0.03180102262634443,
            "313": -0.03260294021139072,
            "314": -0.02978854004015347,
            "315": 0.007821672998796691,
            "316": 0.026722614428267146,
            "317": -0.00038316416166941204,
            "318": -0.01931159770813933,
            "319": -0.003841002237763643,
            "320": 0.0017375129507119697,
            "321": 0.0024431372287776875,
            "322": -0.001096897503559022,
            "323": -0.021686766862218324,
            "324": -0.04648899455463651,
            "325": 0.0019310901051012156,
            "326": -0.02807843435404999,
            "327": -0.055669859591435805,
            "328": -0.03737833475554914,
            "329": 0.02552613759504449,
            "330": 0.03128215438652526,
            "331": 0.006988219938131326,
            "332": -0.00037436516586089765,
            "333": -0.010683244322183176,
            "334": -0.009668978081351514,
            "335": -0.045520717185919775,
            "336": -0.02820075109789736,
            "337": -0.028515296537002393,
            "338": -0.012640562449084876,
            "339": 0.017531311449551293,
            "340": -0.01031473021315297,
            "341": 0.04128582221224211,
            "342": -0.011115558056025224,
            "343": 0.04212719255936099,
            "344": 0.0065304930888506986,
            "345": 0.02729821266660092,
            "346": -0.013083691464228884,
            "347": -0.032388793874539294,
            "348": 0.04739355104829304,
            "349": -0.0165260906491142,
            "350": 0.027279022998007142,
            "351": 0.018269291045391572,
            "352": 0.003183163709566553,
            "353": -0.006538539563844619,
            "354": 0.011776499435460013,
            "355": 0.010431288016865853,
            "356": 0.03435689548640776,
            "357": 0.0016590396292851515,
            "358": 0.04539430634702521,
            "359": -0.06125418677278686,
            "360": -0.016042732308601627,
            "361": 0.023207566917898905,
            "362": 0.009133451450801917,
            "363": -0.004589083468941624,
            "364": 0.005841406767072451,
            "365": 0.009608397954980053,
            "366": 0.007133435708230567,
            "367": -0.001299450769459405,
            "368": -0.014614027938325653,
            "369": -0.0054771748304273645,
            "370": -0.03697971618489787,
            "371": 0.019954659629117306,
            "372": -0.032505832181577904,
            "373": -0.01828713358323302,
            "374": 0.046814168750301435,
            "375": -0.007794726406269695,
            "376": -0.051099415345544776,
            "377": -0.062015751253647486,
            "378": 0.01792677429447202,
            "379": 0.022761947058073124,
            "380": -0.025459247279056015,
            "381": 0.018288424833225986,
            "382": 0.022883575997319966,
            "383": -0.029091434061876944,
            "384": -0.024692324071399357,
            "385": 0.032869687032559554,
            "386": -0.027498307749850747,
            "387": -0.0058827055164416145,
            "388": 0.01833188275092832,
            "389": -0.018064099987094424,
            "390": -0.03159428451909682,
            "391": -0.010815628261485874,
            "392": 0.030840624293882044,
            "393": -0.02786070509731188,
            "394": 0.022648911867470353,
            "395": -0.05300135422934032,
            "396": 0.011485576727055002,
            "397": -0.0408449587853886,
            "398": 0.025363472381864545,
            "399": -0.04215021346683594,
            "400": 0.020475370879838608,
            "401": 0.024138198111392343,
            "402": -0.03902549025570558,
            "403": -0.013911538962570693,
            "404": -0.057545460980563026,
            "405": 0.054495235150124104,
            "406": -0.05056992361713494,
            "407": -0.012536847488140674,
            "408": 0.012268892821928274,
            "409": -0.022397377819285153,
            "410": 0.030678058233230894,
            "411": -0.045556501495257536,
            "412": -0.019250362114392634,
            "413": 0.007523509793846573,
            "414": 0.014607546291394075,
            "415": -0.03864535153308085,
            "416": -0.01886513362180411,
            "417": 0.03747327940510312,
            "418": -0.014341907955780305,
            "419": 0.013697795218251735,
            "420": -0.017878148829234993,
            "421": -0.007690840897432479,
            "422": -0.006175361657025324,
            "423": -0.009759976805863662,
            "424": 0.04041800263950372,
            "425": -0.0035534698922781286,
            "426": -0.024834684634709503,
            "427": -0.0691941562115786,
            "428": -0.03423266475378658,
            "429": 0.02546982419539805,
            "430": -0.006404967642634643,
            "431": -0.0002020463051201391,
            "432": 0.022559584693002777,
            "433": -0.008319280725630497,
            "434": 0.0016853866231127188,
            "435": -0.040099225977544804,
            "436": -0.00013544536975621175,
            "437": -0.0003679647031125058,
            "438": -0.005118447779240011,
            "439": -0.014938113919340438,
            "440": -0.01456527257264861,
            "441": 0.02810877030347756,
            "442": 0.028611043860373754,
            "443": -0.04548267263119797,
            "444": -0.04498232695842163,
            "445": -0.011453054824903632,
            "446": -0.013231979714862126,
            "447": 0.020906482417712206,
            "448": 0.007273837354886439,
            "449": -0.05061640179210846,
            "450": 0.004303812186844095,
            "451": 0.028369404979872826,
            "452": 0.058659395410683185,
            "453": -0.04531804784699173,
            "454": 0.01572756577624755,
            "455": 0.012353183733274178,
            "456": -0.004226162374530445,
            "457": -0.031641363159483855,
            "458": -0.010528315262178902,
            "459": -0.02239968664737481,
            "460": -0.053862531033621645,
            "461": -0.06553321192322403,
            "462": -0.05079506001302398,
            "463": -0.03961069165453234,
            "464": 0.019152413814142198,
            "465": -0.03540212067186743,
            "466": 0.018967941366976153,
            "467": 0.052938441355489745,
            "468": -0.0679523171192333,
            "469": -0.029012711580357533,
            "470": -0.02867449633500051,
            "471": 0.0038458935604217983,
            "472": -0.0073123654539431525,
            "473": -0.010960053921023302,
            "474": 0.005427149461483911,
            "475": 0.03472649936102627,
            "476": -0.05712569171608004,
            "477": 0.007169069579119029,
            "478": 0.030794873679627195,
            "479": -0.010288913317647967,
            "480": 0.009970850238309526,
            "481": 0.002758965138018577,
            "482": 0.01380154688947521,
            "483": -0.012808273791872432,
            "484": 0.013675590458394645,
            "485": 0.004166995914589363,
            "486": 0.03282073881330734,
            "487": 0.031124785186933363,
            "488": 0.027168123805575015,
            "489": -0.0005182809925014123,
            "490": 0.03245563912384652,
            "491": -0.01674286401184278,
            "492": 0.003648180914220896,
            "493": -0.02200335352736729,
            "494": 0.013352086307615686,
            "495": 0.04303066258405989,
            "496": -0.01274954719194096,
            "497": -0.04022856266991054,
            "498": 0.031245024639166324,
            "499": 0.02237850161875812,
            "500": -0.060934578398723425,
            "501": 0.059928550082573716,
            "502": 0.004938559026815183,
            "503": -0.00928629368874131,
            "504": 0.04373346486402223,
            "505": 0.01201325217428068,
            "506": -0.0018829021413669944,
            "507": 0.03489108898323122,
            "508": -0.0009408103652546477,
            "509": -0.0004981774331212687,
            "510": -0.012440452520030097,
            "511": -0.012414844008855517,
            "512": -0.01832610749897175,
            "513": 0.020225580234040693,
            "514": -0.022188129710018812,
            "515": -0.022480210537380696,
            "516": -0.03096573495168088,
            "517": -0.0014696305364156415,
            "518": -0.02954617001055199,
            "519": -0.05152725976838711,
            "520": 0.015887174239564365,
            "521": 0.014014400566945705,
            "522": 0.02936805182194146,
            "523": -0.04405067742678044,
            "524": -0.036066037677227374,
            "525": 0.021401434936383017,
            "526": 0.014024548517003235,
            "527": 0.01560366873449236,
            "528": -0.021118466901926855,
            "529": -0.02069080668358366,
            "530": 0.011808632260577717,
            "531": -0.012971988479223913,
            "532": -0.015748158866156752,
            "533": 0.015176721015169021,
            "534": 0.025982492351241917,
            "535": -0.018158341900005703,
            "536": -0.024082375638128574,
            "537": -0.01934778348627967,
            "538": -0.017815639146349906,
            "539": 0.002335401544467516,
            "540": 0.013102472985052297,
            "541": -0.0593941566125961,
            "542": 0.02466827902427336,
            "543": -0.005587811633061024,
            "544": -0.048569947212073396,
            "545": 0.018534433121567443,
            "546": 0.022005382818777834,
            "547": -0.011228676290231523,
            "548": -0.006706424501117892,
            "549": 0.0033356415591377334,
            "550": 0.006292317025152805,
            "551": 0.06973743821643746,
            "552": 0.00710968810157301,
            "553": 0.017450300145887814,
            "554": 0.03948590758864136,
            "555": 0.0262761072320513,
            "556": -0.011516899655558962,
            "557": 0.02626017265691225,
            "558": -0.024236080232060996,
            "559": -0.01786236115443074,
            "560": 0.026371790968951998,
            "561": 0.024006359744245663,
            "562": -0.04363204868018436,
            "563": 0.01242690578294372,
            "564": -0.021144761792786695,
            "565": -0.010962837391946261,
            "566": -0.01083204510761685,
            "567": -0.022534599737985828,
            "568": -0.01781721642029686,
            "569": 0.0014103823517747887,
            "570": 0.009706578409462676,
            "571": -0.00692413201878657,
            "572": -0.010534231631146612,
            "573": 0.008796759992110886,
            "574": 0.03462118240094519,
            "575": 0.010715873381486383,
            "576": 0.052250637039976684,
            "577": 0.030081195638677363,
            "578": -0.010434513584749816,
            "579": 0.00651901204249012,
            "580": -0.0007259755057994468,
            "581": 0.016222655808484157,
            "582": 0.015530501120648268,
            "583": -0.03159051014946449,
            "584": -0.015042825014899768,
            "585": 0.01298081887108539,
            "586": -0.022456627316120328,
            "587": 0.0016448867040209031,
            "588": 0.012570573356270726,
            "589": -0.004765265387360722,
            "590": -0.00048595569655852076,
            "591": 0.004738141203625514,
            "592": -0.02132790364638284,
            "593": -0.05953677863574798,
            "594": 0.010654782719179063,
            "595": 0.008249298586259522,
            "596": -0.06213395969724937,
            "597": -0.01822824324806613,
            "598": -0.011269853461320435,
            "599": 0.030373181761415683,
            "600": 0.042576578573013876,
            "601": 0.011480702745347144,
            "602": -0.011575476185330898,
            "603": -0.04770839195566126,
            "604": 0.037935377801454936,
            "605": 0.04053214548475853,
            "606": 0.009885984867924066,
            "607": -0.023989863727017852,
            "608": -0.01923222467146491,
            "609": -0.004976324062037626,
            "610": 0.024636463773490713,
            "611": -0.006182153921062535,
            "612": 0.009392559819424018,
            "613": -0.02096031983290275,
